{"learner":{"attributes":{},"feature_names":[],"feature_types":[],"gradient_booster":{"model":{"gbtree_model_param":{"num_parallel_tree":"1","num_trees":"200"},"iteration_indptr":[0,1,2,3,4,5,6,7,8,9,10,11,12,13,14,15,16,17,18,19,20,21,22,23,24,25,26,27,28,29,30,31,32,33,34,35,36,37,38,39,40,41,42,43,44,45,46,47,48,49,50,51,52,53,54,55,56,57,58,59,60,61,62,63,64,65,66,67,68,69,70,71,72,73,74,75,76,77,78,79,80,81,82,83,84,85,86,87,88,89,90,91,92,93,94,95,96,97,98,99,100,101,102,103,104,105,106,107,108,109,110,111,112,113,114,115,116,117,118,119,120,121,122,123,124,125,126,127,128,129,130,131,132,133,134,135,136,137,138,139,140,141,142,143,144,145,146,147,148,149,150,151,152,153,154,155,156,157,158,159,160,161,162,163,164,165,166,167,168,169,170,171,172,173,174,175,176,177,178,179,180,181,182,183,184,185,186,187,188,189,190,191,192,193,194,195,196,197,198,199,200],"tree_info":[0,0,0,0,0,0,0,0,0,0,0,0,0,0,0,0,0,0,0,0,0,0,0,0,0,0,0,0,0,0,0,0,0,0,0,0,0,0,0,0,0,0,0,0,0,0,0,0,0,0,0,0,0,0,0,0,0,0,0,0,0,0,0,0,0,0,0,0,0,0,0,0,0,0,0,0,0,0,0,0,0,0,0,0,0,0,0,0,0,0,0,0,0,0,0,0,0,0,0,0,0,0,0,0,0,0,0,0,0,0,0,0,0,0,0,0,0,0,0,0,0,0,0,0,0,0,0,0,0,0,0,0,0,0,0,0,0,0,0,0,0,0,0,0,0,0,0,0,0,0,0,0,0,0,0,0,0,0,0,0,0,0,0,0,0,0,0,0,0,0,0,0,0,0,0,0,0,0,0,0,0,0,0,0,0,0,0,0,0,0,0,0,0,0,0,0,0,0,0,0],"trees":[{"base_weights":[-6.179074E-8,8.828672E-2,-2.5246897E-1,3.4263068E-1,-6.7548156E-2,-5.5423284E-1,-4.933857E-2,3.816501E-1,-9.127179E-1,-1.7198917E-1,3.5283256E-1,-7.114713E-1,4.2519853E-1,-2.7068788E-1,2.9320177E-1,4.8077023E-1,-1.6858295E-1,6.1603583E-2,-4.2177144E-1,4.5636567E-1,-2.326794E-1,8.120138E-1,-2.7896607E-1,-9.476734E-1,-1.9240691E-1,-1.44804E-1,8.8436437E-1,3.2830453E-1,-3.3092192E-1,4.9913517E-1,-7.523092E-1,5.5536395E-1,-9.970274E-2,-6.403233E-1,4.1165274E-1,-3.491511E-1,1.0498357E0,-1.4996453E-1,-6.590757E-1,2.7267337E-1,1.0701134E0,8.0895044E-2,-9.229652E-1,-1.0861236E0,-2.4345327E-2,3.939109E-1,-9.8907644E-1,3.533663E-1,4.8744034E-2,-1.5208133E-1,-9.1150796E-1,6.0930157E-1,-2.7286687E-1,-3.6675596E-1,4.8744034E-2,9.397522E-2,2.6199725E-1,-2.0764656E-1,9.19053E-2,1.43179E-1,-3.1631443E-1,-8.1860065E-2,2.1976127E-1,1.9394474E-1,-2.4236931E-1,4.421027E-1,-1.6946992E-1,-7.795785E-2,4.566503E-2,-2.9292217E-1,2.5224917E-2,2.0837316E-1,-1.0196164E-1,4.1385925E-1,2.1186221E-2,1.6627705E-1,-1.3642234E-1,-3.8936013E-1,4.8744034E-2,4.8744034E-2,-3.5429224E-1,3.2830453E-1,-2.0672882E-1,-3.363375E-2,2.77055E-1,-4.6701655E-2,-4.5692518E-1,5.4522455E-2,-1.4467269E-1,-6.7314714E-2,-3.8562936E-1,1.0126771E-1,3.7007523E-1,2.345559E-1,-3.6552745E-1],"categories":[],"categories_nodes":[],"categories_segments":[],"categories_sizes":[],"default_left":[0,0,0,0,0,0,0,0,0,0,0,0,0,0,0,0,0,0,0,0,0,0,0,0,0,0,0,0,0,0,0,0,0,0,0,0,0,0,0,0,0,0,0,0,0,0,0,0,0,0,0,0,0,0,0,0,0,0,0,0,0,0,0,0,0,0,0,0,0,0,0,0,0,0,0,0,0,0,0,0,0,0,0,0,0,0,0,0,0,0,0,0,0,0,0],"id":0,"left_children":[1,3,5,7,9,11,13,15,17,19,21,23,25,27,29,31,33,-1,-1,35,37,39,41,43,45,-1,47,-1,49,51,53,55,57,59,61,63,65,67,69,71,73,75,77,79,81,83,85,-1,-1,87,89,91,93,-1,-1,-1,-1,-1,-1,-1,-1,-1,-1,-1,-1,-1,-1,-1,-1,-1,-1,-1,-1,-1,-1,-1,-1,-1,-1,-1,-1,-1,-1,-1,-1,-1,-1,-1,-1,-1,-1,-1,-1,-1,-1],"loss_changes":[1.1030844E1,1.4556168E1,7.832243E0,7.1798897E0,1.0079689E1,8.231937E0,5.9731064E0,7.4966736E0,2.7696126E0,7.1023483E0,1.3496056E1,5.3029537E0,3.656931E0,4.287339E0,7.048483E0,5.055332E0,6.147284E0,0E0,0E0,8.252663E0,5.8250437E0,3.4310741E0,4.7086487E0,3.8716488E0,7.5113664E0,0E0,9.7379065E-1,0E0,4.688487E0,2.4195466E0,2.5639784E0,7.6153145E0,3.5792644E0,6.1706495E0,2.4508476E0,4.0613403E0,7.503891E0,4.754036E0,6.4480257E0,2.819882E0,5.390751E0,3.737603E0,3.160571E0,3.329605E0,4.471685E0,2.6489425E0,2.7663536E0,0E0,0E0,4.137142E0,2.4730139E0,3.5693464E0,4.941131E0,0E0,0E0,0E0,0E0,0E0,0E0,0E0,0E0,0E0,0E0,0E0,0E0,0E0,0E0,0E0,0E0,0E0,0E0,0E0,0E0,0E0,0E0,0E0,0E0,0E0,0E0,0E0,0E0,0E0,0E0,0E0,0E0,0E0,0E0,0E0,0E0,0E0,0E0,0E0,0E0,0E0,0E0],"parents":[2147483647,0,0,1,1,2,2,3,3,4,4,5,5,6,6,7,7,8,8,9,9,10,10,11,11,12,12,13,13,14,14,15,15,16,16,19,19,20,20,21,21,22,22,23,23,24,24,26,26,28,28,29,29,30,30,31,31,32,32,33,33,34,34,35,35,36,36,37,37,38,38,39,39,40,40,41,41,42,42,43,43,44,44,45,45,46,46,49,49,50,50,51,51,52,52],"right_children":[2,4,6,8,10,12,14,16,18,20,22,24,26,28,30,32,34,-1,-1,36,38,40,42,44,46,-1,48,-1,50,52,54,56,58,60,62,64,66,68,70,72,74,76,78,80,82,84,86,-1,-1,88,90,92,94,-1,-1,-1,-1,-1,-1,-1,-1,-1,-1,-1,-1,-1,-1,-1,-1,-1,-1,-1,-1,-1,-1,-1,-1,-1,-1,-1,-1,-1,-1,-1,-1,-1,-1,-1,-1,-1,-1,-1,-1,-1,-1],"split_conditions":[3.2401077E3,1.3735918E1,1.9964E6,3.3293833E3,3.727694E6,2.8236755E6,2.935547E-3,3.0704593E-2,3.211052E3,2.6480507E1,6.315147E1,3.2369747E1,-4.706489E0,-3.408027E1,2.0744171E1,1.55645075E1,1.1673357E0,6.1603583E-2,-4.2177144E-1,1.8173839E6,3.568006E6,4.2097088E1,1.8481785E0,8.074775E1,4.0663203E3,-1.44804E-1,5.158553E1,3.2830453E-1,3.605017E6,1.6552529E0,4.02788E3,2.4758582E-3,2.9038562E3,1.6954545E3,2.2420162E6,1.0979127E3,1.7680398E3,4.454767E0,4.548848E6,-3.3839631E-3,6.779697E1,4.8436306E1,2.8520505E3,-1.2860404E-2,4.0687546E3,2.2181712E6,-1.4465954E1,3.533663E-1,4.8744034E-2,-1.1571459E-2,3.0876146E1,3.1073977E1,5.5064907E1,-3.6675596E-1,4.8744034E-2,9.397522E-2,2.6199725E-1,-2.0764656E-1,9.19053E-2,1.43179E-1,-3.1631443E-1,-8.1860065E-2,2.1976127E-1,1.9394474E-1,-2.4236931E-1,4.421027E-1,-1.6946992E-1,-7.795785E-2,4.566503E-2,-2.9292217E-1,2.5224917E-2,2.0837316E-1,-1.0196164E-1,4.1385925E-1,2.1186221E-2,1.6627705E-1,-1.3642234E-1,-3.8936013E-1,4.8744034E-2,4.8744034E-2,-3.5429224E-1,3.2830453E-1,-2.0672882E-1,-3.363375E-2,2.77055E-1,-4.6701655E-2,-4.5692518E-1,5.4522455E-2,-1.4467269E-1,-6.7314714E-2,-3.8562936E-1,1.0126771E-1,3.7007523E-1,2.345559E-1,-3.6552745E-1],"split_indices":[9,10,4,7,4,14,5,6,1,13,11,10,12,12,12,12,15,0,0,14,14,13,15,13,8,0,11,0,4,15,2,5,0,8,14,7,1,12,14,5,13,13,0,5,1,14,12,0,0,6,11,10,11,0,0,0,0,0,0,0,0,0,0,0,0,0,0,0,0,0,0,0,0,0,0,0,0,0,0,0,0,0,0,0,0,0,0,0,0,0,0,0,0,0,0],"split_type":[0,0,0,0,0,0,0,0,0,0,0,0,0,0,0,0,0,0,0,0,0,0,0,0,0,0,0,0,0,0,0,0,0,0,0,0,0,0,0,0,0,0,0,0,0,0,0,0,0,0,0,0,0,0,0,0,0,0,0,0,0,0,0,0,0,0,0,0,0,0,0,0,0,0,0,0,0,0,0,0,0,0,0,0,0,0,0,0,0,0,0,0,0,0,0],"sum_hessian":[4.928859E2,3.6566534E2,1.2722055E2,1.3846794E2,2.271974E2,5.048831E1,7.673224E1,1.3496875E2,3.4991899E0,1.8245776E2,4.4739643E1,4.3739876E1,6.748438E0,4.673918E1,2.9993057E1,1.144735E2,2.0495255E1,1.2497107E0,2.2494793E0,1.5496412E1,1.6696135E2,2.574404E1,1.8995602E1,2.9493172E1,1.4246702E1,2.2494793E0,4.4989586E0,1.2497107E0,4.5489468E1,2.5494099E1,4.4989586E0,1.0147651E2,1.2996991E1,1.1247396E1,9.247859E0,6.748438E0,8.747974E0,1.4096736E2,2.5993982E1,8.997917E0,1.6746122E1,1.2747049E1,6.2485533E0,2.5494099E1,3.9990742E0,8.498033E0,5.748669E0,2.7493634E0,1.7495949E0,3.5741726E1,9.747744E0,2.2494793E1,2.9993057E0,2.7493634E0,1.7495949E0,5.8736404E1,4.2740105E1,4.9988427E0,7.9981484E0,2.9993057E0,8.248091E0,2.9993057E0,6.2485533E0,1.9995371E0,4.7489004E0,6.9983797E0,1.7495949E0,1.0347604E2,3.749132E1,1.7995834E1,7.9981484E0,5.248785E0,3.7491322E0,1.2497107E1,4.2490163E0,6.748438E0,5.9986115E0,4.4989586E0,1.7495949E0,1.7495949E0,2.3744503E1,1.2497107E0,2.7493634E0,4.7489004E0,3.7491322E0,2.7493634E0,2.9993057E0,1.7995834E1,1.7745892E1,3.9990742E0,5.748669E0,1.6746122E1,5.748669E0,1.4996529E0,1.4996529E0],"tree_param":{"num_deleted":"0","num_feature":"16","num_nodes":"95","size_leaf_vector":"1"}},{"base_weights":[-4.984906E-4,6.395425E-2,-1.9695304E-1,3.6008973E-2,6.3573676E-1,-3.6480987E-1,-1.5472478E-1,1.3429856E-1,-1.2588534E-1,9.4965464E-1,-3.9353225E-1,-5.2439874E-1,-5.0188743E-2,9.75307E-2,9.7017455E-1,-7.770884E-2,-7.8748554E-1,1.2153491E0,8.812231E-2,7.260812E-2,-2.8271827E-1,5.961167E-1,-7.57521E-1,3.3403465E-1,-2.3273559E-1,1.5921189E-1,-2.941858E-1,-7.095614E-2,1.1878338E0,5.499677E-2,-4.0093848E-1,6.0743887E-2,-9.7370553E-1,1.7441954E-2,1.407716E0,-1.6878022E-1,2.3019655E-1,-8.670187E-3,3.612372E-1,-1.0044599E0,2.8629214E-1,5.449149E-1,-2.7405185E-1,-1.0828743E0,-1.6199028E-1,1.2684515E-1,1.217658E-2,-1.314057E-1,2.1736957E-1,4.6449393E-1,1.10679366E-1,-1.6083648E-2,2.0440724E-1,2.2231393E-1,-1.5981206E-1,-3.5326487E-1,-5.2216303E-2,4.694006E-1,7.631705E-2,6.719182E-2,-7.1251005E-2,7.1217455E-2,-3.334523E-1,3.2157654E-1,-8.049832E-2,2.3825474E-1,-4.1728966E-2,1.1472226E-1,-3.6190248E-1,-6.992532E-2,-3.953667E-1,-3.450759E-1,-2.9605411E-2],"categories":[],"categories_nodes":[],"categories_segments":[],"categories_sizes":[],"default_left":[0,0,0,0,0,0,0,0,0,0,0,0,0,0,0,0,0,0,0,0,0,0,0,0,0,0,0,0,0,0,0,0,0,0,0,0,0,0,0,0,0,0,0,0,0,0,0,0,0,0,0,0,0,0,0,0,0,0,0,0,0,0,0,0,0,0,0,0,0,0,0,0,0],"id":1,"left_children":[1,3,5,7,9,-1,11,13,15,17,19,21,23,25,27,29,31,33,35,-1,-1,37,39,41,43,45,47,-1,49,51,53,-1,55,-1,57,-1,-1,59,-1,61,63,65,67,69,71,-1,-1,-1,-1,-1,-1,-1,-1,-1,-1,-1,-1,-1,-1,-1,-1,-1,-1,-1,-1,-1,-1,-1,-1,-1,-1,-1,-1],"loss_changes":[6.2028036E0,5.8710594E0,5.0195866E0,5.629844E0,5.907815E0,0E0,4.5084004E0,6.665723E0,4.20252E0,2.9643002E0,1.8710866E0,7.181057E0,6.571415E0,5.164522E0,2.6858397E0,5.418136E0,1.8508239E0,2.1836414E0,2.3060243E0,0E0,0E0,1.8476664E0,5.8978567E0,4.0258417E0,3.6348538E0,5.725361E0,4.591133E0,0E0,1.7676792E0,6.163385E0,5.9227147E0,0E0,1.0537825E0,0E0,1.1737919E0,0E0,0E0,2.393967E-1,0E0,2.6332626E0,2.4411063E0,3.9946027E0,5.632482E0,6.2969255E-1,3.6190972E0,0E0,0E0,0E0,0E0,0E0,0E0,0E0,0E0,0E0,0E0,0E0,0E0,0E0,0E0,0E0,0E0,0E0,0E0,0E0,0E0,0E0,0E0,0E0,0E0,0E0,0E0,0E0,0E0],"parents":[2147483647,0,0,1,1,2,2,3,3,4,4,6,6,7,7,8,8,9,9,10,10,11,11,12,12,13,13,14,14,15,15,16,16,17,17,18,18,21,21,22,22,23,23,24,24,25,25,26,26,28,28,29,29,30,30,32,32,34,34,37,37,39,39,40,40,41,41,42,42,43,43,44,44],"right_children":[2,4,6,8,10,-1,12,14,16,18,20,22,24,26,28,30,32,34,36,-1,-1,38,40,42,44,46,48,-1,50,52,54,-1,56,-1,58,-1,-1,60,-1,62,64,66,68,70,72,-1,-1,-1,-1,-1,-1,-1,-1,-1,-1,-1,-1,-1,-1,-1,-1,-1,-1,-1,-1,-1,-1,-1,-1,-1,-1,-1,-1],"split_conditions":[3.3444167E3,3.323517E3,1.8433222E6,5.710626E1,1.9978807E1,-3.6480987E-1,3.4311895E3,5.643939E1,3.2721355E3,6.9042595E1,-2.59036E-3,3.2994744E3,-1.1727317E1,3.2401077E3,-6.461407E0,3.5406388E6,-3.6432424E-3,5.421643E0,3.4551592E3,7.260812E-2,-2.8271827E-1,3.2844358E3,7.792126E1,3.9158792E3,-9.880138E0,-2.4067112E1,7.545705E1,-7.095614E-2,2.8814155E3,3.330207E6,1.4436655E3,6.0743887E-2,5.624062E1,1.7441954E-2,6.993155E1,-1.6878022E-1,2.3019655E-1,3.4653154E3,3.612372E-1,3.1772712E3,3.4961346E1,5.267062E1,3.7893173E1,3.870451E3,3.1877942E3,1.2684515E-1,1.217658E-2,-1.314057E-1,2.1736957E-1,4.6449393E-1,1.10679366E-1,-1.6083648E-2,2.0440724E-1,2.2231393E-1,-1.5981206E-1,-3.5326487E-1,-5.2216303E-2,4.694006E-1,7.631705E-2,6.719182E-2,-7.1251005E-2,7.1217455E-2,-3.334523E-1,3.2157654E-1,-8.049832E-2,2.3825474E-1,-4.1728966E-2,1.1472226E-1,-3.6190248E-1,-6.992532E-2,-3.953667E-1,-3.450759E-1,-2.9605411E-2],"split_indices":[7,3,14,11,12,0,7,11,0,11,5,8,12,9,12,14,6,12,0,0,0,8,13,9,12,10,13,0,8,14,2,0,13,0,13,0,0,2,0,2,11,11,11,2,9,0,0,0,0,0,0,0,0,0,0,0,0,0,0,0,0,0,0,0,0,0,0,0,0,0,0,0,0],"split_type":[0,0,0,0,0,0,0,0,0,0,0,0,0,0,0,0,0,0,0,0,0,0,0,0,0,0,0,0,0,0,0,0,0,0,0,0,0,0,0,0,0,0,0,0,0,0,0,0,0,0,0,0,0,0,0,0,0,0,0,0,0,0,0,0,0,0,0,0,0,0,0,0,0],"sum_hessian":[4.878794E2,3.6786487E2,1.2001452E2,3.5173706E2,1.6127806E1,3.669247E0,1.1634527E2,2.1896753E2,1.3276955E2,1.24178295E1,3.7099771E0,2.4762047E1,9.158323E1,2.108112E2,8.156321E0,1.2479935E2,7.970201E0,9.176987E0,3.2408426E0,1.9782659E0,1.7317113E0,3.9963343E0,2.076571E1,2.9230082E1,6.2353146E1,1.826448E2,2.81664E1,1.2331462E0,6.923174E0,8.906326E1,3.5736084E1,1.2480617E0,6.7221394E0,1.4936951E0,7.6832914E0,1.7427914E0,1.4980512E0,2.4976518E0,1.4986825E0,1.682343E1,3.9422827E0,2.1780603E1,7.449478E0,3.6910868E0,5.8662056E1,5.5887333E1,1.2675747E2,2.5181213E1,2.9851873E0,4.18863E0,2.7345438E0,7.6681366E1,1.2381896E1,3.2185264E0,3.251756E1,4.9800625E0,1.7420769E0,6.4490075E0,1.234284E0,1.2490486E0,1.2486033E0,1.2384661E0,1.5584963E1,1.2454149E0,2.696868E0,1.5845221E1,5.9353833E0,4.7175193E0,2.731959E0,1.2311511E0,2.4599357E0,2.497877E0,5.616418E1],"tree_param":{"num_deleted":"0","num_feature":"16","num_nodes":"73","size_leaf_vector":"1"}},{"base_weights":[-2.8883878E-5,1.9632867E-2,-4.1323042E-1,-6.286488E-2,1.4651468E-1,3.1198388E-1,-6.386319E-1,-3.0507386E-2,-6.6251403E-1,1.1606489E-1,1.0432042E0,8.225945E-1,-2.2196552E-1,2.538659E-1,-1.0443292E0,2.0622812E-1,-9.469554E-2,-9.7952604E-1,3.9739855E-2,1.7336906E-1,-2.0953387E-1,7.236607E-2,3.5988697E-1,3.7336105E-1,2.9438185E-2,-5.427669E-1,9.2681676E-1,-1.3319949E0,1.8584542E-1,9.565829E-2,1.2486281E0,-2.0748259E-1,5.797898E-2,-1.1312628E0,-1.9641658E-2,6.581395E-1,-2.4338879E-1,7.633981E-2,4.1082048E-1,-6.766418E-1,1.0577665E-1,5.194673E-2,-3.0337632E-1,6.0901683E-2,3.6073744E-1,-4.549159E-1,-1.5185481E-1,-3.564576E-1,4.6649486E-2,9.556582E-2,4.3342435E-1,2.0157517E-1,-7.448619E-2,1.7738745E-1,-2.6057865E-2,-1.0483881E-1,-4.0373275E-1,-4.1063182E-2,3.3247858E-1,6.658403E-2,-6.1563477E-2,6.331119E-2,3.0006486E-1,9.5129244E-2,-3.2267877E-1,3.441241E-1,-3.6287405E-2],"categories":[],"categories_nodes":[],"categories_segments":[],"categories_sizes":[],"default_left":[0,0,0,0,0,0,0,0,0,0,0,0,0,0,0,0,0,0,0,0,0,0,0,0,0,0,0,0,0,0,0,0,0,0,0,0,0,0,0,0,0,0,0,0,0,0,0,0,0,0,0,0,0,0,0,0,0,0,0,0,0,0,0,0,0,0,0],"id":2,"left_children":[1,3,5,7,9,11,13,15,17,19,21,23,-1,25,27,29,31,33,35,37,39,-1,-1,-1,-1,41,43,45,-1,47,49,51,53,55,-1,57,-1,59,61,63,65,-1,-1,-1,-1,-1,-1,-1,-1,-1,-1,-1,-1,-1,-1,-1,-1,-1,-1,-1,-1,-1,-1,-1,-1,-1,-1],"loss_changes":[3.9460902E0,4.862508E0,3.8056712E0,5.445074E0,4.8751545E0,3.779135E0,6.478269E0,4.0964727E0,3.238615E0,3.359361E0,4.4881773E-1,1.2374046E0,0E0,3.8090954E0,6.5650253E0,6.512911E0,3.6583695E0,1.3047724E0,3.3922808E0,3.4705396E0,4.0639787E0,0E0,0E0,0E0,0E0,1.333785E0,4.9654365E-1,8.3771133E-1,0E0,4.264822E0,5.3123283E-1,4.544782E0,7.0612535E0,9.492817E-1,0E0,1.4749146E0,0E0,4.519438E0,4.953915E0,4.7255206E0,4.1637125E0,0E0,0E0,0E0,0E0,0E0,0E0,0E0,0E0,0E0,0E0,0E0,0E0,0E0,0E0,0E0,0E0,0E0,0E0,0E0,0E0,0E0,0E0,0E0,0E0,0E0,0E0],"parents":[2147483647,0,0,1,1,2,2,3,3,4,4,5,5,6,6,7,7,8,8,9,9,10,10,11,11,13,13,14,14,15,15,16,16,17,17,18,18,19,19,20,20,25,25,26,26,27,27,29,29,30,30,31,31,32,32,33,33,35,35,37,37,38,38,39,39,40,40],"right_children":[2,4,6,8,10,12,14,16,18,20,22,24,-1,26,28,30,32,34,36,38,40,-1,-1,-1,-1,42,44,46,-1,48,50,52,54,56,-1,58,-1,60,62,64,66,-1,-1,-1,-1,-1,-1,-1,-1,-1,-1,-1,-1,-1,-1,-1,-1,-1,-1,-1,-1,-1,-1,-1,-1,-1,-1],"split_conditions":[7.341193E1,2.631309E6,3.4483772E1,3.9756885E3,7.107807E1,6.982443E-2,1.6849022E-2,-1.2469943E-2,8.431194E1,7.749534E1,2.7650156E1,2.3533688E6,-2.2196552E-1,1.2260164E1,5.7713315E6,1.0450813E1,4.454767E0,1.2322544E-2,4.095004E3,8.470422E-3,-1.5549107E-2,7.236607E-2,3.5988697E-1,3.7336105E-1,2.9438185E-2,1.7620146E3,7.201043E-1,7.854681E1,1.8584542E-1,4.1220784E-1,-7.542205E1,1.1189132E3,7.1589336E0,1.549101E6,-1.9641658E-2,3.9841484E3,-2.4338879E-1,-8.562459E-4,3.035114E3,-9.749765E1,3.8221367E1,5.194673E-2,-3.0337632E-1,6.0901683E-2,3.6073744E-1,-4.549159E-1,-1.5185481E-1,-3.564576E-1,4.6649486E-2,9.556582E-2,4.3342435E-1,2.0157517E-1,-7.448619E-2,1.7738745E-1,-2.6057865E-2,-1.0483881E-1,-4.0373275E-1,-4.1063182E-2,3.3247858E-1,6.658403E-2,-6.1563477E-2,6.331119E-2,3.0006486E-1,9.5129244E-2,-3.2267877E-1,3.441241E-1,-3.6287405E-2],"split_indices":[11,4,10,9,11,6,6,6,13,13,13,14,0,12,14,12,12,6,1,5,6,0,0,0,0,0,15,11,0,15,10,1,12,4,0,9,0,6,9,10,11,0,0,0,0,0,0,0,0,0,0,0,0,0,0,0,0,0,0,0,0,0,0,0,0,0,0],"split_type":[0,0,0,0,0,0,0,0,0,0,0,0,0,0,0,0,0,0,0,0,0,0,0,0,0,0,0,0,0,0,0,0,0,0,0,0,0,0,0,0,0,0,0,0,0,0,0,0,0,0,0,0,0,0,0,0,0,0,0,0,0,0,0,0,0,0,0],"sum_hessian":[4.83718E2,4.626555E2,2.1062479E1,2.806701E2,1.8198538E2,4.9030647E0,1.6159414E1,2.6729742E2,1.33726845E1,1.7710083E2,4.884554E0,3.447505E0,1.4555598E0,5.166914E0,1.0992499E1,5.654354E1,2.1075389E2,8.941482E0,4.431203E0,1.5099399E2,2.6106842E1,1.2120955E0,3.6724584E0,1.7249812E0,1.7225237E0,2.4546156E0,2.7122984E0,9.542141E0,1.4503589E0,5.2108078E1,4.43546E0,1.2100411E2,8.974979E1,7.464681E0,1.4768001E0,2.6976404E0,1.7335625E0,1.08130394E2,4.286359E1,1.0059106E1,1.6047735E1,1.2202599E0,1.2343558E0,1.2269405E0,1.4853578E0,7.116825E0,2.4253156E0,1.4808441E0,5.0627235E1,1.2294081E0,3.2060518E0,4.679856E0,1.1632426E2,1.8510292E1,7.1239494E1,2.1732595E0,5.291422E0,1.2267814E0,1.470859E0,7.1411156E1,3.6719246E1,3.302679E1,9.836797E0,2.9403298E0,7.118776E0,2.1436515E0,1.3904084E1],"tree_param":{"num_deleted":"0","num_feature":"16","num_nodes":"67","size_leaf_vector":"1"}},{"base_weights":[1.6143977E-3,-7.8482836E-1,1.039846E-2,-3.5223484E-1,1.1474801E-2,-3.139042E-1,1.7002061E-2,4.7767952E-1,-7.1985438E-3,1.3062602E-1,1.2502209E0,1.7606445E-2,-3.125507E-1,5.7072264E-1,-6.3501084E-1,4.2602918E-1,6.797073E-2,-5.3499334E-2,1.540633E-1,-4.444889E-1,3.256064E-1,-3.975888E-3,2.5981933E-1,-3.884084E-1,-1.35559095E-2,-2.4006728E-2,1.7825538E-1,7.902554E-2,-5.6134272E-2,-2.1969654E-1,-2.9311428E-2,2.7667135E-1,-3.835724E-2],"categories":[],"categories_nodes":[],"categories_segments":[],"categories_sizes":[],"default_left":[0,0,0,0,0,0,0,0,0,0,0,0,0,0,0,0,0,0,0,0,0,0,0,0,0,0,0,0,0,0,0,0,0],"id":3,"left_children":[1,3,5,-1,-1,-1,7,9,11,13,15,17,19,21,23,-1,-1,25,27,29,31,-1,-1,-1,-1,-1,-1,-1,-1,-1,-1,-1,-1],"loss_changes":[3.3325706E0,1.7523088E0,3.3457582E0,0E0,0E0,0E0,5.298199E0,6.195954E0,3.4306145E0,6.253364E0,9.364872E-1,4.075458E0,3.0097806E0,2.0170333E0,2.6086333E0,0E0,0E0,4.794322E0,5.4165306E0,2.785252E0,1.8513548E0,0E0,0E0,0E0,0E0,0E0,0E0,0E0,0E0,0E0,0E0,0E0,0E0],"parents":[2147483647,0,0,1,1,2,2,6,6,7,7,8,8,9,9,10,10,11,11,12,12,13,13,14,14,17,17,18,18,19,19,20,20],"right_children":[2,4,6,-1,-1,-1,8,10,12,14,16,18,20,22,24,-1,-1,26,28,30,32,-1,-1,-1,-1,-1,-1,-1,-1,-1,-1,-1,-1],"split_conditions":[3.4079567E-1,4.4982996E0,1.8519258E1,-3.5223484E-1,1.1474801E-2,-3.139042E-1,2.6480507E1,2.3437801E1,6.975546E1,1.0484635E0,1.7559559E3,4.454767E0,5.969372E-2,1.801279E6,2.526592E6,4.2602918E-1,6.797073E-2,4.913414E6,3.3022393E3,5.624062E1,7.413647E1,-3.975888E-3,2.5981933E-1,-3.884084E-1,-1.35559095E-2,-2.4006728E-2,1.7825538E-1,7.902554E-2,-5.6134272E-2,-2.1969654E-1,-2.9311428E-2,2.7667135E-1,-3.835724E-2],"split_indices":[15,12,13,0,0,0,13,13,11,15,0,12,6,14,4,0,0,14,9,13,11,0,0,0,0,0,0,0,0,0,0,0,0],"split_type":[0,0,0,0,0,0,0,0,0,0,0,0,0,0,0,0,0,0,0,0,0,0,0,0,0,0,0,0,0,0,0,0,0],"sum_hessian":[4.8022928E2,4.328727E0,4.7590057E2,2.6492338E0,1.6794927E0,1.9776325E0,4.7392294E2,2.2718582E1,4.5120435E2,1.6482937E1,6.2356453E0,4.181765E2,3.302783E1,1.0628268E1,5.8546696E0,5.0159554E0,1.2196895E0,2.7531937E2,1.4285716E2,2.762075E1,5.407078E0,3.8905869E0,6.7376814E0,2.199551E0,3.6551182E0,2.6533035E2,9.989008E0,1.0835488E2,3.4502285E1,1.4485747E1,1.3135003E1,1.8885337E0,3.5185437E0],"tree_param":{"num_deleted":"0","num_feature":"16","num_nodes":"33","size_leaf_vector":"1"}},{"base_weights":[1.1563161E-3,9.37772E-3,-7.785699E-1,-2.1884376E-2,2.1721464E-1,-3.5990733E-1,1.0149418E-1,1.5455689E-1,-6.094917E-2,2.858979E-1,-7.255556E-1,-2.6888078E-1,3.0575752E-1,-4.267465E-2,-7.9366285E-1,-3.381473E-1,3.3539638E-1,-3.0658913E-1,2.623166E-2,-7.076851E-1,5.0366235E-1,7.956364E-1,8.510289E-2,-5.5617884E-2,3.3685583E-1,3.0456063E-1,-1.2841569E0,6.088455E-1,-3.821495E-2,-3.4735315E-2,-3.4764478E-1,-1.1092268E-1,2.9932824E-1,9.309882E-2,3.9915922E-1,-4.5088097E-2,1.5581903E-1,8.0085844E-2,-2.8387858E-2,1.6068107E-1,-2.1899125E-2,-1.238178E-1,-4.596097E-1,3.183558E-1,1.0501545E-1,1.3091499E-1,-8.9690365E-2],"categories":[],"categories_nodes":[],"categories_segments":[],"categories_sizes":[],"default_left":[0,0,0,0,0,0,0,0,0,0,0,0,0,0,0,0,0,0,0,0,0,0,0,0,0,0,0,0,0,0,0,0,0,0,0,0,0,0,0,0,0,0,0,0,0,0,0],"id":4,"left_children":[1,3,5,7,9,-1,-1,11,13,15,17,19,21,23,25,-1,27,-1,-1,29,31,33,35,37,-1,39,41,43,45,-1,-1,-1,-1,-1,-1,-1,-1,-1,-1,-1,-1,-1,-1,-1,-1,-1,-1],"loss_changes":[3.0740578E0,3.0871065E0,2.759237E0,2.8579965E0,4.2297773E0,0E0,0E0,4.896676E0,4.506412E0,4.4780145E0,1.173969E0,7.2442594E0,5.9725175E0,5.0691795E0,4.8051667E0,0E0,5.8879375E0,0E0,0E0,3.4369931E0,3.7973158E0,4.060692E0,4.1311164E0,4.167482E0,0E0,3.3029422E-1,6.326561E-1,3.5155344E0,3.2490697E0,0E0,0E0,0E0,0E0,0E0,0E0,0E0,0E0,0E0,0E0,0E0,0E0,0E0,0E0,0E0,0E0,0E0,0E0],"parents":[2147483647,0,0,1,1,2,2,3,3,4,4,7,7,8,8,9,9,10,10,11,11,12,12,13,13,14,14,16,16,19,19,20,20,21,21,22,22,23,23,25,25,26,26,27,27,28,28],"right_children":[2,4,6,8,10,-1,-1,12,14,16,18,20,22,24,26,-1,28,-1,-1,30,32,34,36,38,-1,40,42,44,46,-1,-1,-1,-1,-1,-1,-1,-1,-1,-1,-1,-1,-1,-1,-1,-1,-1,-1],"split_conditions":[4.9407825E-2,4.052167E6,8.582118E6,-1.6872242E-2,3.7223853E3,-3.5990733E-1,1.0149418E-1,1.934995E6,5.6421845E6,7.1371204E-1,4.0157078E3,-2.967837E0,2.409803E6,4.913414E6,2.71206E1,-3.381473E-1,1.8222451E0,-3.0658913E-1,2.623166E-2,-1.49463415E1,6.891833E-1,3.1073977E1,-2.967837E0,4.0919773E1,3.3685583E-1,1.2217136E3,1.4506946E3,4.623203E6,1.8553171E3,-3.4735315E-2,-3.4764478E-1,-1.1092268E-1,2.9932824E-1,9.309882E-2,3.9915922E-1,-4.5088097E-2,1.5581903E-1,8.0085844E-2,-2.8387858E-2,1.6068107E-1,-2.1899125E-2,-1.238178E-1,-4.596097E-1,3.183558E-1,1.0501545E-1,1.3091499E-1,-8.9690365E-2],"split_indices":[5,4,4,6,0,0,0,4,14,15,0,12,4,14,13,0,15,0,0,12,15,10,12,11,0,0,0,4,8,0,0,0,0,0,0,0,0,0,0,0,0,0,0,0,0,0,0],"split_type":[0,0,0,0,0,0,0,0,0,0,0,0,0,0,0,0,0,0,0,0,0,0,0,0,0,0,0,0,0,0,0,0,0,0,0,0,0,0,0,0,0,0,0,0,0,0,0],"sum_hessian":[4.7740012E2,4.733966E2,4.003503E0,4.1227792E2,6.1118683E1,2.853463E0,1.1500399E0,7.419773E1,3.380802E2,5.761782E1,3.5008614E0,1.931835E1,5.487938E1,3.3088583E2,7.194341E0,1.213175E0,5.6404644E1,2.3771455E0,1.1237158E0,1.237392E1,6.94443E0,1.6233446E1,3.864593E1,3.281935E2,2.6923234E0,2.3381848E0,4.8561563E0,3.220438E1,2.4200266E1,5.89548E0,6.4784403E0,2.6000586E0,4.3443713E0,9.339726E0,6.8937197E0,2.5485943E1,1.3159989E1,3.4776157E1,2.9341736E2,1.1908529E0,1.1473318E0,1.6656057E0,3.1905506E0,1.0591398E1,2.1612982E1,8.342489E0,1.5857776E1],"tree_param":{"num_deleted":"0","num_feature":"16","num_nodes":"47","size_leaf_vector":"1"}},{"base_weights":[9.205712E-4,-6.414209E-1,8.052283E-3,4.7756102E-2,-9.2112404E-1,-2.553639E-1,1.3424889E-2,-3.50256E-1,-5.917463E-2,3.4658185E-1,-6.411118E-3,4.8586527E-1,-3.255325E-1,-6.7403805E-1,2.7132633E-3,6.3256526E-1,-1.8316571E-1,-3.0756056E-1,1.9503456E-1,-1.0907807E0,2.6723998E-2,7.717235E-1,-6.0033402E-3,-2.058004E-1,2.2580653E-1,-1.0524153E-1,-3.8767606E-1,4.0641865E-1,-1.0213895E-1,-4.5990694E-2,8.318368E-3],"categories":[],"categories_nodes":[],"categories_segments":[],"categories_sizes":[],"default_left":[0,0,0,0,0,0,0,0,0,0,0,0,0,0,0,0,0,0,0,0,0,0,0,0,0,0,0,0,0,0,0],"id":5,"left_children":[1,3,5,-1,7,-1,9,-1,-1,11,13,15,17,19,21,23,-1,-1,-1,25,-1,27,29,-1,-1,-1,-1,-1,-1,-1,-1],"loss_changes":[2.1848092E0,1.3193798E0,2.188402E0,0E0,4.8822904E-1,0E0,3.1056995E0,0E0,0E0,2.630316E0,2.7078214E0,3.9691658E0,4.169712E0,2.003127E0,2.9487796E0,3.7060518E0,0E0,0E0,0E0,1.3582182E-1,0E0,3.6581485E0,2.1670096E0,0E0,0E0,0E0,0E0,0E0,0E0,0E0,0E0],"parents":[2147483647,0,0,1,1,2,2,4,4,6,6,9,9,10,10,11,11,12,12,13,13,14,14,15,15,19,19,21,21,22,22],"right_children":[2,4,6,-1,8,-1,10,-1,-1,12,14,16,18,20,22,24,-1,-1,-1,26,-1,28,30,-1,-1,-1,-1,-1,-1,-1,-1],"split_conditions":[3.4079567E-1,1.238081E3,1.8519258E1,4.7756102E-2,5.4985672E1,-2.553639E-1,2.7650156E1,-3.50256E-1,-5.917463E-2,1.3630895E-2,1.2589889E3,2.211959E-2,2.0843107E-2,9.652031E-1,1.2767096E3,-1.599184E-2,-1.8316571E-1,-3.0756056E-1,1.9503456E-1,-1.873711E-2,2.6723998E-2,9.457101E1,4.2097088E1,-2.058004E-1,2.2580653E-1,-1.0524153E-1,-3.8767606E-1,4.0641865E-1,-1.0213895E-1,-4.5990694E-2,8.318368E-3],"split_indices":[15,0,13,0,11,0,13,0,0,5,7,6,6,15,0,5,0,0,0,6,0,10,13,0,0,0,0,0,0,0,0],"split_type":[0,0,0,0,0,0,0,0,0,0,0,0,0,0,0,0,0,0,0,0,0,0,0,0,0,0,0,0,0,0,0],"sum_hessian":[4.7480154E2,4.237063E0,4.7056448E2,1.208574E0,3.0284886E0,1.9456897E0,4.686188E2,1.8021803E0,1.2263085E0,2.5407814E1,4.43211E2,2.1275885E1,4.1319294E0,4.9931374E0,4.3821783E2,1.913826E1,2.1376247E0,2.3767164E0,1.755213E0,2.9517808E0,2.0413563E0,3.9303827E0,4.3428748E2,1.2046169E0,1.7933643E1,1.2183154E0,1.7334654E0,2.435581E0,1.4948019E0,8.025998E1,3.540275E2],"tree_param":{"num_deleted":"0","num_feature":"16","num_nodes":"31","size_leaf_vector":"1"}},{"base_weights":[-1.5311408E-3,-2.1850426E-1,2.0439452E-2,-1.0061468E-1,-1.1568217E0,1.3714878E-1,-2.3812272E-2,-1.7725046E-1,2.7695408E-1,-3.9051732E-1,-1.0781125E-1,5.255508E-2,6.09914E-1,-1.8522915E-1,8.297451E-2,-2.4463959E-1,2.0796698E-1,1.4581659E-3,8.908316E-1,7.810018E-1,-1.5099084E-1,-2.2170629E-1,7.184452E-1,1.481642E-1,-2.9066935E-1,-3.6589172E-1,3.5402542E-1,-2.3976716E-1,1.3686529E-1,1.1379048E0,2.455106E-2,2.1736245E-1,3.9022824E-1,-2.4883994E-1,2.0060034E-1,2.0632882E-1,-3.052779E-1,3.6981973E-1,-5.525441E-2,2.0290744E-1,-3.1696045E-1,-8.722692E-1,-5.60963E-2,-1.916141E-2,-2.617364E-1,-2.1875474E-1,3.204807E-1,1.8052803E-1,-1.1868025E-1,1.0127349E-1,-8.0983736E-2,8.0150165E-2,4.1241372E-1,-1.486379E-1,2.61595E-1,3.386374E-1,-1.6665092E-1,-6.4371556E-2,-2.609891E-1,4.8634592E-2,2.8046107E-1,-1.6200422E-1,1.305461E-1,-3.4950486E-1,4.627809E-2,2.3423389E-1,-6.19671E-2],"categories":[],"categories_nodes":[],"categories_segments":[],"categories_sizes":[],"default_left":[0,0,0,0,0,0,0,0,0,0,0,0,0,0,0,0,0,0,0,0,0,0,0,0,0,0,0,0,0,0,0,0,0,0,0,0,0,0,0,0,0,0,0,0,0,0,0,0,0,0,0,0,0,0,0,0,0,0,0,0,0,0,0,0,0,0,0],"id":6,"left_children":[1,3,5,7,9,11,13,15,-1,-1,-1,17,19,21,23,25,-1,27,29,31,33,35,37,39,41,43,45,47,49,51,-1,53,-1,-1,-1,55,57,-1,-1,59,61,63,65,-1,-1,-1,-1,-1,-1,-1,-1,-1,-1,-1,-1,-1,-1,-1,-1,-1,-1,-1,-1,-1,-1,-1,-1],"loss_changes":[2.2660549E0,4.7185125E0,2.232896E0,3.2961166E0,8.4918976E-2,4.7205434E0,5.425763E0,2.3977144E0,0E0,0E0,0E0,4.3631496E0,2.4536586E0,4.289015E0,4.66122E0,2.7422678E0,0E0,3.2025363E0,1.0766664E0,4.0560884E0,2.8523333E0,4.3979836E0,2.5929673E0,4.1916304E0,3.8396235E0,4.598743E0,5.862327E0,4.8609076E0,5.2180376E0,5.4117155E-1,0E0,4.3078156E0,0E0,0E0,0E0,1.4958112E1,5.0272093E0,0E0,0E0,4.1968637E0,3.1639745E0,2.62082E0,2.8533251E0,0E0,0E0,0E0,0E0,0E0,0E0,0E0,0E0,0E0,0E0,0E0,0E0,0E0,0E0,0E0,0E0,0E0,0E0,0E0,0E0,0E0,0E0,0E0,0E0],"parents":[2147483647,0,0,1,1,2,2,3,3,4,4,5,5,6,6,7,7,11,11,12,12,13,13,14,14,15,15,17,17,18,18,19,19,20,20,21,21,22,22,23,23,24,24,25,25,26,26,27,27,28,28,29,29,31,31,35,35,36,36,39,39,40,40,41,41,42,42],"right_children":[2,4,6,8,10,12,14,16,-1,-1,-1,18,20,22,24,26,-1,28,30,32,34,36,38,40,42,44,46,48,50,52,-1,54,-1,-1,-1,56,58,-1,-1,60,62,64,66,-1,-1,-1,-1,-1,-1,-1,-1,-1,-1,-1,-1,-1,-1,-1,-1,-1,-1,-1,-1,-1,-1,-1,-1],"split_conditions":[1.7844785E6,1.2638521E2,-6.163522E-3,2.030889E0,3.2909768E3,8.822559E-3,2.1924335E-3,1.15345276E2,2.7695408E-1,-3.9051732E-1,-1.0781125E-1,-6.642203E-3,6.3209457E1,5.122541E6,1.5177963E1,1.0893692E-2,2.0796698E-1,8.6227E-1,7.3962075E-1,8.776793E-1,1.4392899E1,-1.6368851E-2,1.6750038E0,3.755353E3,1.6730024E1,4.375194E-3,1.7563076E-3,-1.4746908E1,3.231863E3,-1.6598927E-2,2.455106E-2,2.8093313E3,3.9022824E-1,-2.4883994E-1,2.0060034E-1,2.767508E3,3.568006E6,3.6981973E-1,-5.525441E-2,3.5749146E3,8.431194E1,3.4297717E3,3.87767E-3,-1.916141E-2,-2.617364E-1,-2.1875474E-1,3.204807E-1,1.8052803E-1,-1.1868025E-1,1.0127349E-1,-8.0983736E-2,8.0150165E-2,4.1241372E-1,-1.486379E-1,2.61595E-1,3.386374E-1,-1.6665092E-1,-6.4371556E-2,-2.609891E-1,4.8634592E-2,2.8046107E-1,-1.6200422E-1,1.305461E-1,-3.4950486E-1,4.627809E-2,2.3423389E-1,-6.19671E-2],"split_indices":[14,10,5,15,0,6,5,10,0,0,0,5,11,4,12,5,0,15,15,15,12,6,15,1,12,6,6,12,9,6,0,8,0,0,0,0,14,0,0,7,13,3,5,0,0,0,0,0,0,0,0,0,0,0,0,0,0,0,0,0,0,0,0,0,0,0,0],"split_type":[0,0,0,0,0,0,0,0,0,0,0,0,0,0,0,0,0,0,0,0,0,0,0,0,0,0,0,0,0,0,0,0,0,0,0,0,0,0,0,0,0,0,0,0,0,0,0,0,0,0,0,0,0,0,0,0,0,0,0,0,0,0,0,0,0,0,0],"sum_hessian":[4.734232E2,4.270819E1,4.30715E2,3.892492E1,3.7832723E0,1.1783585E2,3.1287915E2,3.6983406E1,1.9415098E0,2.6664097E0,1.1168625E0,1.00893715E2,1.6942137E1,1.24282104E2,1.8859705E2,3.49933E1,1.990105E0,9.604128E1,4.852431E0,1.3810471E1,3.1316667E0,1.2018543E2,4.096668E0,1.6109436E2,2.7502686E1,2.9422884E1,5.5704184E0,3.425173E1,6.178955E1,3.4057286E0,1.4467024E0,7.3059344E0,6.504536E0,1.7068496E0,1.424817E0,1.9392504E1,1.0079293E2,2.3767536E0,1.7199142E0,1.4463515E2,1.6459202E1,7.1231146E0,2.0379572E1,1.9138382E1,1.0284502E1,2.205176E0,3.365242E0,4.9045897E0,2.9347141E1,4.148956E1,2.0299994E1,1.1832266E0,2.222502E0,3.6138825E0,3.692052E0,8.553653E0,1.0838852E1,8.80322E1,1.2760726E1,1.3815717E2,6.4779897E0,1.291193E1,3.5472705E0,5.4375267E0,1.6855882E0,2.4672492E0,1.7912323E1],"tree_param":{"num_deleted":"0","num_feature":"16","num_nodes":"67","size_leaf_vector":"1"}},{"base_weights":[1.6938746E-3,-4.7838774E-2,8.425083E-2,-1.4514462E-2,-5.7331E-1,3.2102904E-1,-3.2486323E-2,5.105361E-1,-3.9527494E-2,-1.1053603E0,-1.7028444E-1,-4.5367715E-1,4.3064815E-1,6.8238664E-1,-9.7030394E-2,-3.8082933E-1,9.257495E-1,8.593747E-2,-1.6087492E-1,-2.8658235E-1,-1.4299685E0,7.98745E-1,-5.938922E-1,-1.0512154E0,3.3706558E-1,3.2091388E-1,4.2452154E-1,-9.18595E-2,9.980611E-1,-4.420579E-1,6.5977466E-3,1.5694165E-1,-8.9744335E-1,1.3596183E0,9.0957694E-2,-4.4779642E-3,5.220046E-1,-1.0171142E0,-9.956706E-2,-2.7310786E-1,1.4249578E-1,-4.8035693E-1,-1.2620817E-1,3.478417E-1,-5.18424E-3,-1.0690141E0,1.0043793E-1,-3.9467305E-1,-5.4065097E-2,-5.455903E-2,2.0865159E-1,-6.22325E-2,5.144846E-1,1.5388249E-1,-1.9591993E-1,3.7756798E-1,2.1962922E-2,-5.940439E-1,2.4382171E-1,2.075129E-1,-2.3568115E-1,-3.4086117E-1,-7.0406996E-2,1.20059706E-1,4.5425433E-1,2.711233E-1,-1.8979366E-1,6.752948E-2,-4.4775367E-2,3.3260995E-1,1.0070614E-1,-6.8587594E-2,-3.7013742E-1,2.0554481E-1,-4.651314E-2,-3.873974E-1,-8.2972854E-2,1.631451E-1,-1.4569288E-1,1.09170675E-1,-2.012721E-1,2.9737902E-1,6.985171E-2,-2.4762553E-1,4.2127436E-3,-2.208158E-2,1.4565535E-1,8.801755E-3,-1.7903154E-1],"categories":[],"categories_nodes":[],"categories_segments":[],"categories_sizes":[],"default_left":[0,0,0,0,0,0,0,0,0,0,0,0,0,0,0,0,0,0,0,0,0,0,0,0,0,0,0,0,0,0,0,0,0,0,0,0,0,0,0,0,0,0,0,0,0,0,0,0,0,0,0,0,0,0,0,0,0,0,0,0,0,0,0,0,0,0,0,0,0,0,0,0,0,0,0,0,0,0,0,0,0,0,0,0,0,0,0,0,0],"id":7,"left_children":[1,3,5,7,9,11,13,15,17,19,21,23,25,27,29,31,33,35,37,39,41,43,45,47,49,51,-1,53,55,57,59,-1,61,63,65,67,69,71,73,-1,-1,-1,-1,-1,-1,75,77,-1,-1,-1,-1,79,81,-1,-1,-1,-1,83,-1,85,87,-1,-1,-1,-1,-1,-1,-1,-1,-1,-1,-1,-1,-1,-1,-1,-1,-1,-1,-1,-1,-1,-1,-1,-1,-1,-1,-1,-1],"loss_changes":[1.9231477E0,5.1391606E0,4.884848E0,3.6640015E0,3.565256E0,5.1485195E0,5.5580406E0,5.048647E0,4.0600524E0,1.5470076E0,5.0480313E0,4.000543E0,5.1208916E0,2.5311074E0,3.9374313E0,2.683435E0,3.1171083E0,5.1798105E0,7.008929E0,2.019477E0,1.9417E-1,1.1432045E0,2.854183E0,8.308945E-1,8.8513917E-1,3.5716562E0,0E0,1.6269785E0,1.6363358E0,5.3329244E0,4.2162185E0,0E0,2.6898098E-1,2.5648308E-1,3.0017612E0,3.681535E0,2.0939221E0,1.2455902E0,5.656997E0,0E0,0E0,0E0,0E0,0E0,0E0,5.2887726E-1,1.3806887E0,0E0,0E0,0E0,0E0,4.630459E0,4.041397E0,0E0,0E0,0E0,0E0,3.2844324E0,0E0,3.73485E0,3.776316E0,0E0,0E0,0E0,0E0,0E0,0E0,0E0,0E0,0E0,0E0,0E0,0E0,0E0,0E0,0E0,0E0,0E0,0E0,0E0,0E0,0E0,0E0,0E0,0E0,0E0,0E0,0E0,0E0],"parents":[2147483647,0,0,1,1,2,2,3,3,4,4,5,5,6,6,7,7,8,8,9,9,10,10,11,11,12,12,13,13,14,14,15,15,16,16,17,17,18,18,19,19,20,20,21,21,22,22,23,23,24,24,25,25,27,27,28,28,29,29,30,30,32,32,33,33,34,34,35,35,36,36,37,37,38,38,45,45,46,46,51,51,52,52,57,57,59,59,60,60],"right_children":[2,4,6,8,10,12,14,16,18,20,22,24,26,28,30,32,34,36,38,40,42,44,46,48,50,52,-1,54,56,58,60,-1,62,64,66,68,70,72,74,-1,-1,-1,-1,-1,-1,76,78,-1,-1,-1,-1,80,82,-1,-1,-1,-1,84,-1,86,88,-1,-1,-1,-1,-1,-1,-1,-1,-1,-1,-1,-1,-1,-1,-1,-1,-1,-1,-1,-1,-1,-1,-1,-1,-1,-1,-1,-1],"split_conditions":[4.454767E0,3.1755025E0,-2.59036E-3,-1.3192914E2,1.10736885E1,4.5140057E1,5.421643E0,-1.8103409E2,2.7746167E3,1.622375E3,-3.1918322E-3,2.7149055E6,-3.1918322E-3,4.2097088E1,1.5669131E-3,3.2782034E3,2.935547E-3,2.096935E3,2.8814155E3,1.744204E6,3.1853923E3,5.8582535E1,1.0644754E-2,6.993155E1,8.583949E-1,2.5971824E3,4.2452154E-1,2.264187E0,1.2061785E0,1.1549356E0,2.244855E-2,1.5694165E-1,3.492597E3,6.3820857E-1,2.9839343E3,1.6560847E3,2.3923228E3,-9.455606E-3,4.4230263E1,-2.7310786E-1,1.4249578E-1,-4.8035693E-1,-1.2620817E-1,3.478417E-1,-5.18424E-3,6.503484E1,6.519165E1,-3.9467305E-1,-5.4065097E-2,-5.455903E-2,2.0865159E-1,1.8969049E3,3.0750503E3,1.5388249E-1,-1.9591993E-1,3.7756798E-1,2.1962922E-2,3.3743047E3,2.4382171E-1,2.4147152E6,1.5530007E1,-3.4086117E-1,-7.0406996E-2,1.20059706E-1,4.5425433E-1,2.711233E-1,-1.8979366E-1,6.752948E-2,-4.4775367E-2,3.3260995E-1,1.0070614E-1,-6.8587594E-2,-3.7013742E-1,2.0554481E-1,-4.651314E-2,-3.873974E-1,-8.2972854E-2,1.631451E-1,-1.4569288E-1,1.09170675E-1,-2.012721E-1,2.9737902E-1,6.985171E-2,-2.4762553E-1,4.2127436E-3,-2.208158E-2,1.4565535E-1,8.801755E-3,-1.7903154E-1],"split_indices":[12,12,5,10,10,11,12,10,2,0,5,14,5,13,5,1,5,1,8,4,0,11,5,13,15,7,0,10,15,15,6,0,1,15,0,8,3,5,13,0,0,0,0,0,0,11,11,0,0,0,0,3,9,0,0,0,0,1,0,14,10,0,0,0,0,0,0,0,0,0,0,0,0,0,0,0,0,0,0,0,0,0,0,0,0,0,0,0,0],"split_type":[0,0,0,0,0,0,0,0,0,0,0,0,0,0,0,0,0,0,0,0,0,0,0,0,0,0,0,0,0,0,0,0,0,0,0,0,0,0,0,0,0,0,0,0,0,0,0,0,0,0,0,0,0,0,0,0,0,0,0,0,0,0,0,0,0,0,0,0,0,0,0,0,0,0,0,0,0,0,0,0,0,0,0,0,0,0,0,0,0],"sum_hessian":[4.683062E2,2.929576E2,1.753486E2,2.7645312E2,1.650447E1,5.732539E1,1.1802322E2,1.1688482E1,2.6476465E2,6.362467E0,1.0142003E1,6.716872E0,5.0608517E1,8.980887E0,1.0904233E2,3.7407606E0,7.9477215E0,1.3031728E2,1.3444737E2,2.3408537E0,4.021613E0,2.8155894E0,7.326414E0,3.6382008E0,3.0786715E0,4.672594E1,3.8825758E0,2.8064904E0,6.174397E0,2.443171E1,8.461063E1,1.3557855E0,2.3849752E0,4.815997E0,3.1317244E0,1.0875702E2,2.1560266E1,7.9416904E0,1.26505684E2,1.1794376E0,1.1614159E0,2.9368987E0,1.0847145E0,1.6606259E0,1.1549634E0,4.029465E0,3.296949E0,2.399494E0,1.238707E0,1.4590151E0,1.6196562E0,1.5910939E1,3.0815002E1,1.3921748E0,1.4143156E0,4.5359516E0,1.6384451E0,2.2261847E1,2.169862E0,4.6332153E1,3.8278473E1,1.2281561E0,1.1568191E0,1.1662086E0,3.6497886E0,1.3577185E0,1.7740059E0,4.1845345E1,6.691167E1,4.003392E0,1.7556873E1,2.1549535E0,5.786737E0,7.6035485E0,1.1890214E2,2.6550565E0,1.3744086E0,1.9180374E0,1.3789115E0,9.595348E0,6.315591E0,1.0507693E1,2.0307308E1,1.5867081E1,6.3947654E0,2.3402657E1,2.2929495E1,2.2605816E1,1.5672656E1],"tree_param":{"num_deleted":"0","num_feature":"16","num_nodes":"89","size_leaf_vector":"1"}},{"base_weights":[2.5643061E-3,8.740415E-3,-5.7807195E-1,1.0125259E-3,5.585864E-1,-2.8559026E-1,9.6453704E-2,1.2864916E-2,-5.32379E-1,9.14992E-1,-1.6099484E-1,-3.4555886E-2,1.01597086E-1,-7.9062206E-1,2.1464318E-1,3.6109515E-2,3.5140726E-1,-7.905183E-3,-4.6404457E-1,1.3053508E-1,-7.9667616E-1,-1.1297829E0,-6.220225E-3,-7.4270694E-3,1.6993487E-1,-2.6635358E-1,-4.064797E-2,3.1270444E-2,2.4974824E-1,-4.1127267E-1,3.651185E-2,-9.773689E-2,-3.9225164E-1,1.5015286E-1,-1.6854504E-1],"categories":[],"categories_nodes":[],"categories_segments":[],"categories_sizes":[],"default_left":[0,0,0,0,0,0,0,0,0,0,0,0,0,0,0,0,0,0,0,0,0,0,0,0,0,0,0,0,0,0,0,0,0,0,0],"id":8,"left_children":[1,3,5,7,9,-1,-1,11,13,15,-1,17,19,21,-1,-1,-1,23,25,27,29,31,33,-1,-1,-1,-1,-1,-1,-1,-1,-1,-1,-1,-1],"loss_changes":[1.6698825E0,1.9555206E0,1.9545374E0,2.8831484E0,2.9808788E0,0E0,0E0,1.8804018E0,3.760337E0,9.146948E-1,0E0,3.3322608E0,4.1489773E0,2.304535E0,0E0,0E0,0E0,2.6799114E0,2.2482944E0,2.7122698E0,2.8022773E0,4.3999434E-1,1.3027143E0,0E0,0E0,0E0,0E0,0E0,0E0,0E0,0E0,0E0,0E0,0E0,0E0],"parents":[2147483647,0,0,1,1,2,2,3,3,4,4,7,7,8,8,9,9,11,11,12,12,13,13,17,17,18,18,19,19,20,20,21,21,22,22],"right_children":[2,4,6,8,10,-1,-1,12,14,16,-1,18,20,22,-1,-1,-1,24,26,28,30,32,34,-1,-1,-1,-1,-1,-1,-1,-1,-1,-1,-1,-1],"split_conditions":[2.8677895E1,2.6020882E1,1.0204464E2,2.2631876E1,3.9494388E-2,-2.8559026E-1,9.6453704E-2,4.454767E0,5.2938014E-2,-1.4116096E2,-1.6099484E-1,3.1755025E0,9.263868E1,3.9339211E3,2.1464318E-1,3.6109515E-2,3.5140726E-1,2.6795482E-2,1.10736885E1,8.3839714E1,9.134192E-1,9.745584E-3,3.5854058E3,-7.4270694E-3,1.6993487E-1,-2.6635358E-1,-4.064797E-2,3.1270444E-2,2.4974824E-1,-4.1127267E-1,3.651185E-2,-9.773689E-2,-3.9225164E-1,1.5015286E-1,-1.6854504E-1],"split_indices":[12,12,10,12,6,0,0,12,6,10,0,12,13,9,0,0,0,5,10,13,15,6,0,0,0,0,0,0,0,0,0,0,0,0,0],"split_type":[0,0,0,0,0,0,0,0,0,0,0,0,0,0,0,0,0,0,0,0,0,0,0,0,0,0,0,0,0,0,0,0,0,0,0],"sum_hessian":[4.6324884E2,4.593478E2,3.901041E0,4.5396927E2,5.3785343E0,2.7145557E0,1.1864853E0,4.4505566E2,8.913615E0,4.1821675E0,1.1963668E0,2.9044485E2,1.546108E2,7.6888313E0,1.2247834E0,1.3785964E0,2.803571E0,2.7443402E2,1.601082E1,1.5061345E2,3.9973516E0,5.0604677E0,2.6283638E0,2.675412E2,6.892831E0,6.248515E0,9.762305E0,1.4628122E2,4.3322234E0,2.1563299E0,1.8410218E0,1.4289988E0,3.6314688E0,1.4264892E0,1.2018747E0],"tree_param":{"num_deleted":"0","num_feature":"16","num_nodes":"35","size_leaf_vector":"1"}},{"base_weights":[5.340549E-4,6.369459E-3,-5.719283E-1,-1.8796775E-2,1.4547913E-1,-3.2696068E-1,5.6919083E-2,-2.794609E-2,5.4718226E-1,-5.285876E-1,2.5212952E-1,-8.047763E-3,-4.7720176E-1,-1.2344777E-1,8.3352655E-1,2.9096642E-1,-1.0694045E0,3.367116E-1,-4.334704E-1,-2.364059E-1,1.6730303E-2,6.747407E-1,-7.167888E-1,3.1499478E-1,3.452054E-2,-1.4246574E-1,2.3008753E-1,-7.165588E-2,-3.9232016E-1,4.377444E-1,-3.0401856E-1,4.6001017E-1,-1.0273546E0,4.6610804E-3,-1.8339545E-1,-1.14612905E-2,5.5001393E-2,3.3081103E-2,2.7680165E-1,-3.213215E-3,-2.9168674E-1,1.5611017E-1,-1.421642E-1,-2.1112098E-1,1.5701607E-1,-7.746014E-2,2.646008E-1,-1.2261097E-3,-3.9750144E-1],"categories":[],"categories_nodes":[],"categories_segments":[],"categories_sizes":[],"default_left":[0,0,0,0,0,0,0,0,0,0,0,0,0,0,0,0,0,0,0,0,0,0,0,0,0,0,0,0,0,0,0,0,0,0,0,0,0,0,0,0,0,0,0,0,0,0,0,0,0],"id":9,"left_children":[1,3,5,7,9,-1,-1,11,13,15,17,19,21,-1,23,25,27,29,31,33,35,37,39,-1,-1,-1,-1,-1,-1,41,43,45,47,-1,-1,-1,-1,-1,-1,-1,-1,-1,-1,-1,-1,-1,-1,-1,-1],"loss_changes":[1.5483639E0,1.6087158E0,2.0518637E0,2.0314574E0,5.1936307E0,0E0,0E0,3.4298418E0,2.056611E0,4.7162905E0,3.709526E0,2.0909016E0,4.975108E0,0E0,6.780968E-1,2.091138E0,9.151912E-1,3.7107244E0,4.285606E0,3.4258811E0,3.0608556E0,3.6248267E-1,2.507453E0,0E0,0E0,0E0,0E0,0E0,0E0,3.8731804E0,3.053098E0,1.3066825E0,1.4035368E0,0E0,0E0,0E0,0E0,0E0,0E0,0E0,0E0,0E0,0E0,0E0,0E0,0E0,0E0,0E0,0E0],"parents":[2147483647,0,0,1,1,2,2,3,3,4,4,7,7,8,8,9,9,10,10,11,11,12,12,14,14,15,15,16,16,17,17,18,18,19,19,20,20,21,21,22,22,29,29,30,30,31,31,32,32],"right_children":[2,4,6,8,10,-1,-1,12,14,16,18,20,22,-1,24,26,28,30,32,34,36,38,40,-1,-1,-1,-1,-1,-1,42,44,46,48,-1,-1,-1,-1,-1,-1,-1,-1,-1,-1,-1,-1,-1,-1,-1,-1],"split_conditions":[4.9407825E-2,1.2675729E-2,7.739245E6,5.2938014E-2,1.4547019E3,-3.2696068E-1,5.6919083E-2,3.3623062E-2,-2.0054243E1,3.5710342E1,3.7051072E6,1.7844785E6,1.6954545E3,-1.2344777E-1,7.553864E1,1.9781439E-2,6.429377E1,3.6980093E3,1.8436559E3,1.6805029E6,8.923819E-3,3.403048E6,2.3533688E6,3.1499478E-1,3.452054E-2,-1.4246574E-1,2.3008753E-1,-7.165588E-2,-3.9232016E-1,5.6530636E-2,3.1696424E-2,-1.4715959E2,-2.8829885E0,4.6610804E-3,-1.8339545E-1,-1.14612905E-2,5.5001393E-2,3.3081103E-2,2.7680165E-1,-3.213215E-3,-2.9168674E-1,1.5611017E-1,-1.421642E-1,-2.1112098E-1,1.5701607E-1,-7.746014E-2,2.646008E-1,-1.2261097E-3,-3.9750144E-1],"split_indices":[5,5,4,6,9,0,0,6,10,10,14,14,8,0,11,6,11,3,8,14,6,4,14,0,0,0,0,0,0,6,6,10,12,0,0,0,0,0,0,0,0,0,0,0,0,0,0,0,0],"split_type":[0,0,0,0,0,0,0,0,0,0,0,0,0,0,0,0,0,0,0,0,0,0,0,0,0,0,0,0,0,0,0,0,0,0,0,0,0,0,0,0,0,0,0,0,0,0,0,0,0],"sum_hessian":[4.614153E2,4.5773822E2,3.677088E0,3.883474E2,6.939079E1,1.9322264E0,1.7448616E0,3.8310498E2,5.2424474E0,8.938729E0,6.045206E1,3.67831E2,1.52739725E1,1.1052012E0,4.137246E0,3.7372646E0,5.2014647E0,5.426616E1,6.185903E0,3.5168865E1,3.3266214E2,2.3170853E0,1.2956887E1,2.824766E0,1.31248E0,1.4333637E0,2.303901E0,1.6062067E0,3.595258E0,4.7148415E1,7.1177416E0,2.5599532E0,3.6259499E0,2.1607248E1,1.3561617E1,2.5075336E2,8.190879E1,1.1480526E0,1.1690326E0,3.7196124E0,9.237274E0,4.3623863E1,3.524551E0,4.900018E0,2.2177234E0,1.0910977E0,1.4688554E0,1.0454865E0,2.5804634E0],"tree_param":{"num_deleted":"0","num_feature":"16","num_nodes":"49","size_leaf_vector":"1"}},{"base_weights":[-1.5731992E-3,9.5278E-2,-3.6438357E-2,-6.7144743E-4,8.5327756E-1,-8.2736474E-1,-2.7520474E-2,7.979255E-2,-4.9388203E-1,-1.2943222E-1,1.0521481E0,-5.0276387E-2,-3.1341064E-1,6.9767296E-1,-3.9785195E-2,7.0058755E-3,4.5382267E-1,-8.8680327E-1,2.1295302E-1,3.4529948E-1,1.2823191E0,3.3131894E-1,6.632726E-2,-6.836741E-1,-2.7766103E-2,-5.381115E-1,8.7836355E-2,-2.2889228E-1,6.839927E-1,7.198856E-2,-4.7181472E-1,-6.038466E-1,8.3268917E-1,3.0704758E-1,-6.7502946E-2,-2.0680903E-2,4.4726464E-1,1.4824997E-1,-1.1826219E-1,-8.462875E-1,-9.211047E-3,4.228451E-1,-5.2564565E-2,2.4794443E-1,-2.3494458E-1,1.5974069E-1,-1.2777117E-2,2.816748E-1,-6.270979E-2,2.1191402E-1,-9.155728E-2,6.043004E-2,-3.2478902E-1,-2.3668107E-2,3.5909307E-1,-1.2054001E-2,-3.1741822E-1,3.2833016E-1,4.9405515E-2,-3.2909468E-1,-1.3006748E-2],"categories":[],"categories_nodes":[],"categories_segments":[],"categories_sizes":[],"default_left":[0,0,0,0,0,0,0,0,0,0,0,0,0,0,0,0,0,0,0,0,0,0,0,0,0,0,0,0,0,0,0,0,0,0,0,0,0,0,0,0,0,0,0,0,0,0,0,0,0,0,0,0,0,0,0,0,0,0,0,0,0],"id":10,"left_children":[1,3,5,7,9,11,13,15,17,-1,19,-1,-1,21,23,25,27,29,31,33,35,-1,37,39,41,43,45,-1,47,49,-1,51,53,-1,-1,-1,-1,-1,-1,55,-1,57,59,-1,-1,-1,-1,-1,-1,-1,-1,-1,-1,-1,-1,-1,-1,-1,-1,-1,-1],"loss_changes":[1.5531565E0,8.855764E0,2.3625128E0,4.3680778E0,3.9493685E0,3.606534E-1,3.011253E0,2.573228E0,4.476412E0,0E0,1.5320234E0,0E0,0E0,1.373122E0,2.5411162E0,3.5826046E0,4.835108E0,6.765879E0,3.7030172E0,1.9128295E0,2.579401E0,0E0,8.392684E-1,6.131754E-1,3.6627233E0,4.158657E0,4.124683E0,0E0,3.2645874E0,1.4538462E0,0E0,1.4931184E0,1.4277213E0,0E0,0E0,0E0,0E0,0E0,0E0,7.7377343E-1,0E0,2.7852743E0,2.9308982E0,0E0,0E0,0E0,0E0,0E0,0E0,0E0,0E0,0E0,0E0,0E0,0E0,0E0,0E0,0E0,0E0,0E0,0E0],"parents":[2147483647,0,0,1,1,2,2,3,3,4,4,5,5,6,6,7,7,8,8,10,10,13,13,14,14,15,15,16,16,17,17,18,18,19,19,20,20,22,22,23,23,24,24,25,25,26,26,28,28,29,29,31,31,32,32,39,39,41,41,42,42],"right_children":[2,4,6,8,10,12,14,16,18,-1,20,-1,-1,22,24,26,28,30,32,34,36,-1,38,40,42,44,46,-1,48,50,-1,52,54,-1,-1,-1,-1,-1,-1,56,-1,58,60,-1,-1,-1,-1,-1,-1,-1,-1,-1,-1,-1,-1,-1,-1,-1,-1,-1,-1],"split_conditions":[-1.2469943E-2,-1.4457865E-2,1.8958906E1,-1.6598927E-2,-1.1615984E2,4.5996178E1,1.1228276E3,-1.9159283E-2,-4.8538184E-1,-1.2943222E-1,4.1630096E1,-5.0276387E-2,-3.1341064E-1,8.218067E-1,1.2042577E3,1.809339E6,1.7097998E3,5.061676E1,4.712626E1,4.3440735E1,1.9109795E6,3.3131894E-1,3.0544149E-3,6.7433136E1,2.9837605E1,1.6131633E3,2.307449E6,-2.2889228E-1,8.202395E1,-1.1084077E1,-4.7181472E-1,1.7500142E3,2.2486918E6,3.0704758E-1,-6.7502946E-2,-2.0680903E-2,4.4726464E-1,1.4824997E-1,-1.1826219E-1,-9.997864E0,-9.211047E-3,-5.8385904E-4,-1.2070406E-2,2.4794443E-1,-2.3494458E-1,1.5974069E-1,-1.2777117E-2,2.816748E-1,-6.270979E-2,2.1191402E-1,-9.155728E-2,6.043004E-2,-3.2478902E-1,-2.3668107E-2,3.5909307E-1,-1.2054001E-2,-3.1741822E-1,3.2833016E-1,4.9405515E-2,-3.2909468E-1,-1.3006748E-2],"split_indices":[6,6,13,6,10,11,3,6,12,0,13,0,0,15,0,4,7,13,13,11,14,0,5,11,13,0,4,0,10,12,0,1,14,0,0,0,0,0,0,10,0,6,6,0,0,0,0,0,0,0,0,0,0,0,0,0,0,0,0,0,0],"split_type":[0,0,0,0,0,0,0,0,0,0,0,0,0,0,0,0,0,0,0,0,0,0,0,0,0,0,0,0,0,0,0,0,0,0,0,0,0,0,0,0,0,0,0,0,0,0,0,0,0,0,0,0,0,0,0,0,0,0,0,0,0],"sum_hessian":[4.579303E2,1.2075492E2,3.3717538E2,1.0807379E2,1.2681132E1,2.7360866E0,3.3443927E2,9.363593E1,1.4437858E1,1.5431054E0,1.1138027E1,1.1168206E0,1.6192662E0,4.6326647E0,3.298066E2,7.9235374E1,1.4400562E1,9.115852E0,5.3220053E0,3.3501122E0,7.7879148E0,2.3618486E0,2.2708158E0,5.0194864E0,3.2478714E2,9.501353E0,6.973402E1,1.922486E0,1.2478076E1,4.174976E0,4.9408765E0,2.307028E0,3.0149772E0,1.1673334E0,2.1827788E0,1.1308348E0,6.65708E0,1.139337E0,1.1314789E0,3.7816584E0,1.2378278E0,1.6104374E1,3.0868277E2,1.0851811E0,8.416173E0,1.5116943E1,5.4617077E1,9.667111E0,2.810964E0,1.2312677E0,2.943708E0,1.076206E0,1.2308222E0,1.0845248E0,1.9304525E0,1.0343125E0,2.747346E0,3.5721827E0,1.2532191E1,1.6654925E0,3.0701727E2],"tree_param":{"num_deleted":"0","num_feature":"16","num_nodes":"61","size_leaf_vector":"1"}},{"base_weights":[-5.770428E-4,1.1171313E-1,-2.9135732E-2,-2.2251552E-2,3.9561293E-1,-6.6654414E-1,-8.279567E-3,3.0505863E-1,-1.4657484E-1,6.145588E-2,8.6836976E-1,-9.7402376E-1,1.8123555E-1,5.2021426E-1,-2.8334623E-2,-3.5870248E-1,5.11882E-1,-6.896043E-2,-3.3703917E-1,6.9424313E-1,-5.7148385E-1,-4.6374127E-2,9.83141E-1,-1.1822406E0,-2.1766792E-1,7.962854E-1,-5.427605E-1,5.4462932E-2,-1.0418163E-1,-3.029927E-1,1.6145493E-1,-1.3755108E-1,9.5646626E-1,-2.6877394E-1,3.3639544E-1,-6.976472E-2,9.780171E-1,-9.2718244E-1,-1.05513126E-1,1.129038E0,-3.8120106E-2,-1.292767E0,-1.0272625E-1,5.59124E-2,-1.5525296E-1,9.473232E-1,-6.8981647E-3,1.0856619E-1,-3.3725464E-1,6.584131E-1,1.1716615E-2,-1.0249738E0,-8.127285E-2,1.6306765E-1,-2.6354697E-1,8.131522E-3,3.3701485E-1,-1.1761649E-1,2.1624842E-1,-1.7821735E-1,1.4769946E-1,3.7804335E-2,3.6895996E-1,-6.5969035E-4,-3.9588764E-1,2.5680095E-1,-1.6999593E-1,3.889012E-1,7.8560665E-2,-1.2663811E-1,-4.4331327E-1,-1.8426346E-3,3.262065E-1,2.4211462E-1,-1.1866456E-1,4.3291647E-2,-4.8145793E-2,-8.4639065E-2,-3.6744142E-1,2.109649E-1,-3.1399705E-2],"categories":[],"categories_nodes":[],"categories_segments":[],"categories_sizes":[],"default_left":[0,0,0,0,0,0,0,0,0,0,0,0,0,0,0,0,0,0,0,0,0,0,0,0,0,0,0,0,0,0,0,0,0,0,0,0,0,0,0,0,0,0,0,0,0,0,0,0,0,0,0,0,0,0,0,0,0,0,0,0,0,0,0,0,0,0,0,0,0,0,0,0,0,0,0,0,0,0,0,0,0],"id":11,"left_children":[1,3,5,7,9,11,13,15,17,19,21,23,-1,25,27,29,31,33,-1,35,37,-1,39,41,43,45,47,49,51,-1,-1,53,55,57,59,-1,61,63,65,67,-1,69,-1,-1,-1,71,-1,-1,-1,73,75,77,79,-1,-1,-1,-1,-1,-1,-1,-1,-1,-1,-1,-1,-1,-1,-1,-1,-1,-1,-1,-1,-1,-1,-1,-1,-1,-1,-1,-1],"loss_changes":[1.4642617E0,3.5299485E0,4.8335323E0,2.6428285E0,4.6439557E0,5.089485E0,3.761319E0,2.6409826E0,3.4821239E0,7.8051524E0,1.5887156E0,1.2637606E0,0E0,4.239833E0,2.1503384E0,3.3709774E0,4.1909995E0,3.699377E0,0E0,2.7788453E0,1.5258012E0,0E0,1.9476862E0,2.3938942E-1,4.975281E-1,1.3464909E0,2.1266565E0,4.224422E0,3.6836925E0,0E0,0E0,3.8021321E0,1.2837601E0,3.991559E0,2.4914808E0,0E0,1.4799166E0,1.9670787E0,2.8656614E0,1.1034927E0,0E0,3.6376858E-1,0E0,0E0,0E0,1.2166891E0,0E0,0E0,0E0,2.0138717E0,3.541888E0,2.8517723E-1,3.2911663E0,0E0,0E0,0E0,0E0,0E0,0E0,0E0,0E0,0E0,0E0,0E0,0E0,0E0,0E0,0E0,0E0,0E0,0E0,0E0,0E0,0E0,0E0,0E0,0E0,0E0,0E0,0E0,0E0],"parents":[2147483647,0,0,1,1,2,2,3,3,4,4,5,5,6,6,7,7,8,8,9,9,10,10,11,11,13,13,14,14,15,15,16,16,17,17,19,19,20,20,22,22,23,23,24,24,25,25,26,26,27,27,28,28,31,31,32,32,33,33,34,34,36,36,37,37,38,38,39,39,41,41,45,45,49,49,50,50,51,51,52,52],"right_children":[2,4,6,8,10,12,14,16,18,20,22,24,-1,26,28,30,32,34,-1,36,38,-1,40,42,44,46,48,50,52,-1,-1,54,56,58,60,-1,62,64,66,68,-1,70,-1,-1,-1,72,-1,-1,-1,74,76,78,80,-1,-1,-1,-1,-1,-1,-1,-1,-1,-1,-1,-1,-1,-1,-1,-1,-1,-1,-1,-1,-1,-1,-1,-1,-1,-1,-1,-1],"split_conditions":[-9.455606E-3,-1.3029348E-2,-3.4011833E-2,-3.318773E-2,5.1100803E1,9.980562E1,-2.5375482E-2,-4.653408E1,2.098048E0,4.2019386E1,1.7273091E6,3.258642E3,1.8123555E-1,3.5630293E3,1.8095642E1,-5.2515678E-2,2.6050135E6,3.13539E6,-3.3703917E-1,3.1247534E1,4.6817963E1,-4.6374127E-2,3.3618867E3,-3.7340412E0,3.4513303E3,5.169053E1,2.3221772E6,-1.6368851E-2,-2.189629E-2,-3.029927E-1,1.6145493E-1,2.3191885E6,1.4771265E3,1.5819828E1,-1.49463415E1,-6.976472E-2,4.6605675E1,4.357548E1,-1.1937378E-2,2.847013E6,-3.8120106E-2,-1.5838816E1,-1.0272625E-1,5.59124E-2,-1.5525296E-1,3.2864635E1,-6.8981647E-3,1.0856619E-1,-3.3725464E-1,4.0051614E3,3.1380815E3,2.361521E3,3.9471214E1,1.6306765E-1,-2.6354697E-1,8.131522E-3,3.3701485E-1,-1.1761649E-1,2.1624842E-1,-1.7821735E-1,1.4769946E-1,3.7804335E-2,3.6895996E-1,-6.5969035E-4,-3.9588764E-1,2.5680095E-1,-1.6999593E-1,3.889012E-1,7.8560665E-2,-1.2663811E-1,-4.4331327E-1,-1.8426346E-3,3.262065E-1,2.4211462E-1,-1.1866456E-1,4.3291647E-2,-4.8145793E-2,-8.4639065E-2,-3.6744142E-1,2.109649E-1,-3.1399705E-2],"split_indices":[5,5,6,6,11,10,6,10,15,11,14,8,0,9,10,6,14,4,0,11,11,0,9,12,0,11,14,6,6,0,0,14,9,12,12,0,13,11,5,4,0,12,0,0,0,11,0,0,0,9,9,0,11,0,0,0,0,0,0,0,0,0,0,0,0,0,0,0,0,0,0,0,0,0,0,0,0,0,0,0,0],"split_type":[0,0,0,0,0,0,0,0,0,0,0,0,0,0,0,0,0,0,0,0,0,0,0,0,0,0,0,0,0,0,0,0,0,0,0,0,0,0,0,0,0,0,0,0,0,0,0,0,0,0,0,0,0,0,0,0,0,0,0,0,0,0,0,0,0,0,0,0,0,0,0,0,0,0,0,0,0,0,0,0,0],"sum_hessian":[4.5458795E2,9.1582436E1,3.630055E2,6.284785E1,2.8734587E1,1.0520413E1,3.524851E2,1.6900246E1,4.5947605E1,1.7497139E1,1.1237448E1,8.65862E0,1.8617932E0,1.197514E1,3.4050995E2,3.8405082E0,1.3059737E1,4.3557526E1,2.39008E0,8.70119E0,8.795949E0,1.098623E0,1.0138824E1,6.348006E0,2.3106143E0,9.705388E0,2.269751E0,1.6293054E2,1.775794E2,2.1518507E0,1.6886575E0,5.5878334E0,7.4719033E0,2.9401487E1,1.4156036E1,2.0819976E0,6.619192E0,4.426894E0,4.3690553E0,8.946206E0,1.1926183E0,5.1331124E0,1.2148931E0,1.1454811E0,1.1651332E0,8.062704E0,1.6426841E0,1.0357637E0,1.2339875E0,9.817611E0,1.5311293E2,3.2489784E0,1.7433043E2,3.0502632E0,2.5375702E0,1.3146354E0,6.157268E0,2.6681438E1,2.7200506E0,1.6286194E0,1.2527417E1,1.8525158E0,4.7666764E0,1.6182652E0,2.8086288E0,1.1386327E0,3.2304225E0,7.084514E0,1.8616924E0,1.4744526E0,3.65866E0,1.1549411E0,6.9077625E0,8.809515E0,1.0080957E0,8.659804E1,6.65149E1,1.1999981E0,2.04898E0,4.2063823E0,1.7012405E2],"tree_param":{"num_deleted":"0","num_feature":"16","num_nodes":"81","size_leaf_vector":"1"}},{"base_weights":[-9.102121E-4,-5.5109125E-1,4.921329E-3,-2.722373E-1,3.6026612E-2,4.7547662E-1,-1.8083241E-3,9.7314477E-1,-1.0352459E-1,-6.5828365E-1,5.262719E-3,3.4002018E-1,9.5881E-2,-3.5524368E-1,1.0394212E-1,9.889687E-3,-2.211711E-1,1.3296399E-1,-1.659822E-2,7.831903E-2,-1.3644664E-1,-1.0682314E-2,1.0490816E-1],"categories":[],"categories_nodes":[],"categories_segments":[],"categories_sizes":[],"default_left":[0,0,0,0,0,0,0,0,0,0,0,0,0,0,0,0,0,0,0,0,0,0,0],"id":12,"left_children":[1,3,5,-1,-1,7,9,11,-1,13,15,-1,-1,-1,-1,17,-1,19,21,-1,-1,-1,-1],"loss_changes":[1.4496368E0,1.2424278E0,1.4171258E0,0E0,0E0,2.9125319E0,2.054893E0,7.653928E-2,0E0,2.9027474E0,1.512784E0,0E0,0E0,0E0,0E0,1.4251448E0,0E0,5.947633E0,2.519646E0,0E0,0E0,0E0,0E0],"parents":[2147483647,0,0,1,1,2,2,5,5,6,6,7,7,9,9,10,10,15,15,17,17,18,18],"right_children":[2,4,6,-1,-1,8,10,12,-1,14,16,-1,-1,-1,-1,18,-1,20,22,-1,-1,-1,-1],"split_conditions":[3.4079567E-1,4.4982996E0,9.6747E5,-2.722373E-1,3.6026612E-2,3.2079866E3,1.027479E6,2.7725836E1,-1.0352459E-1,2.0645091E6,4.341555E3,3.4002018E-1,9.5881E-2,-3.5524368E-1,1.0394212E-1,1.611089E6,-2.211711E-1,7.3517957E-3,4.030158E3,7.831903E-2,-1.3644664E-1,-1.0682314E-2,1.0490816E-1],"split_indices":[15,12,4,0,0,0,4,10,0,14,2,0,0,0,0,4,0,5,3,0,0,0,0],"split_type":[0,0,0,0,0,0,0,0,0,0,0,0,0,0,0,0,0,0,0,0,0,0,0],"sum_hessian":[4.4997964E2,3.7387915E0,4.4624084E2,2.2121868E0,1.5266045E0,5.3098245E0,4.4093103E2,3.1894634E0,2.120361E0,3.7173429E0,4.3721368E2,1.9717286E0,1.2177348E0,2.3230073E0,1.3943356E0,4.3548657E2,1.7271017E0,7.641404E1,3.5907254E2,6.319702E1,1.3217019E1,3.4221536E2,1.6857187E1],"tree_param":{"num_deleted":"0","num_feature":"16","num_nodes":"23","size_leaf_vector":"1"}},{"base_weights":[-1.5054056E-3,-2.0019205E-1,2.6261571E-3,1.4565489E-1,-1.9526813E-2,5.472396E-2,7.0428693E-1,-4.4922692E-1,1.5512061E-3,1.2111576E-1,-7.082262E-1,1.0167601E0,-1.11121E-1,1.6653167E-1,-8.2191664E-1,-5.050099E-1,1.5656848E-2,5.610926E-2,3.4557787E-1,-2.9953825E-1,2.5843132E-2,3.5874856E-1,4.157966E-1,5.33528E-1,-2.9224315E-1,8.329166E-2,-1.0028077E0,-6.736088E-1,1.1425559E-1,7.184358E-1,-3.1237635E-3,6.341948E-2,-7.376074E-2,3.329887E-2,1.5567501E-1,-9.460499E-2,2.5301033E-1,1.2126467E-2,-3.4251806E-1,7.0542544E-2,-2.9028842E-1,2.9589093E-1,-9.928808E-3,-2.0188919E-1,1.3909235E-3],"categories":[],"categories_nodes":[],"categories_segments":[],"categories_sizes":[],"default_left":[0,0,0,0,0,0,0,0,0,0,0,0,0,0,0,0,0,0,0,0,0,0,0,0,0,0,0,0,0,0,0,0,0,0,0,0,0,0,0,0,0,0,0,0,0],"id":13,"left_children":[1,-1,3,5,7,9,11,13,15,17,19,21,-1,23,25,27,29,31,-1,-1,-1,-1,33,35,-1,-1,37,39,-1,41,43,-1,-1,-1,-1,-1,-1,-1,-1,-1,-1,-1,-1,-1,-1],"loss_changes":[1.2406379E0,0E0,1.4242108E0,3.0234985E0,3.526778E0,2.7666614E0,3.1820593E0,4.315217E0,2.6667273E0,3.2552028E0,1.096514E0,2.2802496E-1,0E0,3.7416725E0,2.5679173E0,1.7666655E0,4.793251E0,2.2867095E0,0E0,0E0,0E0,0E0,3.9215446E-2,1.9674479E0,0E0,0E0,1.5101042E0,2.5936213E0,0E0,1.9354796E0,1.8460505E0,0E0,0E0,0E0,0E0,0E0,0E0,0E0,0E0,0E0,0E0,0E0,0E0,0E0,0E0],"parents":[2147483647,0,0,2,2,3,3,4,4,5,5,6,6,7,7,8,8,9,9,10,10,11,11,13,13,14,14,15,15,16,16,17,17,22,22,23,23,26,26,27,27,29,29,30,30],"right_children":[2,-1,4,6,8,10,12,14,16,18,20,22,-1,24,26,28,30,32,-1,-1,-1,-1,34,36,-1,-1,38,40,-1,42,44,-1,-1,-1,-1,-1,-1,-1,-1,-1,-1,-1,-1,-1,-1],"split_conditions":[1.8519258E1,-2.0019205E-1,1.6560847E3,1.7159504E3,3.7537167E1,1.6866174E3,1.7707079E3,-8.982144E-1,4.5106262E-1,1.6774752E3,6.084571E-1,1.7500142E3,-1.11121E-1,1.9227412E3,-1.0287387E-2,1.5070232E-2,4.9671713E-1,3.051244E6,3.4557787E-1,-2.9953825E-1,2.5843132E-2,3.5874856E-1,1.7310236E3,1.6893514E3,-2.9224315E-1,8.329166E-2,1.660654E6,2.1685268E6,1.1425559E-1,4.02202E-3,1.4771265E3,6.341948E-2,-7.376074E-2,3.329887E-2,1.5567501E-1,-9.460499E-2,2.5301033E-1,1.2126467E-2,-3.4251806E-1,7.0542544E-2,-2.9028842E-1,2.9589093E-1,-9.928808E-3,-2.0188919E-1,1.3909235E-3],"split_indices":[13,0,8,1,13,3,0,12,15,3,15,1,0,0,5,6,15,4,0,0,0,0,2,8,0,0,4,14,0,5,9,0,0,0,0,0,0,0,0,0,0,0,0,0,0],"split_type":[0,0,0,0,0,0,0,0,0,0,0,0,0,0,0,0,0,0,0,0,0,0,0,0,0,0,0,0,0,0,0,0,0,0,0,0,0,0,0,0,0,0,0,0,0],"sum_hessian":[4.4937277E2,1.7814268E0,4.4759134E2,5.9280025E1,3.883113E2,5.19258E1,7.354224E0,1.7207321E1,3.71104E2,4.8542862E1,3.3829389E0,5.7393694E0,1.6148546E0,6.696506E0,1.0510816E1,9.110925E0,3.6199307E2,4.6655064E1,1.8877989E0,2.289511E0,1.0934278E0,3.6591923E0,2.080177E0,5.469153E0,1.227353E0,1.409325E0,9.101491E0,7.8554597E0,1.2554654E0,8.452241E0,3.5354083E2,3.1008991E1,1.5646071E1,1.0507547E0,1.0294224E0,1.45769E0,4.011463E0,1.1528746E0,7.948616E0,1.9692326E0,5.886227E0,6.0009446E0,2.4512966E0,3.0671988E0,3.5047363E2],"tree_param":{"num_deleted":"0","num_feature":"16","num_nodes":"45","size_leaf_vector":"1"}},{"base_weights":[-1.2727418E-3,2.6877913E-1,-1.053398E-2,-8.510992E-2,7.602111E-1,-4.1944712E-1,5.8891056E-3,3.4942904E-1,-5.237201E-1,2.822215E-1,-2.5336081E-2,-3.5447976E-1,-1.6706285E-1,3.5497937E-1,-2.270865E-3,6.108904E-1,-1.00611456E-1,4.585501E-2,-2.464802E-1,-8.972911E-1,2.111431E-1,-2.2042114E-1,2.4193854E-3,2.54837E-1,1.5737452E-2,-9.469367E-2,-3.4646094E-1,-1.8478511E-1,4.574597E-1,-7.2455066E-3,3.4885508E-1,2.6613688E-1,-9.6668415E-2,-3.40686E-4,-2.866493E-1,3.0208892E-1,6.7657796E-3],"categories":[],"categories_nodes":[],"categories_segments":[],"categories_sizes":[],"default_left":[0,0,0,0,0,0,0,0,0,0,0,0,0,0,0,0,0,0,0,0,0,0,0,0,0,0,0,0,0,0,0,0,0,0,0,0,0],"id":14,"left_children":[1,3,5,7,9,11,13,15,17,-1,-1,-1,19,-1,21,23,-1,-1,-1,25,27,-1,29,-1,-1,-1,-1,-1,31,33,35,-1,-1,-1,-1,-1,-1],"loss_changes":[1.1237265E0,2.6556447E0,2.9189157E0,2.0051382E0,1.0458436E0,3.0307415E0,4.0233245E0,1.1721444E0,1.1651251E0,0E0,0E0,0E0,3.9929602E0,0E0,1.4330329E0,5.235001E-1,0E0,0E0,0E0,3.6802673E-1,2.2950826E0,0E0,1.3919219E0,0E0,0E0,0E0,0E0,0E0,3.0290291E0,2.3434963E0,2.400168E0,0E0,0E0,0E0,0E0,0E0,0E0],"parents":[2147483647,0,0,1,1,2,2,3,3,4,4,5,5,6,6,7,7,8,8,12,12,14,14,15,15,19,19,20,20,22,22,28,28,29,29,30,30],"right_children":[2,4,6,8,10,12,14,16,18,-1,-1,-1,20,-1,22,24,-1,-1,-1,26,28,-1,30,-1,-1,-1,-1,-1,32,34,36,-1,-1,-1,-1,-1,-1],"split_conditions":[-2.7504435E-2,3.1420868E6,-1.9327102E-2,2.4574588E6,9.094231E0,-1.8398169E1,-1.872717E-2,4.0535694E1,1.8323162E3,2.822215E-1,-2.5336081E-2,-3.5447976E-1,8.710035E-1,3.5497937E-1,-6.429841E-2,2.9708228E3,-1.00611456E-1,4.585501E-2,-2.464802E-1,5.061676E1,1.733422E3,-2.2042114E-1,6.477148E6,2.54837E-1,1.5737452E-2,-9.469367E-2,-3.4646094E-1,-1.8478511E-1,-1.7261134E-2,4.9407825E-2,1.7217522E0,2.6613688E-1,-9.6668415E-2,-3.40686E-4,-2.866493E-1,3.0208892E-1,6.7657796E-3],"split_indices":[5,14,5,14,12,12,5,11,1,0,0,0,15,0,6,0,0,0,0,13,9,0,4,0,0,0,0,0,6,5,15,0,0,0,0,0,0],"split_type":[0,0,0,0,0,0,0,0,0,0,0,0,0,0,0,0,0,0,0,0,0,0,0,0,0,0,0,0,0,0,0,0,0,0,0,0,0],"sum_hessian":[4.471762E2,1.3897978E1,4.3327823E2,8.560337E0,5.3376412E0,1.57822E1,4.1749603E2,4.4022627E0,4.1580744E0,4.304017E0,1.0336242E0,3.0102072E0,1.2771993E1,1.8823991E0,4.1561365E2,3.2639823E0,1.1382805E0,1.419918E0,2.7381563E0,3.8895936E0,8.8824E0,1.6540384E0,4.139596E2,1.9218211E0,1.3421612E0,1.876853E0,2.0127406E0,1.6938993E0,7.1885004E0,4.0367688E2,1.0282725E1,4.545703E0,2.6427972E0,4.0208728E2,1.5895774E0,2.716975E0,7.5657506E0],"tree_param":{"num_deleted":"0","num_feature":"16","num_nodes":"37","size_leaf_vector":"1"}},{"base_weights":[-1.7658931E-3,1.0687772E-2,-1.9963491E-1,-2.312932E-2,8.740117E-2,-8.5251826E-1,-7.773695E-2,-7.17213E-3,-3.0750808E-1,9.557322E-1,2.6115417E-2,-4.9882445E-2,-3.2844353E-1,4.553585E-2,-2.6899514E-1,-1.4819024E-2,2.987437E-1,4.7242995E-3,1.2103575E0,-5.446188E-1,9.014749E-2,-1.586957E-1,3.072851E-1,-2.2012396E-2,2.8634542E-1,7.076168E-2,4.1370058E-1,-1.1724044E0,2.7967426E-1,4.6892348E-1,-3.7322964E-3,2.0199262E-2,-2.760856E-1,4.072305E-3,-8.743821E-2,-4.0121582E-1,-1.3679042E-1,2.8405315E-1,-2.0245714E-1,1.691298E-1,-1.5772846E-1,7.753106E-2,-4.044207E-2,1.17876284E-1,-8.470438E-2],"categories":[],"categories_nodes":[],"categories_segments":[],"categories_sizes":[],"default_left":[0,0,0,0,0,0,0,0,0,0,0,0,0,0,0,0,0,0,0,0,0,0,0,0,0,0,0,0,0,0,0,0,0,0,0,0,0,0,0,0,0,0,0,0,0],"id":15,"left_children":[1,3,5,7,9,11,13,15,-1,17,19,-1,-1,21,-1,23,-1,-1,25,27,29,31,-1,33,-1,-1,-1,35,37,39,41,43,-1,-1,-1,-1,-1,-1,-1,-1,-1,-1,-1,-1,-1],"loss_changes":[1.1022323E0,1.0940557E0,2.0415487E0,4.6761584E0,6.839918E0,4.941275E-1,2.4049203E0,2.2340903E0,0E0,2.0096903E0,4.490196E0,0E0,0E0,4.4214616E0,0E0,2.0302174E0,0E0,0E0,7.6866055E-1,6.7449827E0,3.917641E0,2.538251E0,0E0,2.7560706E0,0E0,0E0,0E0,2.4501038E-1,4.5673933E0,2.360592E0,3.1015213E0,1.9100535E0,0E0,0E0,0E0,0E0,0E0,0E0,0E0,0E0,0E0,0E0,0E0,0E0,0E0],"parents":[2147483647,0,0,1,1,2,2,3,3,4,4,5,5,6,6,7,7,9,9,10,10,13,13,15,15,18,18,19,19,20,20,21,21,23,23,27,27,28,28,29,29,30,30,31,31],"right_children":[2,4,6,8,10,12,14,16,-1,18,20,-1,-1,22,-1,24,-1,-1,26,28,30,32,-1,34,-1,-1,-1,36,38,40,42,44,-1,-1,-1,-1,-1,-1,-1,-1,-1,-1,-1,-1,-1],"split_conditions":[1.9978807E1,3.2358303E3,2.134588E6,3.2245676E3,3.201151E3,3.2339111E3,4.1806533E3,3.2060266E3,-3.0750808E-1,-2.0168955E1,3.2509602E3,-4.9882445E-2,-3.2844353E-1,3.9779255E3,-2.6899514E-1,3.3961355E3,2.987437E-1,4.7242995E-3,3.1864128E3,5.4184273E1,3.3621829E3,3.6067925E3,3.072851E-1,3.0704866E3,2.8634542E-1,7.076168E-2,4.1370058E-1,-7.7909484E0,3.23991E3,3.2372435E6,-1.1311786E1,2.317278E6,-2.760856E-1,4.072305E-3,-8.743821E-2,-4.0121582E-1,-1.3679042E-1,2.8405315E-1,-2.0245714E-1,1.691298E-1,-1.5772846E-1,7.753106E-2,-4.044207E-2,1.17876284E-1,-8.470438E-2],"split_indices":[12,1,14,1,2,7,2,3,0,12,2,0,0,3,0,8,0,0,7,11,7,0,0,7,0,0,0,12,2,14,12,4,0,0,0,0,0,0,0,0,0,0,0,0,0],"split_type":[0,0,0,0,0,0,0,0,0,0,0,0,0,0,0,0,0,0,0,0,0,0,0,0,0,0,0,0,0,0,0,0,0,0,0,0,0,0,0,0,0,0,0,0,0],"sum_hessian":[4.4543335E2,4.1994824E2,2.548511E1,2.9194876E2,1.2799947E2,3.0666237E0,2.2418486E1,2.883632E2,3.5855925E0,7.4763036E0,1.2052317E2,1.2402214E0,1.8264022E0,2.0306152E1,2.112334E0,2.8715906E2,1.2041162E0,1.8198653E0,5.6564384E0,1.1400672E1,1.091225E2,1.7493673E1,2.8124793E0,2.860138E2,1.1452676E0,1.188354E0,4.4680843E0,6.23202E0,5.168652E0,2.0880638E1,8.824187E1,1.4954408E1,2.5392652E0,2.5348499E2,3.252881E1,4.3610363E0,1.8709836E0,3.0470035E0,2.1216486E0,1.9458504E1,1.422133E0,2.9088585E1,5.915328E1,6.566333E0,8.388075E0],"tree_param":{"num_deleted":"0","num_feature":"16","num_nodes":"45","size_leaf_vector":"1"}},{"base_weights":[-2.0895205E-3,3.5411283E-2,-6.8059854E-2,8.780788E-3,6.8397593E-1,-7.823668E-1,-3.8751937E-2,3.0328197E-2,-5.7632303E-1,7.869442E-1,-9.04856E-3,2.9023008E-2,-3.476749E-1,-3.0667782E-1,1.8985692E-2,9.739828E-3,6.151427E-1,-9.8171115E-1,1.0483927E-1,-1.2263388E-2,9.6980506E-1,1.0298625E-1,-8.199338E-1,5.281335E-1,-2.7100226E-2,-2.1564849E-2,3.4420827E-1,9.1746217E-1,-1.7697655E-1,-1.02446176E-1,-3.4680244E-1,-1.4144337E-1,2.2221406E-1,3.8662636E-1,4.0102872E-1,2.2415115E-1,-2.0295164E-1,9.408484E-2,-1.0066487E0,-3.1576526E-1,9.034059E-1,5.9171855E-1,-7.2763585E-2,-2.603312E-3,-3.0979025E-1,1.8688394E-1,-2.0176214E-1,1.1228586E-1,3.6007577E-1,1.4128654E-1,-2.2124296E-1,-1.5832111E-1,3.0723917E-1,-7.956433E-2,1.3966763E-1,-6.817672E-3,-3.3712164E-1,1.8373244E-1,-3.2889202E-1,3.3378014E-1,-2.5178967E-2,-2.6453426E-2,3.945614E-1,-1.867247E-1,1.093715E-3],"categories":[],"categories_nodes":[],"categories_segments":[],"categories_sizes":[],"default_left":[0,0,0,0,0,0,0,0,0,0,0,0,0,0,0,0,0,0,0,0,0,0,0,0,0,0,0,0,0,0,0,0,0,0,0,0,0,0,0,0,0,0,0,0,0,0,0,0,0,0,0,0,0,0,0,0,0,0,0,0,0,0,0,0,0],"id":16,"left_children":[1,3,5,7,9,11,13,15,17,19,-1,-1,-1,21,23,25,27,29,31,-1,33,35,37,39,41,43,45,47,49,-1,-1,-1,-1,-1,51,53,-1,-1,55,57,59,61,63,-1,-1,-1,-1,-1,-1,-1,-1,-1,-1,-1,-1,-1,-1,-1,-1,-1,-1,-1,-1,-1,-1],"loss_changes":[1.0997103E0,4.889608E0,3.3421743E0,3.4628773E0,8.448515E-1,2.1966286E0,2.415918E0,3.1789975E0,2.797061E0,1.522572E0,0E0,0E0,0E0,5.9045105E0,3.0439975E0,2.6935668E0,2.3127952E0,2.985344E-1,2.014325E0,0E0,9.461274E-1,1.6894138E0,2.9397764E0,3.6947448E0,3.4156163E0,3.0599515E0,6.658273E0,5.7392645E-1,1.5525974E0,0E0,0E0,0E0,0E0,0E0,3.0574014E0,1.8769267E0,0E0,0E0,1.2281857E0,3.6091793E0,1.6860647E0,4.204303E0,4.707796E0,0E0,0E0,0E0,0E0,0E0,0E0,0E0,0E0,0E0,0E0,0E0,0E0,0E0,0E0,0E0,0E0,0E0,0E0,0E0,0E0,0E0,0E0],"parents":[2147483647,0,0,1,1,2,2,3,3,4,4,5,5,6,6,7,7,8,8,9,9,13,13,14,14,15,15,16,16,17,17,18,18,20,20,21,21,22,22,23,23,24,24,25,25,26,26,27,27,28,28,34,34,35,35,38,38,39,39,40,40,41,41,42,42],"right_children":[2,4,6,8,10,12,14,16,18,20,-1,-1,-1,22,24,26,28,30,32,-1,34,36,38,40,42,44,46,48,50,-1,-1,-1,-1,-1,52,54,-1,-1,56,58,60,62,64,-1,-1,-1,-1,-1,-1,-1,-1,-1,-1,-1,-1,-1,-1,-1,-1,-1,-1,-1,-1,-1,-1],"split_conditions":[5.720748E1,5.643939E1,5.762457E1,5.5834774E1,1.1823295E0,1.4808804E1,-2.9335495E-3,1.5620987E2,2.292362E6,-4.326553E0,-9.04856E-3,2.9023008E-2,-3.476749E-1,-8.025062E-3,-2.511523E-4,5.4298527E1,5.3849876E1,1.377E6,5.3439224E-3,-1.2263388E-2,5.1334614E1,4.623203E6,1.8433222E6,1.995154E6,-5.1367617E0,5.969372E-2,3.5067028E6,-1.5185882E-2,1.783604E6,-1.02446176E-1,-3.4680244E-1,-1.4144337E-1,2.2221406E-1,3.8662636E-1,1.797906E6,4.534554E1,-2.0295164E-1,9.408484E-2,5.0346273E-1,-2.2919606E-3,1.2903861E1,9.8146975E-1,4.8945808E-1,-2.603312E-3,-3.0979025E-1,1.8688394E-1,-2.0176214E-1,1.1228586E-1,3.6007577E-1,1.4128654E-1,-2.2124296E-1,-1.5832111E-1,3.0723917E-1,-7.956433E-2,1.3966763E-1,-6.817672E-3,-3.3712164E-1,1.8373244E-1,-3.2889202E-1,3.3378014E-1,-2.5178967E-2,-2.6453426E-2,3.945614E-1,-1.867247E-1,1.093715E-3],"split_indices":[11,11,11,11,15,10,6,10,4,12,0,0,0,6,6,11,11,4,5,0,13,4,14,14,12,6,14,6,4,0,0,0,0,0,4,13,0,0,15,5,12,15,12,0,0,0,0,0,0,0,0,0,0,0,0,0,0,0,0,0,0,0,0,0,0],"split_type":[0,0,0,0,0,0,0,0,0,0,0,0,0,0,0,0,0,0,0,0,0,0,0,0,0,0,0,0,0,0,0,0,0,0,0,0,0,0,0,0,0,0,0,0,0,0,0,0,0,0,0,0,0,0,0,0,0,0,0,0,0,0,0,0,0],"sum_hessian":[4.4254346E2,2.824488E2,1.6009465E2,2.7228226E2,1.0166552E1,5.297073E0,1.5479758E2,2.6352567E2,8.756599E0,8.796303E0,1.3702487E0,1.8113317E0,3.4857414E0,2.6680008E1,1.2811757E2,2.5554582E2,7.979825E0,5.212935E0,3.5436642E0,1.7319798E0,7.064323E0,1.5281869E1,1.1398139E1,9.765921E0,1.1835165E2,2.3453041E2,2.101542E1,5.6610117E0,2.3188133E0,1.7487371E0,3.4641976E0,1.9945043E0,1.5491598E0,3.7151582E0,3.3491645E0,1.3842602E1,1.4392675E0,1.5158334E0,9.882305E0,3.054852E0,6.711068E0,7.311376E0,1.11040276E2,2.3257458E2,1.9558251E0,1.6797703E1,4.217717E0,2.7337146E0,2.927297E0,1.1496221E0,1.1691911E0,1.4061996E0,1.942965E0,4.5402627E0,9.30234E0,1.1779473E0,8.704358E0,1.4938061E0,1.5610458E0,5.4330535E0,1.2780148E0,4.2219324E0,3.089444E0,1.2680074E1,9.83602E1],"tree_param":{"num_deleted":"0","num_feature":"16","num_nodes":"65","size_leaf_vector":"1"}},{"base_weights":[-1.5566029E-3,7.0574195E-3,-3.2785353E-1,-3.32557E-4,3.9987117E-1,4.6734506E-1,-6.2551117E-1,4.8559047E-3,-5.569796E-1,5.8590686E-1,-1.2614852E-1,-1.9643553E-2,2.4927504E-1,-1.127784E0,3.516595E-1,-2.2767347E-3,4.5313075E-1,-3.0002484E-1,8.463013E-2,-4.694001E-2,7.482075E-1,-9.9830315E-2,-3.684217E-1,2.0570856E-1,-6.310612E-2,2.7922364E-3,-5.2602607E-1,3.4408358E-1,-9.6879356E-2,2.1115554E-2,9.422716E-1,-6.545457E-3,3.9025422E-2,-2.844015E-1,9.4709575E-2,-2.2813499E-1,2.2433008E-1,3.471117E-1,4.522782E-2],"categories":[],"categories_nodes":[],"categories_segments":[],"categories_sizes":[],"default_left":[0,0,0,0,0,0,0,0,0,0,0,0,0,0,0,0,0,0,0,0,0,0,0,0,0,0,0,0,0,0,0,0,0,0,0,0,0,0,0],"id":17,"left_children":[1,3,5,7,9,11,13,15,17,19,-1,-1,-1,21,23,25,27,-1,-1,-1,29,-1,-1,-1,-1,31,33,-1,35,-1,37,-1,-1,-1,-1,-1,-1,-1,-1],"loss_changes":[1.2389283E0,1.247285E0,2.9757743E0,1.2234964E0,1.4572511E0,7.63459E-1,4.6552496E0,1.3432256E0,1.7366489E0,9.4666076E-1,0E0,0E0,0E0,6.722975E-2,8.4037E-1,1.1011143E0,2.6219313E0,0E0,0E0,0E0,6.9964075E-1,0E0,0E0,0E0,0E0,1.2910882E0,1.7113684E0,0E0,3.1425273E0,0E0,5.813768E-1,0E0,0E0,0E0,0E0,0E0,0E0,0E0,0E0],"parents":[2147483647,0,0,1,1,2,2,3,3,4,4,5,5,6,6,7,7,8,8,9,9,13,13,14,14,15,15,16,16,20,20,25,25,26,26,28,28,30,30],"right_children":[2,4,6,8,10,12,14,16,18,20,-1,-1,-1,22,24,26,28,-1,-1,-1,30,-1,-1,-1,-1,32,34,-1,36,-1,38,-1,-1,-1,-1,-1,-1,-1,-1],"split_conditions":[4.1769116E3,4.0697349E3,3.8805843E1,4.062383E3,3.484426E6,4.236212E3,1.6598703E2,4.108022E3,1.3630895E-2,-4.30635E-3,-1.2614852E-1,-1.9643553E-2,2.4927504E-1,-1.3029348E-2,7.824352E1,4.9407825E-2,3.982237E3,-3.0002484E-1,8.463013E-2,-4.694001E-2,6.923682E-1,-9.9830315E-2,-3.684217E-1,2.0570856E-1,-6.310612E-2,1.224804E-2,8.582118E6,3.4408358E-1,4.5919376E1,2.1115554E-2,2.3715538E1,-6.545457E-3,3.9025422E-2,-2.844015E-1,9.4709575E-2,-2.2813499E-1,2.2433008E-1,3.471117E-1,4.522782E-2],"split_indices":[7,2,11,0,4,8,10,8,5,5,0,0,0,5,13,5,1,0,0,0,15,0,0,0,0,5,4,0,11,0,12,0,0,0,0,0,0,0,0],"split_type":[0,0,0,0,0,0,0,0,0,0,0,0,0,0,0,0,0,0,0,0,0,0,0,0,0,0,0,0,0,0,0,0,0,0,0,0,0,0,0],"sum_hessian":[4.3896222E2,4.2862518E2,1.0337049E1,4.2169107E2,6.93409E0,2.660198E0,7.6768503E0,4.1877896E2,2.912128E0,5.885276E0,1.0488144E0,1.4115044E0,1.2486935E0,4.968746E0,2.708104E0,4.1319934E2,5.579621E0,1.7801714E0,1.1319566E0,1.062281E0,4.8229947E0,1.0402746E0,3.9284718E0,1.5605268E0,1.1475772E0,4.1022375E2,2.9755745E0,1.9873482E0,3.5922725E0,1.3768071E0,3.4461877E0,3.4445605E2,6.576771E1,1.8978612E0,1.0777131E0,2.0676045E0,1.5246681E0,2.3474324E0,1.0987554E0],"tree_param":{"num_deleted":"0","num_feature":"16","num_nodes":"39","size_leaf_vector":"1"}},{"base_weights":[-1.0773389E-3,4.9776654E-3,-3.4467223E-1,-9.1234175E-4,2.6985738E-1,9.959711E-2,-6.494551E-1,-2.2333273E-1,2.5703933E-3,-2.7823398E-1,-2.7487879E-3,6.792747E-2,-3.8400747E-2,3.8328752E-1,1.6949276E-2,-3.5898298E-1,9.095018E-3,7.5582033E-3,2.986518E-1,-6.210502E-2,4.520694E-2,2.1813811E-1,-1.4837493E-1,1.99057E-2,-1.00927845E-1],"categories":[],"categories_nodes":[],"categories_segments":[],"categories_sizes":[],"default_left":[0,0,0,0,0,0,0,0,0,0,0,0,0,0,0,0,0,0,0,0,0,0,0,0,0],"id":18,"left_children":[1,3,5,7,-1,-1,9,-1,11,-1,-1,13,15,17,19,21,23,-1,-1,-1,-1,-1,-1,-1,-1],"loss_changes":[9.1322577E-1,2.274482E0,1.7832956E0,1.114635E0,0E0,0E0,9.8456097E-1,0E0,1.1505489E0,0E0,0E0,2.6549509E0,4.025234E0,5.015246E0,4.33124E0,5.3831434E0,4.5930657E0,0E0,0E0,0E0,0E0,0E0,0E0,0E0,0E0],"parents":[2147483647,0,0,1,1,2,2,3,3,6,6,8,8,11,11,12,12,13,13,14,14,15,15,16,16],"right_children":[2,4,6,8,-1,-1,10,-1,12,-1,-1,14,16,18,20,22,24,-1,-1,-1,-1,-1,-1,-1,-1],"split_conditions":[4.007454E3,4.0051614E3,3.4978057E3,-2.0852661E2,2.6985738E-1,9.959711E-2,7.846709E1,-2.2333273E-1,-2.6741298E-3,-2.7823398E-1,-2.7487879E-3,1.526904E6,-7.3677313E-4,2.150332E6,8.776793E-1,-9.749765E1,1.5177963E1,7.5582033E-3,2.986518E-1,-6.210502E-2,4.520694E-2,2.1813811E-1,-1.4837493E-1,1.99057E-2,-1.00927845E-1],"split_indices":[9,9,2,10,0,0,13,0,5,0,0,4,5,14,15,10,12,0,0,0,0,0,0,0,0],"split_type":[0,0,0,0,0,0,0,0,0,0,0,0,0,0,0,0,0,0,0,0,0,0,0,0,0],"sum_hessian":[4.371273E2,4.3052585E2,6.601433E0,4.287021E2,1.8237433E0,2.0223193E0,4.5791135E0,1.006805E0,4.2769528E2,2.8801744E0,1.6989391E0,1.6454904E2,2.6314624E2,2.199089E1,1.4255815E2,3.310941E1,2.3003683E2,1.453207E1,7.45882E0,5.3095276E1,8.946288E1,3.1907015E0,2.9918707E1,1.9802887E2,3.2007973E1],"tree_param":{"num_deleted":"0","num_feature":"16","num_nodes":"25","size_leaf_vector":"1"}},{"base_weights":[-5.3393136E-4,3.510126E-2,-7.143097E-2,1.2360562E-2,5.216643E-1,-4.736215E-1,3.8614463E-2,-1.5559473E-2,2.4458762E-1,9.467899E-1,-2.8180227E-1,-8.198018E-1,-8.0922075E-2,4.373375E-1,-2.7355034E-2,2.415976E-2,-3.3854058E-1,-3.9529094E-1,5.3069866E-1,1.2037851E0,1.4427032E-1,1.7190613E-1,-7.3124987E-1,6.4150564E-2,-9.099155E-1,3.2859758E-1,-4.9164963E-1,8.687841E-1,2.2946657E-3,-6.824412E-1,4.7212213E-2,-1.6828727E-2,5.878402E-1,-4.9718437E-1,2.3845668E-1,1.3192451E-1,-3.9652207E-1,1.1136298E0,-6.2592677E-3,3.5910003E-2,4.2237467E-1,-9.718387E-2,1.6395865E-1,-3.4976587E-1,3.8807716E-2,-3.1725404E-1,-1.1521287E0,-6.9264315E-2,7.5893396E-1,6.399325E-2,-7.4093384E-1,-3.0745173E-2,1.0539339E0,5.42339E-1,-3.4828797E-1,-1.1706572E0,-9.83121E-2,6.0811996E-1,-1.567902E-2,-2.6171127E-1,-5.544728E-4,2.1341491E-1,-1.0291463E-1,1.1237134E-1,-1.8626842E-1,1.3623957E-1,-1.2172927E-1,1.9325393E-1,-1.7914177E-1,3.8381296E-1,-4.9994495E-2,5.4072704E-2,-2.4482523E-1,1.6729526E-1,-3.8677976E-1,-3.9172408E-1,-5.8035096E-3,-1.0101203E-1,1.5154345E-1,3.9050825E-2,2.7847776E-1,-3.0697954E-1,-3.4223653E-2,1.5472966E-1,3.7446445E-1,-5.329277E-2,2.60374E-1,9.849869E-2,-1.812903E-1,-4.048111E-1,-9.1754764E-2,9.489826E-2,-2.631955E-1,-1.5662953E-1,2.5069833E-1,-9.629639E-2,3.179877E-2],"categories":[],"categories_nodes":[],"categories_segments":[],"categories_sizes":[],"default_left":[0,0,0,0,0,0,0,0,0,0,0,0,0,0,0,0,0,0,0,0,0,0,0,0,0,0,0,0,0,0,0,0,0,0,0,0,0,0,0,0,0,0,0,0,0,0,0,0,0,0,0,0,0,0,0,0,0,0,0,0,0,0,0,0,0,0,0,0,0,0,0,0,0,0,0,0,0,0,0,0,0,0,0,0,0,0,0,0,0,0,0,0,0,0,0,0,0],"id":19,"left_children":[1,3,5,7,9,11,13,15,17,19,21,23,25,27,29,31,33,35,37,39,41,-1,43,-1,45,47,49,51,53,55,57,59,61,63,65,67,-1,69,71,-1,-1,-1,-1,-1,-1,73,75,77,79,-1,81,-1,83,85,87,89,91,93,95,-1,-1,-1,-1,-1,-1,-1,-1,-1,-1,-1,-1,-1,-1,-1,-1,-1,-1,-1,-1,-1,-1,-1,-1,-1,-1,-1,-1,-1,-1,-1,-1,-1,-1,-1,-1,-1,-1],"loss_changes":[1.1028329E0,3.208008E0,6.4807367E0,1.8099624E0,4.6892614E0,4.2083063E0,3.0518541E0,3.2102973E0,5.6941133E0,1.619936E0,2.4363413E0,1.7409925E0,2.8261402E0,3.0885553E0,4.922097E0,5.1669664E0,2.6267803E0,4.975253E0,6.620077E0,1.2590332E0,7.883343E-1,0E0,1.6023965E0,0E0,1.8539524E0,1.5133502E0,1.6183722E0,1.5941806E0,1.9309661E0,2.820816E0,3.2129345E0,2.6776512E0,1.9873147E0,2.5853376E0,1.0992098E0,3.063726E0,0E0,2.3640146E0,1.9582603E0,0E0,0E0,0E0,0E0,0E0,0E0,5.707179E0,1.8185539E0,9.9189657E-1,3.2444096E-1,0E0,1.0093062E0,0E0,9.121561E-2,1.0948566E0,1.2703559E0,4.3983316E-1,2.144086E0,2.797253E0,3.1035488E0,0E0,0E0,0E0,0E0,0E0,0E0,0E0,0E0,0E0,0E0,0E0,0E0,0E0,0E0,0E0,0E0,0E0,0E0,0E0,0E0,0E0,0E0,0E0,0E0,0E0,0E0,0E0,0E0,0E0,0E0,0E0,0E0,0E0,0E0,0E0,0E0,0E0,0E0],"parents":[2147483647,0,0,1,1,2,2,3,3,4,4,5,5,6,6,7,7,8,8,9,9,10,10,11,11,12,12,13,13,14,14,15,15,16,16,17,17,18,18,19,19,20,20,22,22,24,24,25,25,26,26,27,27,28,28,29,29,30,30,31,31,32,32,33,33,34,34,35,35,37,37,38,38,45,45,46,46,47,47,48,48,50,50,52,52,53,53,54,54,55,55,56,56,57,57,58,58],"right_children":[2,4,6,8,10,12,14,16,18,20,22,24,26,28,30,32,34,36,38,40,42,-1,44,-1,46,48,50,52,54,56,58,60,62,64,66,68,-1,70,72,-1,-1,-1,-1,-1,-1,74,76,78,80,-1,82,-1,84,86,88,90,92,94,96,-1,-1,-1,-1,-1,-1,-1,-1,-1,-1,-1,-1,-1,-1,-1,-1,-1,-1,-1,-1,-1,-1,-1,-1,-1,-1,-1,-1,-1,-1,-1,-1,-1,-1,-1,-1,-1,-1],"split_conditions":[1.0496964E0,1.0169772E0,2.659446E6,1.224804E-2,6.300143E1,3.0589785E3,3.417187E1,8.2068965E-3,4.7882923E1,5.0363785E1,-3.4980907E-3,-1.7136801E-2,6.0111805E1,1.5231298E0,-1.613873E1,6.625495E-3,9.04862E-1,1.8592467E3,6.549962E1,-9.700908E-3,7.039779E1,1.7190613E-1,3.4316704E3,6.4150564E-2,-1.0693662E1,1.1755568E0,-1.49463415E1,-1.7827896E-2,-2.7504435E-2,3.3268428E3,-1.0572991E1,-1.8691171E2,3.3621829E3,1.5970037E3,6.503484E1,3.632682E6,-3.9652207E-1,2.847013E6,1.7414055E2,3.5910003E-2,4.2237467E-1,-9.718387E-2,1.6395865E-1,-3.4976587E-1,3.8807716E-2,3.106141E3,3.1970522E3,2.2345455E6,4.6605675E1,6.399325E-2,5.267062E1,-3.0745173E-2,5.1334614E1,2.8683887E1,-1.07430176E2,1.0072095E2,4.132154E3,-4.8515283E-2,1.251963E0,-2.6171127E-1,-5.544728E-4,2.1341491E-1,-1.0291463E-1,1.1237134E-1,-1.8626842E-1,1.3623957E-1,-1.2172927E-1,1.9325393E-1,-1.7914177E-1,3.8381296E-1,-4.9994495E-2,5.4072704E-2,-2.4482523E-1,1.6729526E-1,-3.8677976E-1,-3.9172408E-1,-5.8035096E-3,-1.0101203E-1,1.5154345E-1,3.9050825E-2,2.7847776E-1,-3.0697954E-1,-3.4223653E-2,1.5472966E-1,3.7446445E-1,-5.329277E-2,2.60374E-1,9.849869E-2,-1.812903E-1,-4.048111E-1,-9.1754764E-2,9.489826E-2,-2.631955E-1,-1.5662953E-1,2.5069833E-1,-9.629639E-2,3.179877E-2],"split_indices":[15,15,4,5,13,9,11,5,13,10,5,5,13,15,12,5,15,8,13,5,10,0,0,0,10,15,12,5,5,1,12,10,7,7,11,14,0,4,10,0,0,0,0,0,0,8,0,14,13,0,11,0,13,11,10,10,3,6,15,0,0,0,0,0,0,0,0,0,0,0,0,0,0,0,0,0,0,0,0,0,0,0,0,0,0,0,0,0,0,0,0,0,0,0,0,0,0],"split_type":[0,0,0,0,0,0,0,0,0,0,0,0,0,0,0,0,0,0,0,0,0,0,0,0,0,0,0,0,0,0,0,0,0,0,0,0,0,0,0,0,0,0,0,0,0,0,0,0,0,0,0,0,0,0,0,0,0,0,0,0,0,0,0,0,0,0,0,0,0,0,0,0,0,0,0,0,0,0,0,0,0,0,0,0,0,0,0,0,0,0,0,0,0,0,0,0,0],"sum_hessian":[4.345259E2,2.8951233E2,1.4501357E2,2.7756506E2,1.1947271E1,3.0443987E1,1.1456957E2,2.4860854E2,2.8956537E1,7.6965404E0,4.2507305E0,1.5602314E1,1.4841672E1,1.5465558E1,9.910401E1,2.2220735E2,2.6401186E1,8.829046E0,2.0127491E1,5.4509473E0,2.245593E0,1.3700442E0,2.8806865E0,1.1410549E0,1.446126E1,7.5318923E0,7.3097796E0,7.2642994E0,8.20126E0,9.294879E0,8.9809135E1,2.0804904E2,1.4158311E1,2.0816164E1,5.585022E0,6.1734924E0,2.6555538E0,9.135675E0,1.0991816E1,1.1151348E0,4.3358126E0,1.1276846E0,1.1179086E0,1.678344E0,1.2023424E0,4.86561E0,9.59565E0,4.349586E0,3.1823065E0,1.9472846E0,5.362495E0,1.234544E0,6.029755E0,3.0130038E0,5.1882553E0,4.516159E0,4.7787194E0,8.180486E0,8.162865E1,2.59532E0,2.0545372E2,1.27076235E1,1.4506874E0,2.3349016E0,1.8481262E1,4.4052725E0,1.1797491E0,3.6942587E0,2.4792335E0,8.089148E0,1.0465285E0,9.56617E0,1.425646E0,2.7850692E0,2.0805407E0,8.315311E0,1.2803384E0,3.2501502E0,1.0994356E0,1.0504321E0,2.1318743E0,3.2612643E0,2.1012306E0,2.5687969E0,3.4609585E0,1.0797017E0,1.9333022E0,1.3466704E0,3.8415852E0,3.2783694E0,1.2377898E0,3.5063422E0,1.2723771E0,1.1539886E0,7.026497E0,2.279441E1,5.883424E1],"tree_param":{"num_deleted":"0","num_feature":"16","num_nodes":"97","size_leaf_vector":"1"}},{"base_weights":[-1.3284542E-3,-6.8396535E-3,3.8291153E-1,8.6966314E-4,-3.4336013E-1,2.916193E-1,5.5602556E-3,-6.0518314E-3,5.0091475E-1,1.2196131E-1,-5.353686E-1,1.1236996E-1,-3.009838E-1,4.798087E-3,-3.1637502E-1,-6.844539E-2,8.2736474E-1,9.588269E-2,-7.054661E-1,-1.2359076E-1,-1.4906334E-2,-2.0822482E-3,6.015294E-1,-5.364046E-1,3.390666E-1,3.0659804E-1,1.072318E-1,-9.2639077E-1,7.3482215E-2,-7.3998205E-2,3.1844396E-3,3.0540767E-1,-2.8691059E-2,2.9415E-2,-2.65523E-1,2.7294058E-1,-1.1456277E-1,-2.4357906E-2,-3.3218563E-1],"categories":[],"categories_nodes":[],"categories_segments":[],"categories_sizes":[],"default_left":[0,0,0,0,0,0,0,0,0,0,0,0,0,0,0,0,0,0,0,0,0,0,0,0,0,0,0,0,0,0,0,0,0,0,0,0,0,0,0],"id":20,"left_children":[1,3,5,7,9,-1,11,13,15,-1,17,-1,19,21,23,-1,25,-1,27,-1,-1,29,31,33,35,-1,-1,37,-1,-1,-1,-1,-1,-1,-1,-1,-1,-1,-1],"loss_changes":[9.1327554E-1,1.1027354E0,1.3503771E0,1.4442835E0,1.5883133E0,0E0,6.4700687E-1,1.3877788E0,1.5447212E0,0E0,1.3904312E0,0E0,6.69491E-2,1.6386036E0,2.189919E0,0E0,1.438427E-2,0E0,1.6952245E0,0E0,0E0,1.2300342E0,1.4182974E0,2.478501E0,2.0394387E0,0E0,0E0,8.0958605E-1,0E0,0E0,0E0,0E0,0E0,0E0,0E0,0E0,0E0,0E0,0E0],"parents":[2147483647,0,0,1,1,2,2,3,3,4,4,6,6,7,7,8,8,10,10,12,12,13,13,14,14,16,16,18,18,21,21,22,22,23,23,24,24,27,27],"right_children":[2,4,6,8,10,-1,12,14,16,-1,18,-1,20,22,24,-1,26,-1,28,-1,-1,30,32,34,36,-1,-1,38,-1,-1,-1,-1,-1,-1,-1,-1,-1,-1,-1],"split_conditions":[7.854681E1,7.413647E1,1.4668251E-3,7.294518E1,1.9964E6,2.916193E-1,3.51738E1,6.975546E1,2.997247E6,1.2196131E-1,3.261664E-3,1.1236996E-1,5.813713E1,6.932018E1,1.2926084E0,-6.844539E-2,2.815425E6,9.588269E-2,7.739245E6,-1.2359076E-1,-1.4906334E-2,1.2726473E3,1.5295951E-2,7.7920866E-1,1.8408496E-2,3.0659804E-1,1.072318E-1,2.17442E6,7.3482215E-2,-7.3998205E-2,3.1844396E-3,3.0540767E-1,-2.8691059E-2,2.9415E-2,-2.65523E-1,2.7294058E-1,-1.1456277E-1,-2.4357906E-2,-3.3218563E-1],"split_indices":[11,11,5,11,4,0,10,11,14,0,6,0,13,11,15,0,4,0,4,0,0,7,6,15,5,0,0,14,0,0,0,0,0,0,0,0,0,0,0],"split_type":[0,0,0,0,0,0,0,0,0,0,0,0,0,0,0,0,0,0,0,0,0,0,0,0,0,0,0,0,0,0,0,0,0,0,0,0,0,0,0],"sum_hessian":[4.2903714E2,4.2393875E2,5.098404E0,4.1541934E2,8.519388E0,1.3752413E0,3.7231627E0,4.1072214E2,4.697212E0,1.5089247E0,7.0104637E0,1.5887653E0,2.1343975E0,3.9779834E2,1.2923799E1,1.5458822E0,3.15133E0,1.0174383E0,5.9930253E0,1.0370181E0,1.0973794E0,3.9424915E2,3.549197E0,9.811667E0,3.112131E0,1.3976617E0,1.7536683E0,4.883185E0,1.1098406E0,1.8547575E1,3.7570157E2,1.9337288E0,1.615468E0,3.7346926E0,6.0769753E0,1.5908058E0,1.5213255E0,1.1163025E0,3.7668822E0],"tree_param":{"num_deleted":"0","num_feature":"16","num_nodes":"39","size_leaf_vector":"1"}},{"base_weights":[5.183035E-4,2.852203E-2,-6.829329E-2,4.92806E-2,-2.7709383E-1,-6.1407673E-1,3.7583953E-3,2.6874375E-2,4.825238E-1,5.5308264E-1,-4.7016257E-1,-7.992755E-1,2.5372362E-1,-1.9986553E-2,2.2604734E-1,1.6047964E-2,7.950455E-1,1.8122284E-1,9.4679475E-1,-4.1684534E-2,2.9239243E-1,-7.1490216E-1,5.504896E-1,-1.369566E-1,-4.266216E-1,9.1529295E-2,-2.0783243E-1,4.751343E-2,-2.0511545E-1,2.6938186E-3,3.3355334E-1,2.8449196E-1,-6.1144873E-2,6.0188834E-2,3.4329262E-1,-1.0633196E0,-7.112629E-2,2.3549114E-1,2.8330223E-3,7.1004254E-1,-7.1006966E-1,-2.9931793E-1,2.0245248E-1,-4.769632E-1,1.5741567E-1,4.6838624E-3,1.5078217E-1,2.0556465E-1,-8.156715E-2,-1.3938488E-1,1.1486085E-1,-3.534075E-1,-1.2740512E-1,1.4058074E-1,-2.8358456E-1,-1.5068637E-3,3.0138293E-1,-3.4915733E-1,9.765605E-2,-1.3875522E-1,1.8834542E-1,1.6463017E-1,1.9340197E-2,9.493076E-2,-1.840094E-1,1.6958721E-1,-8.711262E-2],"categories":[],"categories_nodes":[],"categories_segments":[],"categories_sizes":[],"default_left":[0,0,0,0,0,0,0,0,0,0,0,0,0,0,0,0,0,0,0,0,0,0,0,0,0,0,0,0,0,0,0,0,0,0,0,0,0,0,0,0,0,0,0,0,0,0,0,0,0,0,0,0,0,0,0,0,0,0,0,0,0,0,0,0,0,0,0],"id":21,"left_children":[1,3,5,7,9,11,13,15,17,19,21,23,-1,25,-1,27,29,31,33,-1,-1,35,37,39,-1,41,43,45,47,-1,-1,-1,49,-1,-1,51,53,-1,-1,55,57,59,61,63,65,-1,-1,-1,-1,-1,-1,-1,-1,-1,-1,-1,-1,-1,-1,-1,-1,-1,-1,-1,-1,-1,-1],"loss_changes":[8.2788527E-1,1.9508129E0,4.8892446E0,2.770842E0,3.3970695E0,4.5957856E0,1.9870826E0,2.263732E0,1.7928138E0,1.3468095E0,4.49508E0,5.324538E0,0E0,2.2886457E0,0E0,1.8952684E0,9.32245E-1,1.8711972E0,5.500555E-1,0E0,0E0,2.992601E0,4.671502E-1,4.1890726E0,0E0,3.0381713E0,4.0725455E0,3.4475489E0,2.2038093E0,0E0,0E0,0E0,1.6738782E0,0E0,0E0,1.446333E-1,3.21491E0,0E0,0E0,7.5564706E-1,2.7414854E0,2.6486988E0,2.5495853E0,2.754808E0,3.4524832E0,0E0,0E0,0E0,0E0,0E0,0E0,0E0,0E0,0E0,0E0,0E0,0E0,0E0,0E0,0E0,0E0,0E0,0E0,0E0,0E0,0E0,0E0],"parents":[2147483647,0,0,1,1,2,2,3,3,4,4,5,5,6,6,7,7,8,8,9,9,10,10,11,11,13,13,15,15,16,16,17,17,18,18,21,21,22,22,23,23,25,25,26,26,27,27,28,28,32,32,35,35,36,36,39,39,40,40,41,41,42,42,43,43,44,44],"right_children":[2,4,6,8,10,12,14,16,18,20,22,24,-1,26,-1,28,30,32,34,-1,-1,36,38,40,-1,42,44,46,48,-1,-1,-1,50,-1,-1,52,54,-1,-1,56,58,60,62,64,66,-1,-1,-1,-1,-1,-1,-1,-1,-1,-1,-1,-1,-1,-1,-1,-1,-1,-1,-1,-1,-1,-1],"split_conditions":[1.1100047E0,3.2291673E-2,1.1549356E0,2.6784532E-2,1.6954545E3,2.1509219E-2,5.0684995E6,1.0978509E0,9.515622E-3,3.1420868E6,3.4311895E3,-2.7531243E-3,2.5372362E-1,4.2579918E1,2.2604734E-1,6.472176E1,-1.6598927E-2,4.7302704E1,2.87922E-2,-4.1684534E-2,2.9239243E-1,6.315147E1,7.555708E-3,-2.2772703E1,-4.266216E-1,2.0819965E6,2.9739688E3,6.294775E1,-1.4933499E-2,2.6938186E-3,3.3355334E-1,2.8449196E-1,2.3965761E1,6.0188834E-2,3.4329262E-1,3.073472E3,3.1853923E3,2.3549114E-1,2.8330223E-3,-1.5082223E-2,-9.565228E-1,7.545705E1,2.3533688E6,-1.9636728E-2,3.618449E3,4.6838624E-3,1.5078217E-1,2.0556465E-1,-8.156715E-2,-1.3938488E-1,1.1486085E-1,-3.534075E-1,-1.2740512E-1,1.4058074E-1,-2.8358456E-1,-1.5068637E-3,3.0138293E-1,-3.4915733E-1,9.765605E-2,-1.3875522E-1,1.8834542E-1,1.6463017E-1,1.9340197E-2,9.493076E-2,-1.840094E-1,1.6958721E-1,-8.711262E-2],"split_indices":[15,6,15,6,8,5,14,15,5,14,7,6,0,10,0,11,6,11,6,0,0,11,5,10,0,14,9,11,6,0,0,0,10,0,0,7,0,0,0,5,12,13,14,5,1,0,0,0,0,0,0,0,0,0,0,0,0,0,0,0,0,0,0,0,0,0,0],"split_type":[0,0,0,0,0,0,0,0,0,0,0,0,0,0,0,0,0,0,0,0,0,0,0,0,0,0,0,0,0,0,0,0,0,0,0,0,0,0,0,0,0,0,0,0,0,0,0,0,0,0,0,0,0,0,0,0,0,0,0,0,0,0,0,0,0,0,0],"sum_hessian":[4.276173E2,3.043456E2,1.2327169E2,2.8577356E2,1.8572054E1,1.3498598E1,1.09773094E2,2.7273065E2,1.3042897E1,3.152391E0,1.5419663E1,1.2380449E1,1.1181488E0,1.07346634E2,2.4264572E0,2.69947E2,2.783674E0,8.752845E0,4.2900524E0,1.4471473E0,1.7052436E0,1.2678968E1,2.7406943E0,6.5910444E0,5.789405E0,6.768046E1,3.9666176E1,2.3701187E2,3.29351E1,1.0950055E0,1.6886685E0,1.4022152E0,7.3506293E0,1.3198216E0,2.9702306E0,7.8037925E0,4.8751764E0,1.5975176E0,1.1431768E0,2.5635188E0,4.027526E0,1.4586227E1,5.3094234E1,2.266198E1,1.7004196E1,2.2245297E2,1.4558904E1,1.651648E0,3.1283451E1,3.8268292E0,3.5238004E0,5.899574E0,1.9042186E0,3.3009884E0,1.5741881E0,1.0347059E0,1.5288129E0,2.7142859E0,1.31324E0,1.2829111E1,1.7571156E0,1.4279241E1,3.8814995E1,3.1308782E0,1.9531101E1,8.761394E0,8.242803E0],"tree_param":{"num_deleted":"0","num_feature":"16","num_nodes":"67","size_leaf_vector":"1"}},{"base_weights":[3.7167985E-3,-3.2145895E-2,6.7482546E-2,-3.9588506E-3,-4.357267E-1,2.839879E-1,-5.6765787E-2,2.993894E-1,-2.801623E-2,-7.920226E-1,8.883271E-2,9.659994E-2,6.411865E-1,-8.18778E-1,-2.241499E-2,7.031747E-3,8.005613E-1,-5.8058095E-1,-1.1740758E-2,6.803556E-2,-1.0430882E0,-3.9444658E-1,7.6477593E-1,-1.3406958E-1,5.3982186E-1,9.744364E-1,2.5778818E-1,-3.2547277E-1,-2.6910713E-2,2.320364E-1,-5.800178E-2,1.6152082E-1,-1.852817E-1,3.3107576E-1,-9.635235E-3,-7.912659E-1,6.607655E-2,-3.418063E-1,1.3827753E-2,1.4125188E-1,-1.0726049E-1,-1.2720544E0,-4.5539543E-2,8.931532E-2,-2.3660217E-1,2.800547E-1,5.2732445E-2,2.206657E-1,-5.80336E-1,8.118776E-1,-6.0436916E-1,1.228247E0,3.377732E-3,-2.703506E-1,7.2301286E-1,-7.4062765E-1,-8.019716E-3,2.893341E-1,-1.0235736E-1,1.5814474E-2,-3.307321E-1,1.8337877E-1,-1.6945171E-1,1.3645656E-1,-4.858629E-3,-4.2996782E-1,-6.960938E-2,-8.961134E-2,1.500896E-1,4.382681E-2,-2.689143E-1,1.3335391E-2,3.3325624E-1,-2.6419756E-1,-6.0492433E-3,3.0788703E-2,4.217849E-1,1.6020581E-1,-1.6182864E-1,-2.9359224E-1,6.3339405E-2,-6.1765682E-2,2.9515922E-1,3.046001E-2,-2.8944525E-1,1.7890355E-1,-1.5935201E-2],"categories":[],"categories_nodes":[],"categories_segments":[],"categories_sizes":[],"default_left":[0,0,0,0,0,0,0,0,0,0,0,0,0,0,0,0,0,0,0,0,0,0,0,0,0,0,0,0,0,0,0,0,0,0,0,0,0,0,0,0,0,0,0,0,0,0,0,0,0,0,0,0,0,0,0,0,0,0,0,0,0,0,0,0,0,0,0,0,0,0,0,0,0,0,0,0,0,0,0,0,0,0,0,0,0,0,0],"id":22,"left_children":[1,3,5,7,9,11,13,15,17,19,21,23,25,27,29,31,33,35,37,39,41,43,45,47,49,51,53,-1,-1,-1,55,57,-1,-1,-1,59,-1,61,63,-1,-1,65,-1,-1,-1,-1,-1,67,69,71,73,75,77,79,81,83,85,-1,-1,-1,-1,-1,-1,-1,-1,-1,-1,-1,-1,-1,-1,-1,-1,-1,-1,-1,-1,-1,-1,-1,-1,-1,-1,-1,-1,-1,-1],"loss_changes":[9.727193E-1,3.0960743E0,4.134465E0,1.8733144E0,3.3912432E0,3.685711E0,2.5496485E0,2.7581918E0,2.1307423E0,2.377573E0,2.9431994E0,3.94733E0,2.1876535E0,7.1831036E-1,2.7327354E0,1.3467411E0,1.786747E0,1.3182161E0,1.9618372E0,7.4302655E-1,1.5067825E0,1.7014346E0,2.0478249E-1,4.201127E0,4.5910277E0,2.4240856E0,2.7104745E0,0E0,0E0,0E0,3.1251984E0,4.8306975E0,0E0,0E0,0E0,1.5250108E0,0E0,3.8976207E0,2.8699887E0,0E0,0E0,7.5559807E-1,0E0,0E0,0E0,0E0,0E0,2.3365135E0,2.810176E0,2.4902692E0,4.8319805E-1,1.4174995E0,1.1649288E0,2.0896735E0,1.5871577E0,1.278007E0,2.3898377E0,0E0,0E0,0E0,0E0,0E0,0E0,0E0,0E0,0E0,0E0,0E0,0E0,0E0,0E0,0E0,0E0,0E0,0E0,0E0,0E0,0E0,0E0,0E0,0E0,0E0,0E0,0E0,0E0,0E0,0E0],"parents":[2147483647,0,0,1,1,2,2,3,3,4,4,5,5,6,6,7,7,8,8,9,9,10,10,11,11,12,12,13,13,14,14,15,15,16,16,17,17,18,18,19,19,20,20,21,21,22,22,23,23,24,24,25,25,26,26,30,30,31,31,35,35,37,37,38,38,41,41,47,47,48,48,49,49,50,50,51,51,52,52,53,53,54,54,55,55,56,56],"right_children":[2,4,6,8,10,12,14,16,18,20,22,24,26,28,30,32,34,36,38,40,42,44,46,48,50,52,54,-1,-1,-1,56,58,-1,-1,-1,60,-1,62,64,-1,-1,66,-1,-1,-1,-1,-1,68,70,72,74,76,78,80,82,84,86,-1,-1,-1,-1,-1,-1,-1,-1,-1,-1,-1,-1,-1,-1,-1,-1,-1,-1,-1,-1,-1,-1,-1,-1,-1,-1,-1,-1,-1,-1],"split_conditions":[8.822559E-3,6.2410007E-3,1.7381892E-2,3.1283545E1,3.124164E3,2.526592E6,1.7985761E-2,1.5669131E-3,4.4659063E-1,1.7043988E3,5.7486985E-3,3.26001E3,1.0776474E0,5.6960114E1,-1.1601398E-2,3.034082E6,7.728154E-3,7.568997E1,3.624097E1,5.2385063E1,9.570054E0,1.535492E6,3.492597E3,4.579036E1,1.1163111E-2,4.0853458E6,1.2587413E-2,-3.2547277E-1,-2.6910713E-2,2.320364E-1,-5.0229523E-3,-8.025062E-3,-1.852817E-1,3.3107576E-1,-9.635235E-3,-1.2469943E-2,6.607655E-2,5.8298993E-1,3.9594223E1,1.4125188E-1,-1.0726049E-1,1.516432E-2,-4.5539543E-2,8.931532E-2,-2.3660217E-1,2.800547E-1,5.2732445E-2,1.5843938E3,1.35176E6,2.205784E6,1.312377E-1,1.590853E3,1.8121019E3,5.3652805E1,1.1755568E0,1.690133E6,4.498295E1,2.893341E-1,-1.0235736E-1,1.5814474E-2,-3.307321E-1,1.8337877E-1,-1.6945171E-1,1.3645656E-1,-4.858629E-3,-4.2996782E-1,-6.960938E-2,-8.961134E-2,1.500896E-1,4.382681E-2,-2.689143E-1,1.3335391E-2,3.3325624E-1,-2.6419756E-1,-6.0492433E-3,3.0788703E-2,4.217849E-1,1.6020581E-1,-1.6182864E-1,-2.9359224E-1,6.3339405E-2,-6.1765682E-2,2.9515922E-1,3.046001E-2,-2.8944525E-1,1.7890355E-1,-1.5935201E-2],"split_indices":[6,6,6,13,0,4,6,5,15,0,5,3,15,11,5,4,5,13,13,11,12,4,1,13,5,14,6,0,0,0,5,6,0,0,0,6,0,15,13,0,0,5,0,0,0,0,0,9,4,14,12,0,9,11,15,4,11,0,0,0,0,0,0,0,0,0,0,0,0,0,0,0,0,0,0,0,0,0,0,0,0,0,0,0,0,0,0],"split_type":[0,0,0,0,0,0,0,0,0,0,0,0,0,0,0,0,0,0,0,0,0,0,0,0,0,0,0,0,0,0,0,0,0,0,0,0,0,0,0,0,0,0,0,0,0,0,0,0,0,0,0,0,0,0,0,0,0,0,0,0,0,0,0,0,0,0,0,0,0,0,0,0,0,0,0,0,0,0,0,0,0,0,0,0,0,0,0],"sum_hessian":[4.2341193E2,2.7131607E2,1.5209584E2,2.5454767E2,1.6768406E1,5.4989616E1,9.7106224E1,1.7862911E1,2.3668475E2,9.6821375E0,7.0862684E0,3.690141E1,1.8088207E1,3.203626E0,9.39026E1,1.1922169E1,5.9407434E0,5.7799196E0,2.3090483E2,2.352467E0,7.3296704E0,4.374839E0,2.7114296E0,2.4729006E1,1.2172402E1,8.852251E0,9.235956E0,1.9893874E0,1.2142385E0,3.1316423E0,9.077096E1,1.0152586E1,1.769582E0,4.1171174E0,1.8236259E0,4.585509E0,1.1944108E0,1.5711813E1,2.1519302E2,1.1539123E0,1.1985548E0,5.4916873E0,1.8379831E0,1.6763663E0,2.6984725E0,1.6529671E0,1.0584626E0,1.4059052E1,1.0669952E1,1.0068772E1,2.1036296E0,6.807965E0,2.0442867E0,4.5216775E0,4.714279E0,5.2501125E0,8.552084E1,3.5554202E0,6.597166E0,1.4589839E0,3.1265247E0,2.649447E0,1.3062366E1,1.2813799E1,2.0237923E2,4.427491E0,1.0641961E0,4.896481E0,9.162572E0,3.3978338E0,7.2721186E0,3.1449232E0,6.923849E0,1.0836765E0,1.0199531E0,1.143329E0,5.6646357E0,1.0419128E0,1.0023739E0,1.4119906E0,3.1096866E0,1.0797994E0,3.6344798E0,1.2188091E0,4.0313034E0,5.089654E0,8.043119E1],"tree_param":{"num_deleted":"0","num_feature":"16","num_nodes":"87","size_leaf_vector":"1"}},{"base_weights":[3.1144943E-3,1.2447395E-1,-1.6107362E-2,3.1402335E-2,5.3559244E-1,-2.5338402E-1,2.346199E-3,4.9722245E-1,-6.379268E-2,9.403503E-1,1.4363182E-1,-1.6121924E-2,-6.324165E-1,5.554993E-1,-8.10386E-3,-7.639933E-2,7.7718747E-1,1.6060668E-1,-5.434999E-1,3.5554922E-1,8.016058E-2,-5.097874E-1,6.1285156E-1,6.564278E-1,-3.2897142E-1,-3.0352286E-1,-2.0445131E-1,-4.029106E-1,3.3394468E-1,-2.229571E-2,3.5430467E-1,2.9686508E-1,-4.912381E-3,-4.5166308E-1,2.4498436E-1,1.4043828E-2,-9.271139E-1,-4.949646E-3,-2.295665E-1,-1.8943936E-2,2.5757226E-1,8.777185E-1,-1.1896607E-2,2.605722E-2,-7.668877E-1,-6.9784695E-1,1.840457E-1,-2.6552053E-2,-1.5585983E-1,-9.8544195E-2,4.369081E-2,-1.2179391E-1,5.3553313E-1,9.14938E-2,-2.649253E-1,1.4316356E-1,-5.17223E-2,-2.0548096E-1,1.7474456E-1,2.1312172E-4,-3.433043E-1,7.441218E-2,3.0525002E-1,-2.128674E-1,8.711573E-2,-2.9284143E-1,4.6371496E-3,3.2600913E-2,-2.9694661E-1,3.3441876E-5,-9.269937E-2,-7.750059E-2,2.8750615E-2,2.4735446E-1,-5.433157E-2],"categories":[],"categories_nodes":[],"categories_segments":[],"categories_sizes":[],"default_left":[0,0,0,0,0,0,0,0,0,0,0,0,0,0,0,0,0,0,0,0,0,0,0,0,0,0,0,0,0,0,0,0,0,0,0,0,0,0,0,0,0,0,0,0,0,0,0,0,0,0,0,0,0,0,0,0,0,0,0,0,0,0,0,0,0,0,0,0,0,0,0,0,0,0,0],"id":23,"left_children":[1,3,5,7,9,11,13,15,17,19,21,23,25,27,29,-1,31,33,35,-1,-1,37,39,41,43,-1,45,47,-1,49,51,-1,-1,53,55,57,59,-1,-1,-1,-1,61,-1,63,65,67,-1,-1,-1,69,71,-1,73,-1,-1,-1,-1,-1,-1,-1,-1,-1,-1,-1,-1,-1,-1,-1,-1,-1,-1,-1,-1,-1,-1],"loss_changes":[9.797449E-1,2.1804023E0,1.5887649E0,2.1551466E0,1.536761E0,2.3444035E0,1.9555845E0,1.9322708E0,4.4627223E0,5.0796556E-1,2.3156846E0,3.819988E0,1.425242E0,3.80098E0,1.716778E0,0E0,1.0695486E0,1.5811718E0,2.832444E0,0E0,0E0,4.0026087E-1,7.613461E-1,9.239094E-1,1.9411451E0,0E0,2.840324E0,6.553921E-2,0E0,1.6177495E0,1.9507532E0,0E0,0E0,1.5095177E0,2.5699887E0,2.92521E0,1.5777917E0,0E0,0E0,0E0,0E0,1.3691163E-1,0E0,1.7210429E0,9.261887E-1,1.0956707E0,0E0,0E0,0E0,3.0952477E0,2.7430267E0,0E0,2.3424058E0,0E0,0E0,0E0,0E0,0E0,0E0,0E0,0E0,0E0,0E0,0E0,0E0,0E0,0E0,0E0,0E0,0E0,0E0,0E0,0E0,0E0,0E0],"parents":[2147483647,0,0,1,1,2,2,3,3,4,4,5,5,6,6,7,7,8,8,9,9,10,10,11,11,12,12,13,13,14,14,16,16,17,17,18,18,21,21,22,22,23,23,24,24,26,26,27,27,29,29,30,30,33,33,34,34,35,35,36,36,41,41,43,43,44,44,45,45,49,49,50,50,52,52],"right_children":[2,4,6,8,10,12,14,16,18,20,22,24,26,28,30,-1,32,34,36,-1,-1,38,40,42,44,-1,46,48,-1,50,52,-1,-1,54,56,58,60,-1,-1,-1,-1,62,-1,64,66,68,-1,-1,-1,70,72,-1,74,-1,-1,-1,-1,-1,-1,-1,-1,-1,-1,-1,-1,-1,-1,-1,-1,-1,-1,-1,-1,-1,-1],"split_conditions":[1.6560847E3,1.5843938E3,1.7501411E3,-1.0490156E-2,3.6900911E0,1.6986838E3,1.7707079E3,2.399587E6,3.1283545E1,1.1302484E0,1.6348733E3,1.6954545E3,1.7070386E3,1.7004746E3,2.5594514E-2,-7.639933E-2,6.3485477E1,1.8958906E1,1.4436655E3,3.5554922E-1,8.016058E-2,1.6683992E3,2.263446E6,5.654909E1,1.6131633E3,-3.0352286E-1,-7.683161E-3,4.4333687E-4,3.3394468E-1,-1.0511136E0,2.893762E6,2.9686508E-1,-4.912381E-3,-9.5994035E-3,3.568006E6,1.2726473E3,-7.184359E0,-4.949646E-3,-2.295665E-1,-1.8943936E-2,2.5757226E-1,-3.6202753E0,-1.1896607E-2,-2.4254992E1,1.7719083E3,1.7062122E3,1.840457E-1,-2.6552053E-2,-1.5585983E-1,-7.184359E0,1.8401924E3,-1.2179391E-1,5.951745E6,9.14938E-2,-2.649253E-1,1.4316356E-1,-5.17223E-2,-2.0548096E-1,1.7474456E-1,2.1312172E-4,-3.433043E-1,7.441218E-2,3.0525002E-1,-2.128674E-1,8.711573E-2,-2.9284143E-1,4.6371496E-3,3.2600913E-2,-2.9694661E-1,3.3441876E-5,-9.269937E-2,-7.750059E-2,2.8750615E-2,2.4735446E-1,-5.433157E-2],"split_indices":[8,9,0,5,12,3,0,14,13,15,8,8,7,8,5,0,11,13,2,0,0,0,4,11,0,0,5,5,0,12,4,0,0,6,14,7,12,0,0,0,0,12,0,12,7,8,0,0,0,12,9,0,4,0,0,0,0,0,0,0,0,0,0,0,0,0,0,0,0,0,0,0,0,0,0],"split_type":[0,0,0,0,0,0,0,0,0,0,0,0,0,0,0,0,0,0,0,0,0,0,0,0,0,0,0,0,0,0,0,0,0,0,0,0,0,0,0,0,0,0,0,0,0,0,0,0,0,0,0,0,0,0,0,0,0,0,0,0,0,0,0,0,0,0,0,0,0,0,0,0,0,0,0],"sum_hessian":[4.1813547E2,5.6423485E1,3.6171198E2,4.6885605E1,9.537879E0,2.5182568E1,3.365294E2,7.2391067E0,3.96465E1,4.004028E0,5.533851E0,1.6128918E1,9.053649E0,5.272686E0,3.312567E2,1.9886547E0,5.250452E0,2.7464325E1,1.2182174E1,2.3784091E0,1.6256189E0,2.2768002E0,3.257051E0,4.772021E0,1.1356897E1,4.0764313E0,4.977217E0,2.0415096E0,3.2311764E0,3.1967673E2,1.1580002E1,3.9471853E0,1.3032668E0,2.7992506E0,2.4665073E1,5.358106E0,6.824068E0,1.139949E0,1.1368512E0,1.0663831E0,2.1906679E0,3.42291E0,1.3491108E0,6.7914295E0,4.565468E0,3.1960921E0,1.7811251E0,1.0282776E0,1.0132321E0,1.4807745E2,1.7159926E2,1.9902809E0,9.589721E0,1.1229179E0,1.6763327E0,1.5755662E1,8.909412E0,2.3111963E0,3.0469096E0,1.4837167E0,5.340351E0,1.1258318E0,2.2970781E0,1.3500152E0,5.4414144E0,3.406609E0,1.1588589E0,1.0163796E0,2.1797125E0,1.01497375E2,4.6580074E1,2.4682388E1,1.4691687E2,6.726681E0,2.86304E0],"tree_param":{"num_deleted":"0","num_feature":"16","num_nodes":"75","size_leaf_vector":"1"}},{"base_weights":[2.0522028E-3,2.9910795E-2,-7.690045E-2,5.9439056E-3,2.2285034E-1,-6.1566484E-1,-2.0542482E-3,2.9991845E-2,-8.054333E-1,3.0164158E-1,-2.3466076E-1,-8.713835E-1,3.751864E-1,7.9119647E-1,-4.0088274E-2,1.9596888E-2,2.935983E-1,-1.0789816E0,4.7260717E-2,7.426551E-1,1.3167395E-1,-4.5410168E-1,-1.1335329E0,-6.1860327E-2,2.5468418E-1,3.6346683E-1,-8.459161E-2,-7.050263E-1,-1.03880465E-2,2.7524268E-2,-2.5959703E-1,-6.5244414E-2,-3.708434E-1,-2.1107728E-2,9.494676E-1,8.8107014E-1,-4.1523285E-2,-2.5049558E-1,1.2690106E-1,-3.8337818E-1,-1.1674669E-1,-3.268137E-1,4.811575E-2,2.4910209E-1,-4.527121E-2,-1.8771809E-2,2.5002763E-2,3.148221E-1,7.603662E-2,3.9043806E-2,3.3159068E-1,-8.512301E-2,9.777395E-2,-7.347545E-2,1.3554834E-1,-4.5585074E-3,-2.27983E-1],"categories":[],"categories_nodes":[],"categories_segments":[],"categories_sizes":[],"default_left":[0,0,0,0,0,0,0,0,0,0,0,0,0,0,0,0,0,0,0,0,0,0,0,0,0,0,0,0,0,0,0,0,0,0,0,0,0,0,0,0,0,0,0,0,0,0,0,0,0,0,0,0,0,0,0,0,0],"id":24,"left_children":[1,3,5,7,9,11,13,15,17,19,-1,21,23,25,27,29,-1,31,-1,33,35,37,39,-1,-1,-1,-1,41,43,45,-1,-1,-1,-1,47,49,51,-1,53,-1,-1,-1,-1,-1,55,-1,-1,-1,-1,-1,-1,-1,-1,-1,-1,-1,-1],"loss_changes":[9.1490155E-1,1.4202061E0,4.3738394E0,5.379674E0,2.9236326E0,3.6793451E0,2.9361334E0,2.6191041E0,2.260652E0,2.3154407E0,0E0,6.686058E-1,1.1151714E0,2.3503318E0,1.825641E0,1.8874328E0,0E0,5.852814E-1,0E0,1.5364585E0,3.2105277E0,1.3988072E0,1.4495182E-1,0E0,0E0,0E0,0E0,1.489726E0,2.6729534E0,1.3342347E0,0E0,0E0,0E0,0E0,2.2351265E-1,6.367128E-1,1.9452988E0,0E0,4.9502343E-1,0E0,0E0,0E0,0E0,0E0,1.8634036E0,0E0,0E0,0E0,0E0,0E0,0E0,0E0,0E0,0E0,0E0,0E0,0E0],"parents":[2147483647,0,0,1,1,2,2,3,3,4,4,5,5,6,6,7,7,8,8,9,9,11,11,12,12,13,13,14,14,15,15,17,17,19,19,20,20,21,21,22,22,27,27,28,28,29,29,34,34,35,35,36,36,38,38,44,44],"right_children":[2,4,6,8,10,12,14,16,18,20,-1,22,24,26,28,30,-1,32,-1,34,36,38,40,-1,-1,-1,-1,42,44,46,-1,-1,-1,-1,48,50,52,-1,54,-1,-1,-1,-1,-1,56,-1,-1,-1,-1,-1,-1,-1,-1,-1,-1,-1,-1],"split_conditions":[3.314788E3,3.1887886E3,5.624062E1,3.1628318E3,7.150149E1,3.13539E6,5.974951E1,3.541732E3,7.256336E1,1.9162956E6,-2.3466076E-1,2.060297E6,-1.5549107E-2,3.42583E3,2.9904004E3,3.4995725E3,2.935983E-1,2.919364E3,4.7260717E-2,4.281192E1,-1.0941112E-2,1.679974E6,3.4254402E3,-6.1860327E-2,2.5468418E-1,3.6346683E-1,-8.459161E-2,3.605017E6,3.16458E3,2.4494072E6,-2.5959703E-1,-6.5244414E-2,-3.708434E-1,-2.1107728E-2,6.767013E1,5.4939613E1,5.3439224E-3,-2.5049558E-1,3.2269255E3,-3.8337818E-1,-1.1674669E-1,-3.268137E-1,4.811575E-2,2.4910209E-1,3.386958E6,-1.8771809E-2,2.5002763E-2,3.148221E-1,7.603662E-2,3.9043806E-2,3.3159068E-1,-8.512301E-2,9.777395E-2,-7.347545E-2,1.3554834E-1,-4.5585074E-3,-2.27983E-1],"split_indices":[8,8,13,8,11,4,13,9,10,14,0,4,6,0,9,9,0,2,0,11,5,4,7,0,0,0,0,4,2,14,0,0,0,0,11,13,5,0,0,0,0,0,0,0,14,0,0,0,0,0,0,0,0,0,0,0,0],"split_type":[0,0,0,0,0,0,0,0,0,0,0,0,0,0,0,0,0,0,0,0,0,0,0,0,0,0,0,0,0,0,0,0,0,0,0,0,0,0,0,0,0,0,0,0,0,0,0,0,0,0,0,0,0,0,0,0,0],"sum_hessian":[4.1391122E2,3.0641373E2,1.07497505E2,2.7347372E2,3.2940014E1,1.2230822E1,9.5266685E1,2.6653702E2,6.9367003E0,3.1194399E1,1.7456137E0,9.817655E0,2.4131665E0,3.4527435E0,9.181394E1,2.646577E2,1.879306E0,5.308308E0,1.6283925E0,7.740583E0,2.3453817E1,4.8422027E0,4.975452E0,1.3370854E0,1.0760812E0,2.3882966E0,1.064447E0,2.9534347E0,8.8860504E1,2.6326816E2,1.3895389E0,1.1867656E0,4.1215425E0,1.7035275E0,6.0370555E0,3.6356897E0,1.9818127E1,2.660762E0,2.1814408E0,3.5667925E0,1.4086593E0,1.8659283E0,1.0875063E0,2.631622E0,8.622888E1,1.00664055E2,1.6260411E2,4.835055E0,1.2020009E0,1.1994145E0,2.4362752E0,1.2081549E1,7.736578E0,1.1321442E0,1.0492966E0,8.372661E1,2.5022802E0],"tree_param":{"num_deleted":"0","num_feature":"16","num_nodes":"57","size_leaf_vector":"1"}},{"base_weights":[5.4221565E-4,2.8728172E-2,-6.420526E-2,6.179566E-1,1.6235206E-2,-7.707508E-1,-2.977146E-2,2.968283E-1,-1.1607425E-2,-4.3303E-1,3.542902E-2,-1.8812688E-2,-2.847591E-1,1.11902684E-1,-1.539455E-1,1.6089717E-1,-5.8258784E-1,-4.1906135E-3,3.04099E-1,2.2885357E-1,-5.2544445E-1,-2.9821187E-1,1.3474649E-1,-8.937098E-1,-1.5301648E-1,6.0086255E-3,-2.6610437E-1,2.193952E-2,6.338205E-1,-1.9342801E-1,3.9213046E-1,-9.741554E-1,2.6058963E-1,5.156062E-1,-3.5320136E-1,-3.2395676E-1,3.242585E-1,-1.3307181E-2,-3.3400655E-1,-2.0150097E-1,6.809502E-2,-3.2565882E-3,1.4881267E-1,-1.568029E-1,1.0103985E-1,3.1540015E-1,-6.7651704E-2,-9.935941E-2,1.8762763E-1,1.5370966E-1,-1.0261538E-1,-4.1109007E-2,-3.389974E-1,2.659175E-1,-9.996561E-2,2.3050302E-1,7.040817E-3,-2.6917818E-1,-4.749219E-2,3.0906813E-2,-2.1956258E-1,1.8780683E-1,-6.1617937E-2],"categories":[],"categories_nodes":[],"categories_segments":[],"categories_sizes":[],"default_left":[0,0,0,0,0,0,0,0,0,0,0,0,0,0,0,0,0,0,0,0,0,0,0,0,0,0,0,0,0,0,0,0,0,0,0,0,0,0,0,0,0,0,0,0,0,0,0,0,0,0,0,0,0,0,0,0,0,0,0,0,0,0,0],"id":25,"left_children":[1,3,5,7,9,11,13,-1,-1,15,17,-1,-1,19,21,-1,23,25,27,29,31,33,35,37,39,41,-1,43,45,47,49,51,53,55,57,59,61,-1,-1,-1,-1,-1,-1,-1,-1,-1,-1,-1,-1,-1,-1,-1,-1,-1,-1,-1,-1,-1,-1,-1,-1,-1,-1],"loss_changes":[7.526799E-1,2.1050858E0,3.0203876E0,1.4868691E0,2.4504602E0,6.698625E-1,2.1338863E0,0E0,0E0,2.0008223E0,2.893929E0,0E0,0E0,4.3523726E0,2.7281742E0,0E0,1.2757363E0,2.1466134E0,3.2364388E0,3.4316745E0,3.4657624E0,2.1218965E0,2.0343788E0,1.0555487E0,1.2651889E0,1.956393E0,0E0,3.5819755E0,6.0044284E0,1.8137317E0,3.3028255E0,6.2895966E-1,1.8183229E0,3.7377077E-1,4.2260976E0,1.2926776E0,2.7186646E0,0E0,0E0,0E0,0E0,0E0,0E0,0E0,0E0,0E0,0E0,0E0,0E0,0E0,0E0,0E0,0E0,0E0,0E0,0E0,0E0,0E0,0E0,0E0,0E0,0E0,0E0],"parents":[2147483647,0,0,1,1,2,2,3,3,4,4,5,5,6,6,9,9,10,10,13,13,14,14,16,16,17,17,18,18,19,19,20,20,21,21,22,22,23,23,24,24,25,25,27,27,28,28,29,29,30,30,31,31,32,32,33,33,34,34,35,35,36,36],"right_children":[2,4,6,8,10,12,14,-1,-1,16,18,-1,-1,20,22,-1,24,26,28,30,32,34,36,38,40,42,-1,44,46,48,50,52,54,56,58,60,62,-1,-1,-1,-1,-1,-1,-1,-1,-1,-1,-1,-1,-1,-1,-1,-1,-1,-1,-1,-1,-1,-1,-1,-1,-1,-1],"split_conditions":[6.5072136E1,-2.3510324E1,6.562368E1,3.1703042E3,-1.8398169E1,1.587032E6,-3.3739936E-3,2.968283E-1,-1.1607425E-2,2.8418629E1,5.7446987E1,-1.8812688E-2,-2.847591E-1,5.3849876E1,5.802112E1,1.6089717E-1,3.1430052E1,1.2870992E2,7.2339457E-3,-3.143546E-2,9.570054E0,6.732213E1,7.6015624E-3,4.981986E1,-3.9066896E-3,1.0936155E2,-2.6610437E-1,-5.982366E-1,1.4957165E1,4.758158E1,3.965526E3,3.4254402E3,1.809339E6,5.1209602E1,7.1337715E1,2.1142391E-3,1.9978807E1,-1.3307181E-2,-3.3400655E-1,-2.0150097E-1,6.809502E-2,-3.2565882E-3,1.4881267E-1,-1.568029E-1,1.0103985E-1,3.1540015E-1,-6.7651704E-2,-9.935941E-2,1.8762763E-1,1.5370966E-1,-1.0261538E-1,-4.1109007E-2,-3.389974E-1,2.659175E-1,-9.996561E-2,2.3050302E-1,7.040817E-3,-2.6917818E-1,-4.749219E-2,3.0906813E-2,-2.1956258E-1,1.8780683E-1,-6.1617937E-2],"split_indices":[13,12,13,9,12,4,6,0,0,11,13,0,0,11,11,0,10,10,6,6,12,13,6,13,5,10,0,12,12,11,2,7,4,11,13,6,12,0,0,0,0,0,0,0,0,0,0,0,0,0,0,0,0,0,0,0,0,0,0,0,0,0,0],"split_type":[0,0,0,0,0,0,0,0,0,0,0,0,0,0,0,0,0,0,0,0,0,0,0,0,0,0,0,0,0,0,0,0,0,0,0,0,0,0,0,0,0,0,0,0,0,0,0,0,0,0,0,0,0,0,0,0,0,0,0,0,0,0,0],"sum_hessian":[4.1042355E2,2.86333E2,1.2409055E2,4.938639E0,2.8139435E2,4.772862E0,1.19317696E2,2.830575E0,2.1080644E0,1.0645957E1,2.707484E2,1.2327902E0,3.5400715E0,5.5777817E1,6.3539875E1,1.0773152E0,9.568642E0,2.3681125E2,3.3937157E1,4.7671246E1,8.106572E0,4.2345722E1,2.1194155E1,4.9227886E0,4.6458535E0,2.3508847E2,1.7227764E0,1.8862282E1,1.5074876E1,1.3241141E1,3.4430103E1,5.008257E0,3.0983152E0,2.150019E0,4.01957E1,5.9889092E0,1.5205245E1,1.2584405E0,3.664348E0,1.6399581E0,