{"learner":{"attributes":{},"feature_names":[],"feature_types":[],"gradient_booster":{"model":{"gbtree_model_param":{"num_parallel_tree":"1","num_trees":"200"},"iteration_indptr":[0,1,2,3,4,5,6,7,8,9,10,11,12,13,14,15,16,17,18,19,20,21,22,23,24,25,26,27,28,29,30,31,32,33,34,35,36,37,38,39,40,41,42,43,44,45,46,47,48,49,50,51,52,53,54,55,56,57,58,59,60,61,62,63,64,65,66,67,68,69,70,71,72,73,74,75,76,77,78,79,80,81,82,83,84,85,86,87,88,89,90,91,92,93,94,95,96,97,98,99,100,101,102,103,104,105,106,107,108,109,110,111,112,113,114,115,116,117,118,119,120,121,122,123,124,125,126,127,128,129,130,131,132,133,134,135,136,137,138,139,140,141,142,143,144,145,146,147,148,149,150,151,152,153,154,155,156,157,158,159,160,161,162,163,164,165,166,167,168,169,170,171,172,173,174,175,176,177,178,179,180,181,182,183,184,185,186,187,188,189,190,191,192,193,194,195,196,197,198,199,200],"tree_info":[0,0,0,0,0,0,0,0,0,0,0,0,0,0,0,0,0,0,0,0,0,0,0,0,0,0,0,0,0,0,0,0,0,0,0,0,0,0,0,0,0,0,0,0,0,0,0,0,0,0,0,0,0,0,0,0,0,0,0,0,0,0,0,0,0,0,0,0,0,0,0,0,0,0,0,0,0,0,0,0,0,0,0,0,0,0,0,0,0,0,0,0,0,0,0,0,0,0,0,0,0,0,0,0,0,0,0,0,0,0,0,0,0,0,0,0,0,0,0,0,0,0,0,0,0,0,0,0,0,0,0,0,0,0,0,0,0,0,0,0,0,0,0,0,0,0,0,0,0,0,0,0,0,0,0,0,0,0,0,0,0,0,0,0,0,0,0,0,0,0,0,0,0,0,0,0,0,0,0,0,0,0,0,0,0,0,0,0,0,0,0,0,0,0,0,0,0,0,0,0],"trees":[{"base_weights":[-3.35358E-8,2.4397371E-2,-3.0111906E-1,1.1606326E-1,-5.0811432E-2,-6.110105E-1,-9.426804E-2,5.1837146E-2,3.7529492E-1,-2.6178014E-2,-3.1233558E-1,-7.857305E-1,3.4986186E-1,-2.1659014E-1,4.7758228E-1,-3.5565145E-2,2.307467E-1,5.5570585E-1,-5.6622446E-2,-8.681752E-2,1.6257338E-1,3.7342054E-1,-4.052989E-1,-1.077822E0,-2.8406703E-1,-2.1174882E-1,8.621119E-1,2.619284E-1,-3.692466E-1,8.378318E-1,-3.976639E-1,-1.3768409E-1,2.1653652E-1,2.6728818E-1,-6.2171966E-1,7.071385E-1,-1.835734E-1,-1.0472261E0,9.52078E-2,1.784345E-2,-2.1032386E-1,4.2068267E-1,-8.564918E-3,-4.849035E-2,3.1118226E-1,-9.37653E-2,-6.5061307E-1,-1.2460766E0,-1.5126997E-1,2.4483053E-1,-5.6382996E-1,3.4742293E-1,4.3467965E-2,-2.525248E-1,3.575517E-1,-2.7646938E-1,-4.277117E-1,1.0469004E0,-7.6393776E-2,1.5261759E-1,-3.7065452E-1,-5.397037E-3,-1.1764146E-1,9.29063E-3,1.9002005E-1,9.610226E-2,-9.261178E-2,-3.5378793E-1,3.2379413E-1,1.3646175E-1,2.735538E-1,5.316989E-2,-4.4129804E-1,-3.7302366E-1,-7.6393776E-2,-8.172954E-2,1.9912226E-1,4.138102E-2,-6.049789E-2,-1.0766724E-1,1.2929083E-2,3.4559223E-1,1.019514E-1,-2.4706438E-1,3.2776993E-2,-2.0978975E-1,8.101915E-2,9.9889226E-2,-1.9113865E-1,-2.9249491E-2,-2.72034E-1,-8.028718E-2,-4.3209812E-1,2.2964995E-1,-2.4298821E-1,-2.684426E-1,9.260251E-2,1.8847673E-1,-1.6538604E-1,-4.9019378E-2,-3.471293E-1,7.329838E-2,4.1473374E-1],"categories":[],"categories_nodes":[],"categories_segments":[],"categories_sizes":[],"default_left":[0,0,0,0,0,0,0,0,0,0,0,0,0,0,0,0,0,0,0,0,0,0,0,0,0,0,0,0,0,0,0,0,0,0,0,0,0,0,0,0,0,0,0,0,0,0,0,0,0,0,0,0,0,0,0,0,0,0,0,0,0,0,0,0,0,0,0,0,0,0,0,0,0,0,0,0,0,0,0,0,0,0,0,0,0,0,0,0,0,0,0,0,0,0,0,0,0,0,0,0,0,0,0],"id":0,"left_children":[1,3,5,7,9,11,13,15,17,19,21,23,25,27,29,31,33,35,37,39,41,43,45,47,49,-1,51,53,55,57,59,61,63,65,67,69,71,73,75,77,79,81,83,85,-1,87,89,91,93,-1,95,-1,-1,97,-1,99,-1,101,-1,-1,-1,-1,-1,-1,-1,-1,-1,-1,-1,-1,-1,-1,-1,-1,-1,-1,-1,-1,-1,-1,-1,-1,-1,-1,-1,-1,-1,-1,-1,-1,-1,-1,-1,-1,-1,-1,-1,-1,-1,-1,-1,-1,-1],"loss_changes":[1.08710165E1,9.442813E0,7.051689E0,1.025706E1,4.8403406E0,7.697613E0,4.838601E0,7.7615743E0,9.568981E0,7.899327E0,4.275734E0,5.2208405E0,4.6613674E0,4.2205553E0,4.192688E0,8.627612E0,5.2394276E0,9.805481E0,5.66006E0,6.7520413E0,7.418327E0,2.3592997E0,4.3297024E0,3.4721127E0,5.1501784E0,0E0,9.988866E-1,7.112747E0,3.8414989E0,2.3206701E0,3.853983E0,7.2507353E0,7.4583597E0,4.8924704E0,7.9071736E0,3.3002586E0,7.45491E0,4.6030998E-1,7.072674E0,7.5014052E0,9.034444E0,3.566328E0,9.876082E0,1.4318866E0,0E0,6.351676E0,4.441946E0,3.365305E0,3.4864821E0,0E0,3.9552894E0,0E0,0E0,2.9757838E0,0E0,3.890096E0,0E0,1.7477636E0,0E0,0E0,0E0,0E0,0E0,0E0,0E0,0E0,0E0,0E0,0E0,0E0,0E0,0E0,0E0,0E0,0E0,0E0,0E0,0E0,0E0,0E0,0E0,0E0,0E0,0E0,0E0,0E0,0E0,0E0,0E0,0E0,0E0,0E0,0E0,0E0,0E0,0E0,0E0,0E0,0E0,0E0,0E0,0E0,0E0],"parents":[2147483647,0,0,1,1,2,2,3,3,4,4,5,5,6,6,7,7,8,8,9,9,10,10,11,11,12,12,13,13,14,14,15,15,16,16,17,17,18,18,19,19,20,20,21,21,22,22,23,23,24,24,26,26,27,27,28,28,29,29,30,30,31,31,32,32,33,33,34,34,35,35,36,36,37,37,38,38,39,39,40,40,41,41,42,42,43,43,45,45,46,46,47,47,48,48,50,50,53,53,55,55,57,57],"right_children":[2,4,6,8,10,12,14,16,18,20,22,24,26,28,30,32,34,36,38,40,42,44,46,48,50,-1,52,54,56,58,60,62,64,66,68,70,72,74,76,78,80,82,84,86,-1,88,90,92,94,-1,96,-1,-1,98,-1,100,-1,102,-1,-1,-1,-1,-1,-1,-1,-1,-1,-1,-1,-1,-1,-1,-1,-1,-1,-1,-1,-1,-1,-1,-1,-1,-1,-1,-1,-1,-1,-1,-1,-1,-1,-1,-1,-1,-1,-1,-1,-1,-1,-1,-1,-1,-1],"split_conditions":[3.2949111E3,4.7540135E0,1.960694E6,1.1564534E-2,7.217789E1,2.8246328E6,8.3839714E1,2.3977623E1,1.3435563E0,1.7111974E0,2.0745258E0,9.363938E0,-4.81342E0,-1.4014379E1,3.569445E6,-2.0580258E0,3.3012483E3,8.500543E0,-5.631272E0,-1.2567505E-3,2.211301E1,8.276085E2,3.5094276E1,8.074773E1,3.8368445E3,-2.1174882E-1,5.1644985E1,-7.2002155E-4,8.250214E1,4.0951472E3,3.8947487E1,6.0225693E-3,3.3217345E-3,1.589586E1,5.584185E1,9.039908E-1,5.191075E-2,1.6220349E3,2.8521894E-2,-2.0605433E0,9.573282E-1,5.932218E1,2.565275E1,7.271127E1,3.1118226E-1,1.8471594E7,7.4136375E1,-1.5128828E2,4.0540852E3,2.4483053E-1,6.442357E1,3.4742293E-1,4.3467965E-2,2.392472E6,3.575517E-1,1.7749174E0,-4.277117E-1,3.9563594E3,-7.6393776E-2,1.5261759E-1,-3.7065452E-1,-5.397037E-3,-1.1764146E-1,9.29063E-3,1.9002005E-1,9.610226E-2,-9.261178E-2,-3.5378793E-1,3.2379413E-1,1.3646175E-1,2.735538E-1,5.316989E-2,-4.4129804E-1,-3.7302366E-1,-7.6393776E-2,-8.172954E-2,1.9912226E-1,4.138102E-2,-6.049789E-2,-1.0766724E-1,1.2929083E-2,3.4559223E-1,1.019514E-1,-2.4706438E-1,3.2776993E-2,-2.0978975E-1,8.101915E-2,9.9889226E-2,-1.9113865E-1,-2.9249491E-2,-2.72034E-1,-8.028718E-2,-4.3209812E-1,2.2964995E-1,-2.4298821E-1,-2.684426E-1,9.260251E-2,1.8847673E-1,-1.6538604E-1,-4.9019378E-2,-3.471293E-1,7.329838E-2,4.1473374E-1],"split_indices":[9,10,4,5,11,14,13,13,15,12,12,10,12,12,4,10,7,12,12,6,13,3,10,13,0,0,11,5,13,8,10,6,5,12,11,15,6,1,5,12,15,11,13,11,0,14,11,10,3,0,11,0,0,4,0,15,0,3,0,0,0,0,0,0,0,0,0,0,0,0,0,0,0,0,0,0,0,0,0,0,0,0,0,0,0,0,0,0,0,0,0,0,0,0,0,0,0,0,0,0,0,0,0],"split_type":[0,0,0,0,0,0,0,0,0,0,0,0,0,0,0,0,0,0,0,0,0,0,0,0,0,0,0,0,0,0,0,0,0,0,0,0,0,0,0,0,0,0,0,0,0,0,0,0,0,0,0,0,0,0,0,0,0,0,0,0,0,0,0,0,0,0,0,0,0,0,0,0,0,0,0,0,0,0,0,0,0,0,0,0,0,0,0,0,0,0,0,0,0,0,0,0,0,0,0,0,0,0,0],"sum_hessian":[1.4777499E3,1.3678429E3,1.0990702E2,6.162287E2,7.5161414E2,4.3213444E1,6.669358E1,4.948314E2,1.213973E2,6.87918E2,6.3696114E1,3.6718937E1,6.494506E0,5.5453087E1,1.1240491E1,3.3296832E2,1.6186307E2,8.5427734E1,3.596957E1,5.210592E2,1.6685884E2,7.2438717E0,5.6452244E1,2.2480982E1,1.4237955E1,1.9983095E0,4.4961963E0,1.32388E1,4.2214287E1,7.993238E0,3.247253E0,2.3729926E2,9.566907E1,1.5586813E2,5.9949284E0,7.093999E1,1.4487743E1,3.996619E0,3.1972952E1,2.8251102E2,2.385482E2,6.5944214E1,1.0091463E2,4.995774E0,2.2480981E0,2.5478447E1,3.0973797E1,1.8734152E1,3.7468302E0,2.497887E0,1.1740068E1,2.7476757E0,1.7485209E0,8.992393E0,4.2464075E0,3.996619E1,2.2480981E0,6.7442946E0,1.2489434E0,1.7485209E0,1.4987321E0,1.6211285E2,7.518639E1,6.694337E1,2.8725698E1,1.4312892E2,1.27392235E1,4.745985E0,1.2489434E0,3.3221897E1,3.771809E1,1.1989857E1,2.497887E0,2.7476757E0,1.2489434E0,1.9733307E1,1.2239646E1,1.8284532E2,9.966569E1,1.50123E2,8.842519E1,5.2455626E0,6.069865E1,1.1989857E1,8.8924774E1,1.2489434E0,3.7468302E0,1.4487743E1,1.0990703E1,1.0241336E1,2.0732462E1,3.4970417E0,1.523711E1,1.4987321E0,2.2480981E0,8.492815E0,3.247253E0,1.9983095E0,6.9940834E0,3.6469147E1,3.4970417E0,2.497887E0,4.2464075E0],"tree_param":{"num_deleted":"0","num_feature":"16","num_nodes":"103","size_leaf_vector":"1"}},{"base_weights":[-4.314518E-4,7.4816513E-1,-6.94204E-3,4.6385986E-1,2.0654742E-1,-4.224944E-2,1.19421266E-1,7.898034E-1,-5.205543E-1,-8.277378E-2,7.054114E-2,3.8248235E-1,4.837268E-2,-8.685761E-2,3.5959858E-1,1.4328362E-1,-3.984631E-1,-9.403232E-2,5.6982344E-1,8.0335385E-1,3.8291898E-2,-2.683928E-1,5.411849E-1,-4.7429457E-1,1.0362646E-1,-8.198773E-2,-8.2990795E-1,-1.2980627E-1,1.0419786E0,-1.2871444E-1,1.0721575E0,4.965814E-1,-9.4877294E-4,2.6146847E-1,-5.028929E-1,7.4599636E-1,-3.0007353E-1,9.105973E-1,-7.1025074E-1,3.4344545E-1,1.1186595E-2,-1.959114E-2,-1.20992236E-1,7.497897E-3,-3.9313516E-1,2.5055075E-1,-1.9052275E-1,3.8878623E-1,-8.099043E-2,3.8417026E-1,-8.5210174E-2,3.7354815E-1,-1.5381526E-2,1.0737704E-2,-1.9199032E-1,-3.7770647E-1,-4.539367E-2,1.481367E-1,3.3842888E-1,-1.9435425E-1,3.62258E-1,3.5956058E-1,4.583246E-2,-2.4756461E-1,8.164615E-2,1.6934279E-1,-3.6904935E-2,6.417661E-2,-5.4233488E-2],"categories":[],"categories_nodes":[],"categories_segments":[],"categories_sizes":[],"default_left":[0,0,0,0,0,0,0,0,0,0,0,0,0,0,0,0,0,0,0,0,0,0,0,0,0,0,0,0,0,0,0,0,0,0,0,0,0,0,0,0,0,0,0,0,0,0,0,0,0,0,0,0,0,0,0,0,0,0,0,0,0,0,0,0,0,0,0,0,0],"id":1,"left_children":[1,3,5,-1,7,9,11,13,15,17,19,21,23,-1,-1,-1,-1,25,27,29,31,33,35,37,39,41,43,45,47,-1,49,51,53,-1,55,57,59,61,63,65,67,-1,-1,-1,-1,-1,-1,-1,-1,-1,-1,-1,-1,-1,-1,-1,-1,-1,-1,-1,-1,-1,-1,-1,-1,-1,-1,-1,-1],"loss_changes":[7.1844068E0,5.1741357E0,6.524771E0,0E0,4.1114473E0,5.229822E0,5.9510875E0,2.6589167E0,4.2512784E0,6.2346854E0,7.1213207E0,7.1461496E0,7.34473E0,0E0,0E0,0E0,0E0,7.269613E0,4.895075E0,4.6694355E0,5.232415E0,4.1686316E0,9.669449E0,8.597821E0,5.0792675E0,4.3462367E0,5.4647484E0,3.7947855E0,3.2533684E0,0E0,3.3929129E0,9.47497E0,6.3381157E0,0E0,3.0548334E0,3.7192326E0,6.783786E0,6.854296E-1,2.6360817E0,6.643121E0,6.5197787E0,0E0,0E0,0E0,0E0,0E0,0E0,0E0,0E0,0E0,0E0,0E0,0E0,0E0,0E0,0E0,0E0,0E0,0E0,0E0,0E0,0E0,0E0,0E0,0E0,0E0,0E0,0E0,0E0],"parents":[2147483647,0,0,1,1,2,2,4,4,5,5,6,6,7,7,8,8,9,9,10,10,11,11,12,12,17,17,18,18,19,19,20,20,21,21,22,22,23,23,24,24,25,25,26,26,27,27,28,28,30,30,31,31,32,32,34,34,35,35,36,36,37,37,38,38,39,39,40,40],"right_children":[2,4,6,-1,8,10,12,14,16,18,20,22,24,-1,-1,-1,-1,26,28,30,32,34,36,38,40,42,44,46,48,-1,50,52,54,-1,56,58,60,62,64,66,68,-1,-1,-1,-1,-1,-1,-1,-1,-1,-1,-1,-1,-1,-1,-1,-1,-1,-1,-1,-1,-1,-1,-1,-1,-1,-1,-1,-1],"split_conditions":[4.08557E2,1.1884112E7,9.7315665E-3,4.6385986E-1,3.9726913E2,1.773805E7,1.3330675E1,8.7499624E-1,1.4816265E7,4.5006897E-2,-8.24151E0,2.8234941E-3,1.491378E1,-8.685761E-2,3.5959858E-1,1.4328362E-1,-3.984631E-1,1.7255588E7,5.726292E6,4.6215042E2,1.0884826E1,-3.5188925E0,7.058508E1,1.1812346E7,-2.3555153E1,8.13669E-3,4.34733E1,-3.4342941E-3,1.7331392E7,-1.2871444E-1,9.4458296E7,-1.6102191E-3,7.02429E1,2.6146847E-1,4.368832E2,1.6745625E-2,8.126899E2,2.2581787E0,8.400377E2,8.500543E0,1.7236384E-2,-1.959114E-2,-1.20992236E-1,7.497897E-3,-3.9313516E-1,2.5055075E-1,-1.9052275E-1,3.8878623E-1,-8.099043E-2,3.8417026E-1,-8.5210174E-2,3.7354815E-1,-1.5381526E-2,1.0737704E-2,-1.9199032E-1,-3.7770647E-1,-4.539367E-2,1.481367E-1,3.3842888E-1,-1.9435425E-1,3.62258E-1,3.5956058E-1,4.583246E-2,-2.4756461E-1,8.164615E-2,1.6934279E-1,-3.6904935E-2,6.417661E-2,-5.4233488E-2],"split_indices":[1,4,5,0,0,14,13,15,14,6,12,6,13,0,0,0,0,14,4,0,13,12,11,14,10,5,11,5,4,0,4,5,11,0,9,5,2,12,8,12,5,0,0,0,0,0,0,0,0,0,0,0,0,0,0,0,0,0,0,0,0,0,0,0,0,0,0,0,0],"split_type":[0,0,0,0,0,0,0,0,0,0,0,0,0,0,0,0,0,0,0,0,0,0,0,0,0,0,0,0,0,0,0,0,0,0,0,0,0,0,0,0,0,0,0,0,0,0,0,0,0,0,0,0,0,0,0,0,0,0,0,0,0,0,0,0,0,0,0,0,0],"sum_hessian":[1.4720205E3,1.1709682E1,1.4603108E3,3.9843102E0,7.725372E0,1.1419126E3,3.1839822E2,4.2388654E0,3.4865067E0,8.40277E2,3.016356E2,6.677541E1,2.516228E2,1.2447554E0,2.9941099E0,1.7421104E0,1.7443963E0,8.2686786E2,1.3409121E1,1.1706783E1,2.899288E2,1.2954577E1,5.382083E1,2.333203E1,2.2829077E2,8.1464545E2,1.222245E1,5.6951866E0,7.7139335E0,1.9894556E0,9.717328E0,2.1947735E1,2.6798108E2,1.7467207E0,1.1207857E1,4.3374245E1,1.0446588E1,2.98035E0,2.0351679E1,6.275879E1,1.6553198E2,7.755782E2,3.9067226E1,4.739217E0,7.4832335E0,1.7328439E0,3.962343E0,6.4730306E0,1.2409029E0,8.471282E0,1.2460452E0,8.736922E0,1.3210812E1,2.5430359E2,1.3677485E1,2.7381055E0,8.469751E0,2.7509043E1,1.5865202E1,8.951849E0,1.4947382E0,1.7383173E0,1.2420328E0,1.83628E1,1.9888781E0,4.2439114E1,2.0319675E1,8.045184E1,8.508014E1],"tree_param":{"num_deleted":"0","num_feature":"16","num_nodes":"69","size_leaf_vector":"1"}},{"base_weights":[1.0361316E-3,1.8940996E-2,-2.088287E-1,1.1767361E-2,4.8870844E-1,-6.6523135E-1,-1.2135583E-1,2.2592787E-2,-3.4494242E-1,8.083064E-1,-4.7577453E-1,-9.2348254E-1,4.230913E-1,2.4828164E-1,-2.9999632E-1,3.1603448E-2,-3.443719E-1,-4.482207E-3,-7.836725E-1,1.0235008E0,9.3968906E-2,1.1347583E-1,-3.3813483E-1,3.7863418E-1,-1.2415682E0,2.5781602E-1,-4.0012207E-2,-2.7829957E-1,3.541397E-1,-4.0147176E-1,-2.0884953E-1,1.0503153E-2,2.218291E-1,-7.753339E-1,-3.3054937E-2,-5.6001204E-1,4.0383443E-1,-1.0731616E0,3.5335675E-1,1.160412E0,1.1865709E-2,-5.6705064E-1,3.2569858E-1,2.3315926E-1,-7.0202336E-2,-1.5255224E0,-3.9698482E-1,5.5963975E-1,-1.3609922E-1,-2.6953328E-1,8.282142E-1,6.774773E-3,-2.1743988E-1,2.1242516E-1,2.9517679E-2,5.529676E-2,-3.132115E-1,7.496235E-2,-4.1306928E-1,1.3952379E-1,-3.1448558E-1,2.7342337E-1,-1.8448751E-2,-1.3448978E-2,-3.7234056E-1,3.2726133E-1,-9.559455E-2,4.4508994E-1,1.19902864E-1,-2.1203636E-1,-5.2262407E-2,-1.4234632E-1,-5.1329017E-1,1.0563218E-1,-3.4199667E-1,2.4230744E-1,-1.5523141E-2,9.074041E-2,-2.8301334E-1,3.4461968E-2,-1.0862131E-1,3.1990236E-1,5.8291893E-2],"categories":[],"categories_nodes":[],"categories_segments":[],"categories_sizes":[],"default_left":[0,0,0,0,0,0,0,0,0,0,0,0,0,0,0,0,0,0,0,0,0,0,0,0,0,0,0,0,0,0,0,0,0,0,0,0,0,0,0,0,0,0,0,0,0,0,0,0,0,0,0,0,0,0,0,0,0,0,0,0,0,0,0,0,0,0,0,0,0,0,0,0,0,0,0,0,0,0,0,0,0,0,0],"id":2,"left_children":[1,3,5,7,9,11,13,15,17,19,21,23,25,27,29,31,33,35,37,39,41,-1,-1,43,45,-1,-1,-1,47,-1,49,51,53,55,57,59,61,63,65,67,-1,69,-1,-1,-1,71,73,75,77,79,81,-1,-1,-1,-1,-1,-1,-1,-1,-1,-1,-1,-1,-1,-1,-1,-1,-1,-1,-1,-1,-1,-1,-1,-1,-1,-1,-1,-1,-1,-1,-1,-1],"loss_changes":[5.522688E0,4.5576506E0,4.531787E0,5.1621943E0,6.65523E0,5.550647E0,6.5573273E0,4.29765E0,5.8782363E0,2.3096066E0,3.5929737E0,6.7458487E0,1.135941E0,4.378628E0,6.026978E0,5.080266E0,4.1542263E0,5.4835143E0,6.040613E0,1.5606995E0,3.7125149E0,0E0,0E0,1.0953414E0,2.370842E0,0E0,0E0,0E0,3.156123E0,0E0,4.153287E0,1.0149795E1,7.516134E0,3.5503035E0,7.6184936E0,5.6117325E0,3.3484724E0,2.3551826E0,2.4503407E0,1.9725981E0,0E0,6.8544626E-2,0E0,0E0,0E0,9.299679E-1,2.8918307E0,3.3384066E0,3.767185E0,2.1670485E0,3.509717E-1,0E0,0E0,0E0,0E0,0E0,0E0,0E0,0E0,0E0,0E0,0E0,0E0,0E0,0E0,0E0,0E0,0E0,0E0,0E0,0E0,0E0,0E0,0E0,0E0,0E0,0E0,0E0,0E0,0E0,0E0,0E0,0E0],"parents":[2147483647,0,0,1,1,2,2,3,3,4,4,5,5,6,6,7,7,8,8,9,9,10,10,11,11,12,12,13,13,14,14,15,15,16,16,17,17,18,18,19,19,20,20,23,23,24,24,28,28,30,30,31,31,32,32,33,33,34,34,35,35,36,36,37,37,38,38,39,39,41,41,45,45,46,46,47,47,48,48,49,49,50,50],"right_children":[2,4,6,8,10,12,14,16,18,20,22,24,26,28,30,32,34,36,38,40,42,-1,-1,44,46,-1,-1,-1,48,-1,50,52,54,56,58,60,62,64,66,68,-1,70,-1,-1,-1,72,74,76,78,80,82,-1,-1,-1,-1,-1,-1,-1,-1,-1,-1,-1,-1,-1,-1,-1,-1,-1,-1,-1,-1,-1,-1,-1,-1,-1,-1,-1,-1,-1,-1,-1,-1],"split_conditions":[3.3614414E3,3.3229353E3,3.4254402E3,9.603138E1,1.9978785E1,7.792126E1,-1.1512644E1,3.2394517E3,2.8445454E3,6.915755E1,-1.1950855E-3,3.2994744E3,8.074773E1,1.8708948E6,-9.788232E0,1.9663954E3,2.170627E6,1.6303954E3,3.0585393E3,7.0349625E1,8.13669E-3,1.1347583E-1,-3.3813483E-1,2.381589E6,1.2720159E0,2.5781602E-1,-4.0012207E-2,-2.7829957E-1,8.250214E1,-4.0147176E-1,5.191075E-2,1.9350994E3,-6.8986174E-3,-1.0069957E-2,2.8626555E6,-3.912576E-3,2.41205E3,-2.3331305E-2,5.045698E1,3.322399E3,1.1865709E-2,3.1875305E1,3.2569858E-1,2.3315926E-1,-7.0202336E-2,7.0383126E-1,5.6606804E1,5.1868423E1,-8.740285E-3,-1.5964888E-2,1.5073909E1,6.774773E-3,-2.1743988E-1,2.1242516E-1,2.9517679E-2,5.529676E-2,-3.132115E-1,7.496235E-2,-4.1306928E-1,1.3952379E-1,-3.1448558E-1,2.7342337E-1,-1.8448751E-2,-1.3448978E-2,-3.7234056E-1,3.2726133E-1,-9.559455E-2,4.4508994E-1,1.19902864E-1,-2.1203636E-1,-5.2262407E-2,-1.4234632E-1,-5.1329017E-1,1.0563218E-1,-3.4199667E-1,2.4230744E-1,-1.5523141E-2,9.074041E-2,-2.8301334E-1,3.4461968E-2,-1.0862131E-1,3.1990236E-1,5.8291893E-2],"split_indices":[7,3,7,10,12,13,12,9,0,11,5,8,13,14,12,8,4,8,9,13,5,0,0,14,15,0,0,0,13,0,6,0,5,6,14,5,3,6,13,7,0,10,0,0,0,15,13,11,6,6,12,0,0,0,0,0,0,0,0,0,0,0,0,0,0,0,0,0,0,0,0,0,0,0,0,0,0,0,0,0,0,0,0],"split_type":[0,0,0,0,0,0,0,0,0,0,0,0,0,0,0,0,0,0,0,0,0,0,0,0,0,0,0,0,0,0,0,0,0,0,0,0,0,0,0,0,0,0,0,0,0,0,0,0,0,0,0,0,0,0,0,0,0,0,0,0,0,0,0,0,0,0,0,0,0,0,0,0,0,0,0,0,0,0,0,0,0,0,0],"sum_hessian":[1.4676849E3,1.3531492E3,1.1453577E2,1.3338062E3,1.9342981E1,1.7358778E1,9.717699E1,1.2954292E3,3.8377007E1,1.4650286E1,4.6926956E0,1.4152058E1,3.20672E0,3.1535288E1,6.56417E1,1.2652748E3,3.0154408E1,2.217733E1,1.6199677E1,1.0926022E1,3.724264E0,2.211841E0,2.4808547E0,2.7410269E0,1.1411031E1,1.4923104E0,1.7144096E0,1.9632134E0,2.9572073E1,4.1933594E0,6.144834E1,1.1398905E3,1.2538424E2,1.2021845E1,1.8132563E1,9.237651E0,1.2939679E1,1.2956984E1,3.242694E0,9.4339905E0,1.4920316E0,2.4916425E0,1.2326214E0,1.4979279E0,1.2430991E0,7.936491E0,3.4745393E0,2.0737635E1,8.834439E0,5.8750652E1,2.6976924E0,1.1224209E3,1.7469643E1,2.44261E1,1.00958145E2,2.6984777E0,9.323367E0,1.5651412E1,2.4811513E0,2.9957695E0,6.2418814E0,5.7303967E0,7.2092824E0,1.9971762E0,1.0959807E1,1.2488238E0,1.9938703E0,5.953997E0,3.4799929E0,1.2484105E0,1.243232E0,1.7240181E0,6.212473E0,1.9921597E0,1.4823797E0,1.4523888E1,6.2137465E0,6.1297026E0,2.7047372E0,1.1352095E1,4.7398556E1,1.4651426E0,1.2325497E0],"tree_param":{"num_deleted":"0","num_feature":"16","num_nodes":"83","size_leaf_vector":"1"}},{"base_weights":[-8.75469E-5,4.914787E-1,-6.16938E-3,3.4780228E-1,1.9865058E-1,-4.7148958E-2,6.4714506E-2,-6.286311E-1,5.639092E-1,-1.5272196E-2,-2.2020447E-1,9.442153E-2,-2.6946682E-1,5.5790845E-2,-3.831835E-1,1.1000737E0,-4.5014944E-2,-2.2832979E-2,1.1121118E0,-9.5651346E-1,-1.4002374E-1,2.469259E-1,3.0783908E-2,4.7674995E-2,-5.589389E-1,4.9266826E-2,3.999046E-1,-3.639292E-1,1.8025936E-1,-8.2882994E-1,-1.5200332E-2,5.620395E-2,4.0600282E-1,6.198995E-2,-1.0875763E0,6.398807E-1,-1.9086766E-1,5.7924338E-2,5.3261566E-1,-1.1265362E-1,1.1856681E-1,-1.0460628E0,3.133585E-1,3.7553778E-1,-8.68979E-1,1.3815412E-1,-2.4431032E-1,2.1626735E-1,-4.0629214E-1,-1.1360431E-2,6.8117395E-2,6.80032E-2,-3.7545523E-1,-4.755046E-2,3.213957E-1,1.047512E-1,-8.5283235E-2,-2.0253036E-2,1.689624E-1,1.885764E-1,-2.7369872E-1,2.2606322E-1,-4.6641756E-2,1.2017829E-1,-1.1708656E-2,-3.97533E-1,-8.687293E-2,-1.2271022E-1,1.8952851E-1,-1.601567E-1,2.0872073E-1,-3.1135392E-1,1.7361347E-1],"categories":[],"categories_nodes":[],"categories_segments":[],"categories_sizes":[],"default_left":[0,0,0,0,0,0,0,0,0,0,0,0,0,0,0,0,0,0,0,0,0,0,0,0,0,0,0,0,0,0,0,0,0,0,0,0,0,0,0,0,0,0,0,0,0,0,0,0,0,0,0,0,0,0,0,0,0,0,0,0,0,0,0,0,0,0,0,0,0,0,0,0,0],"id":3,"left_children":[1,3,5,-1,7,9,11,13,15,17,19,21,23,-1,-1,25,27,29,31,33,35,37,39,41,43,-1,-1,45,-1,47,49,-1,-1,-1,51,53,55,57,59,61,63,65,67,69,71,-1,-1,-1,-1,-1,-1,-1,-1,-1,-1,-1,-1,-1,-1,-1,-1,-1,-1,-1,-1,-1,-1,-1,-1,-1,-1,-1,-1],"loss_changes":[4.380345E0,3.271595E0,4.207046E0,0E0,4.4806466E0,5.0588446E0,5.293044E0,2.6972895E0,3.3142896E0,6.639874E0,8.288689E0,4.7287216E0,4.0271683E0,0E0,0E0,9.4888735E-1,1.3809961E0,4.7354436E0,9.041672E-1,2.3343372E0,5.270196E0,7.7199965E0,4.3634586E0,6.6382065E0,6.94971E0,0E0,0E0,2.0091693E0,0E0,6.8571534E0,4.2127504E0,0E0,0E0,0E0,2.9977798E0,2.9858675E0,6.286374E0,5.5846467E0,8.482309E0,5.00095E0,9.563034E0,5.608592E-1,4.4541435E0,2.2331083E0,4.8708324E0,0E0,0E0,0E0,0E0,0E0,0E0,0E0,0E0,0E0,0E0,0E0,0E0,0E0,0E0,0E0,0E0,0E0,0E0,0E0,0E0,0E0,0E0,0E0,0E0,0E0,0E0,0E0,0E0],"parents":[2147483647,0,0,1,1,2,2,4,4,5,5,6,6,7,7,8,8,9,9,10,10,11,11,12,12,15,15,16,16,17,17,18,18,19,19,20,20,21,21,22,22,23,23,24,24,27,27,29,29,30,30,34,34,35,35,36,36,37,37,38,38,39,39,40,40,41,41,42,42,43,43,44,44],"right_children":[2,4,6,-1,8,10,12,14,16,18,20,22,24,-1,-1,26,28,30,32,34,36,38,40,42,44,-1,-1,46,-1,48,50,-1,-1,-1,52,54,56,58,60,62,64,66,68,70,72,-1,-1,-1,-1,-1,-1,-1,-1,-1,-1,-1,-1,-1,-1,-1,-1,-1,-1,-1,-1,-1,-1,-1,-1,-1,-1,-1,-1],"split_conditions":[4.0771777E2,7.4791706E-1,1.6453092E0,3.4780228E-1,8.990215E-1,2.7490913E3,7.4136375E1,1.2496073E7,1.1575898E0,2.7499895E3,2.7339421E3,3.3428607E0,3.5094276E1,5.5790845E-2,-3.831835E-1,4.0606454E2,4.9368935E1,4.141228E2,-3.0383267E-2,4.1749947E1,4.4465374E1,1.773805E7,2.565275E1,1.55219305E-2,1.4945956E-2,4.9266826E-2,3.999046E-1,3.9726913E2,1.8025936E-1,1.0061584E7,2.5245689E-2,5.620395E-2,4.0600282E-1,6.198995E-2,-1.1323159E-2,4.2565117E1,-9.410278E1,2.9416769E0,2.7329613E1,4.9310995E2,-2.0630993E-3,1.8768352E7,6.4161615E2,6.665342E-1,4.731331E7,1.3815412E-1,-2.4431032E-1,2.1626735E-1,-4.0629214E-1,-1.1360431E-2,6.8117395E-2,6.80032E-2,-3.7545523E-1,-4.755046E-2,3.213957E-1,1.047512E-1,-8.5283235E-2,-2.0253036E-2,1.689624E-1,1.885764E-1,-2.7369872E-1,2.2606322E-1,-4.6641756E-2,1.2017829E-1,-1.1708656E-2,-3.97533E-1,-8.687293E-2,-1.2271022E-1,1.8952851E-1,-1.601567E-1,2.0872073E-1,-3.1135392E-1,1.7361347E-1],"split_indices":[3,15,12,0,15,2,11,4,15,3,9,12,10,0,0,7,11,1,6,11,13,14,13,6,6,0,0,0,0,4,6,0,0,0,5,13,10,12,13,1,5,4,0,15,14,0,0,0,0,0,0,0,0,0,0,0,0,0,0,0,0,0,0,0,0,0,0,0,0,0,0,0,0],"split_type":[0,0,0,0,0,0,0,0,0,0,0,0,0,0,0,0,0,0,0,0,0,0,0,0,0,0,0,0,0,0,0,0,0,0,0,0,0,0,0,0,0,0,0,0,0,0,0,0,0,0,0,0,0,0,0,0,0,0,0,0,0,0,0,0,0,0,0,0,0,0,0,0,0],"sum_hessian":[1.4631683E3,1.6906221E1,1.4462621E3,4.2512193E0,1.2655003E1,9.1665686E2,5.296052E2,3.6552022E0,8.999801E0,7.749919E2,1.4166496E2,4.8702835E2,4.25769E1,1.9365239E0,1.7186782E0,4.3569083E0,4.6428924E0,7.7080225E2,4.1896253E0,1.2838456E1,1.288265E2,1.4254535E2,3.44483E2,2.0716013E1,2.1860888E1,1.2081438E0,3.1487644E0,3.400415E0,1.2424774E0,6.2215824E0,7.645807E2,1.234347E0,2.9552784E0,1.2417421E0,1.1596714E1,7.1754684E0,1.2165105E2,8.6513824E1,5.603153E1,1.3067549E2,2.138075E2,3.4746573E0,1.7241354E1,5.3934617E0,1.6467426E1,1.1935248E0,2.20689E0,1.481249E0,4.7403336E0,6.999326E2,6.464803E1,1.2437071E0,1.0353007E1,2.739187E0,4.4362817E0,1.7535192E1,1.0411585E2,7.000242E1,1.6511402E1,5.3071526E1,2.9600031E0,5.37356E0,1.2530194E2,7.609275E1,1.3771474E2,1.989223E0,1.4854344E0,5.187446E0,1.2053909E1,1.2307484E0,4.162713E0,1.5000751E1,1.4666753E0],"tree_param":{"num_deleted":"0","num_feature":"16","num_nodes":"73","size_leaf_vector":"1"}},{"base_weights":[5.516318E-4,-2.801615E-1,9.751735E-3,-1.7827235E-1,-3.8611716E-1,-4.6785137E-1,1.4724051E-2,-2.4611567E-1,2.5145018E-1,-7.587567E-1,5.852594E-1,6.3970935E-1,9.274285E-3,1.5882382E-1,-4.2091432E-1,-4.3706855E-1,-3.9463678E-1,3.1164354E-1,-1.7370066E-2,-1.03194706E-1,8.9303184E-1,-3.0148057E-2,6.5920316E-2,-8.356907E-1,4.8458236E-1,-2.2947232E-1,-1.1698265E0,1.00498386E-1,-8.3203924E-1,3.0700696E-1,1.3124595E0,-6.4995666E-3,-3.0102593E-1,-9.8741794E-1,7.841875E-2,-8.556411E-2,-2.9983315E-1,2.3191597E-1,-2.3088373E-1,2.0462919E-2,-2.7614912E-1,-4.18962E-1,-5.6414068E-2,3.383112E-1,-1.8512991E-1,5.349553E-2,-3.646368E-1,2.9100737E-1,-1.3551587E-1,7.415263E-2,4.7088385E-1,5.3370383E-2,-1.2024565E-2,5.7008225E-2,-1.4415818E-1,-4.3917853E-1,1.5316257E-1,3.8265705E-2,-2.3727082E-2],"categories":[],"categories_nodes":[],"categories_segments":[],"categories_sizes":[],"default_left":[0,0,0,0,0,0,0,0,0,0,0,0,0,0,0,0,0,0,0,0,0,0,0,0,0,0,0,0,0,0,0,0,0,0,0,0,0,0,0,0,0,0,0,0,0,0,0,0,0,0,0,0,0,0,0,0,0,0,0],"id":4,"left_children":[1,3,5,7,-1,9,11,13,-1,15,17,19,21,23,25,-1,27,-1,-1,-1,29,31,33,35,37,39,41,43,45,47,49,51,53,55,57,-1,-1,-1,-1,-1,-1,-1,-1,-1,-1,-1,-1,-1,-1,-1,-1,-1,-1,-1,-1,-1,-1,-1,-1],"loss_changes":[3.7697012E0,4.522693E0,3.3631382E0,3.187031E0,0E0,4.9145746E0,4.7614384E0,2.9897273E0,0E0,2.44236E0,1.146178E0,3.3186202E0,3.1029043E0,4.6738024E0,3.9061499E0,0E0,2.0701165E0,0E0,0E0,0E0,2.027513E0,5.2474227E0,7.583332E0,4.109502E-2,4.4149733E0,5.0888376E0,1.0024886E0,4.5248823E0,2.1451166E0,3.169834E0,1.1071768E0,4.6806326E0,5.889084E0,5.5720944E0,4.377801E0,0E0,0E0,0E0,0E0,0E0,0E0,0E0,0E0,0E0,0E0,0E0,0E0,0E0,0E0,0E0,0E0,0E0,0E0,0E0,0E0,0E0,0E0,0E0,0E0],"parents":[2147483647,0,0,1,1,2,2,3,3,5,5,6,6,7,7,9,9,10,10,11,11,12,12,13,13,14,14,16,16,20,20,21,21,22,22,23,23,24,24,25,25,26,26,27,27,28,28,29,29,30,30,31,31,32,32,33,33,34,34],"right_children":[2,4,6,8,-1,10,12,14,-1,16,18,20,22,24,26,-1,28,-1,-1,-1,30,32,34,36,38,40,42,44,46,48,50,52,54,56,58,-1,-1,-1,-1,-1,-1,-1,-1,-1,-1,-1,-1,-1,-1,-1,-1,-1,-1,-1,-1,-1,-1,-1,-1],"split_conditions":[1.801279E6,1.287099E2,3.4990788E-1,2.0402048E0,-3.8611716E-1,5.9817904E-3,4.0015218E-1,1.266171E1,2.5145018E-1,-1.3416117E0,1.761466E6,-7.313101E0,2.9965073E-3,3.8880936E1,5.860341E0,-4.3706855E-1,1.2918229E7,3.1164354E-1,-1.7370066E-2,-1.03194706E-1,4.0572425E-3,1.6866238E-3,3.0967983E1,-5.8510998E1,1.7902327E1,1.0486226E0,2.3497716E-2,2.3083351E1,-2.831029E-4,1.5522137E1,4.9566444E1,3.7227722E1,-6.260369E-3,3.1853928E3,2.904742E-2,-8.556411E-2,-2.9983315E-1,2.3191597E-1,-2.3088373E-1,2.0462919E-2,-2.7614912E-1,-4.18962E-1,-5.6414068E-2,3.383112E-1,-1.8512991E-1,5.349553E-2,-3.646368E-1,2.9100737E-1,-1.3551587E-1,7.415263E-2,4.7088385E-1,5.3370383E-2,-1.2024565E-2,5.7008225E-2,-1.4415818E-1,-4.3917853E-1,1.5316257E-1,3.8265705E-2,-2.3727082E-2],"split_indices":[14,10,15,15,0,5,15,10,0,12,4,12,5,11,12,0,14,0,0,0,6,5,11,10,12,15,6,13,6,13,11,11,6,0,6,0,0,0,0,0,0,0,0,0,0,0,0,0,0,0,0,0,0,0,0,0,0,0,0],"split_type":[0,0,0,0,0,0,0,0,0,0,0,0,0,0,0,0,0,0,0,0,0,0,0,0,0,0,0,0,0,0,0,0,0,0,0,0,0,0,0,0,0,0,0,0,0,0,0,0,0,0,0,0,0,0,0,0,0,0,0],"sum_hessian":[1.4576016E3,4.532089E1,1.4122806E3,4.222512E1,3.0957658E0,1.3592541E1,1.3986881E3,4.0293552E1,1.9315699E0,1.0869516E1,2.7230246E0,1.1084827E1,1.3876033E3,1.217659E1,2.8116962E1,2.6971142E0,8.172402E0,1.2361377E0,1.4868869E0,2.1967216E0,8.888105E0,8.1846625E2,5.691371E2,2.6181676E0,9.558422E0,2.3433214E1,4.6837482E0,4.194504E0,3.9778981E0,4.430197E0,4.457909E0,7.536907E2,6.477557E1,5.7592344E0,5.6337787E2,1.2288756E0,1.389292E0,8.082934E0,1.4754875E0,1.7007818E1,6.425396E0,3.461872E0,1.2218761E0,1.49006E0,2.704444E0,1.2414428E0,2.7364554E0,2.2155955E0,2.2146013E0,1.2482213E0,3.2096877E0,1.1545093E2,6.3823975E2,1.7324131E1,4.7451443E1,4.3865604E0,1.372674E0,4.2956796E2,1.3380989E2],"tree_param":{"num_deleted":"0","num_feature":"16","num_nodes":"59","size_leaf_vector":"1"}},{"base_weights":[-5.1066495E-4,-3.2551175E-1,6.197808E-3,1.630048E-1,-6.4681476E-1,5.49357E-1,2.2451964E-3,-6.859955E-1,6.2235576E-1,-8.162065E-1,2.2003992E-1,-6.807645E-2,7.4610555E-1,7.90156E-3,-3.436675E-1,4.40038E-2,-9.845611E-1,4.297358E-1,-1.2755166E-1,-1.0679785E0,1.0490957E-1,3.0944207E-1,3.2677543E-1,1.2347411E-2,-5.106381E-1,4.3798926E-1,-5.238267E-1,-3.8427612E-1,-6.188192E-2,2.9481283E-1,-6.845397E-1,1.2822224E-1,-1.3480995E0,-1.4703472E-1,1.6887265E-1,2.530472E-1,-9.239281E-2,-1.688716E-3,3.4859157E-1,-4.4661072E-1,-6.830201E-2,2.72099E-1,-8.845933E-2,-6.850871E-1,2.3162772E-1,-3.2365838E-1,4.3852028E-2,1.7364159E-1,-1.1166093E-1,-4.6316954E-1,-2.3953598E-2,1.5864298E-1,-1.8527426E-1,3.0437459E-3,-9.024983E-2,3.940126E-2,2.3713118E-1,-1.7264047E-1,1.879231E-1,-9.2471376E-2,-3.5893846E-1,1.8692636E-1,-6.0653504E-2],"categories":[],"categories_nodes":[],"categories_segments":[],"categories_sizes":[],"default_left":[0,0,0,0,0,0,0,0,0,0,0,0,0,0,0,0,0,0,0,0,0,0,0,0,0,0,0,0,0,0,0,0,0,0,0,0,0,0,0,0,0,0,0,0,0,0,0,0,0,0,0,0,0,0,0,0,0,0,0,0,0,0,0],"id":5,"left_children":[1,3,5,7,9,11,13,15,17,19,-1,-1,21,23,25,-1,27,-1,29,31,33,-1,35,37,39,41,43,-1,-1,-1,45,47,49,-1,-1,-1,51,53,55,-1,57,-1,-1,59,61,-1,-1,-1,-1,-1,-1,-1,-1,-1,-1,-1,-1,-1,-1,-1,-1,-1,-1],"loss_changes":[3.1760123E0,4.729596E0,3.0630894E0,5.296882E0,4.800902E0,1.7436073E0,2.777222E0,1.3526244E0,5.4238977E0,3.9343395E0,0E0,0E0,6.7488575E-1,3.224994E0,3.4453773E0,0E0,5.9078765E-1,0E0,4.0110993E0,4.540036E0,1.4882065E0,0E0,1.1366744E0,6.5385537E0,5.043374E0,1.9249068E0,2.4751382E0,0E0,0E0,0E0,1.5283632E0,9.789419E-1,2.5206509E0,0E0,0E0,0E0,1.5011207E0,4.7143E0,5.2252173E0,0E0,3.6149988E0,0E0,0E0,2.6996288E0,8.209055E-1,0E0,0E0,0E0,0E0,0E0,0E0,0E0,0E0,0E0,0E0,0E0,0E0,0E0,0E0,0E0,0E0,0E0,0E0],"parents":[2147483647,0,0,1,1,2,2,3,3,4,4,5,5,6,6,7,7,8,8,9,9,12,12,13,13,14,14,16,16,18,18,19,19,20,20,22,22,23,23,24,24,25,25,26,26,30,30,31,31,32,32,36,36,37,37,38,38,40,40,43,43,44,44],"right_children":[2,4,6,8,10,12,14,16,18,20,-1,-1,22,24,26,-1,28,-1,30,32,34,-1,36,38,40,42,44,-1,-1,-1,46,48,50,-1,-1,-1,52,54,56,-1,58,-1,-1,60,62,-1,-1,-1,-1,-1,-1,-1,-1,-1,-1,-1,-1,-1,-1,-1,-1,-1,-1],"split_conditions":[-5.5027504E-2,3.2270798E1,4.041397E2,-3.6436832E1,6.1872677E1,3.8938547E2,3.9665732E3,4.1391574E2,3.0897714E7,1.8464817E0,2.2003992E-1,-6.807645E-2,-1.2662451E0,4.9065877E-2,3.4234497E3,4.40038E-2,1.5129574E3,4.297358E-1,2.2410742E1,4.9855325E2,-6.989044E-2,3.0944207E-1,1.2496073E7,2.5742909E-2,8.594245E6,5.246693E-3,1.2118968E-2,-3.8427612E-1,-6.188192E-2,2.9481283E-1,3.446625E7,5.272616E2,3.1013442E7,-1.4703472E-1,1.6887265E-1,2.530472E-1,3.9726913E2,1.9970568E-2,2.8847292E1,-4.4661072E-1,6.433958E-2,2.72099E-1,-8.845933E-2,8.1190014E-1,3.6630618E3,-3.2365838E-1,4.3852028E-2,1.7364159E-1,-1.1166093E-1,-4.6316954E-1,-2.3953598E-2,1.5864298E-1,-1.8527426E-1,3.0437459E-3,-9.024983E-2,3.940126E-2,2.3713118E-1,-1.7264047E-1,1.879231E-1,-9.2471376E-2,-3.5893846E-1,1.8692636E-1,-6.0653504E-2],"split_indices":[6,11,3,10,10,8,9,3,4,15,0,0,12,5,2,0,0,0,11,8,6,0,4,5,4,5,6,0,0,0,14,9,14,0,0,0,0,5,10,0,6,0,0,12,1,0,0,0,0,0,0,0,0,0,0,0,0,0,0,0,0,0,0],"split_type":[0,0,0,0,0,0,0,0,0,0,0,0,0,0,0,0,0,0,0,0,0,0,0,0,0,0,0,0,0,0,0,0,0,0,0,0,0,0,0,0,0,0,0,0,0,0,0,0,0,0,0,0,0,0,0,0,0,0,0,0,0,0,0],"sum_hessian":[1.4547867E3,2.8460423E1,1.4263263E3,1.1487396E1,1.6973026E1,9.307621E0,1.4170187E3,3.8598976E0,7.6274986E0,1.5481733E1,1.4912927E0,1.8510159E0,7.4566054E0,1.3951819E3,2.1836851E1,1.1529987E0,2.706899E0,3.229076E0,4.3984227E0,1.2033213E1,3.448521E0,3.568388E0,3.8882174E0,1.3842894E3,1.0892424E1,3.822228E0,1.8014622E1,1.4926894E0,1.2142096E0,1.2140642E0,3.1843586E0,2.386102E0,9.647111E0,1.4693898E0,1.9791311E0,1.2880822E0,2.6001353E0,1.3297745E3,5.4514935E1,2.6554108E0,8.237014E0,2.1857696E0,1.6364586E0,1.492241E1,3.0922124E0,1.9567938E0,1.2275648E0,1.173161E0,1.2129408E0,8.1686535E0,1.4784567E0,1.1880224E0,1.4121128E0,1.2800981E3,4.96763E1,3.7415237E1,1.7099699E1,4.86039E0,3.3766234E0,9.51399E0,5.408419E0,1.3960813E0,1.6961312E0],"tree_param":{"num_deleted":"0","num_feature":"16","num_nodes":"63","size_leaf_vector":"1"}},{"base_weights":[-3.4298826E-4,-2.2697929E-1,6.9499617E-3,-1.4460853E-1,-3.275823E-1,-2.2158066E-2,6.363616E-2,-2.7474862E-1,3.165719E-1,-4.391269E-2,2.0105828E-1,1.1573622E-1,-9.751304E-2,-1.032143E-1,-9.952591E-1,6.562212E-1,-2.5891784E-1,5.633178E-3,-1.7691731E-1,6.21696E-1,4.3044765E-2,6.318777E-2,4.0635553E-1,4.1735277E-1,-1.9553143E-1,2.654529E-1,-4.9294552E-1,-4.0110168E-1,7.558061E-2,3.8149494E-1,-8.463119E-3,-2.5109264E-1,9.275381E-2,-3.4726649E-3,1.0344228E0,7.959369E-1,-2.0808253E-1,-2.0292465E-1,9.1289E-1,-1.0058536E-1,9.4350755E-1,3.7491345E-1,2.8039182E-2,5.8241206E-1,-5.6390595E-1,-3.5828626E-1,8.017238E-1,-4.53629E-1,1.1588858E-1,1.7025621E-1,-3.494671E-1,-2.1687712E-1,2.2380732E-1,-1.2112232E-1,1.1162385E-1,7.977337E-3,-6.521398E-2,4.289357E-1,-2.2527834E-3,4.2344886E-1,-2.7659379E-2,-8.7328516E-2,1.5712278E-2,1.8318614E-1,-3.3949608E-1,3.3958375E-1,-1.9276038E-1,-1.392916E-1,7.251047E-2,3.5414624E-1,-8.7856755E-2,-7.3287934E-2,1.6571255E-1,-1.1756474E-1,2.3829855E-2,1.9935969E-1,-2.2973332E-1,2.3195907E-1,-2.611742E-1,8.952509E-2,-2.655448E-1,2.7940506E-1,-1.159635E-2,3.059398E-1,-1.5380278E-1,-1.6999142E-1,8.097584E-2],"categories":[],"categories_nodes":[],"categories_segments":[],"categories_sizes":[],"default_left":[0,0,0,0,0,0,0,0,0,0,0,0,0,0,0,0,0,0,0,0,0,0,0,0,0,0,0,0,0,0,0,0,0,0,0,0,0,0,0,0,0,0,0,0,0,0,0,0,0,0,0,0,0,0,0,0,0,0,0,0,0,0,0,0,0,0,0,0,0,0,0,0,0,0,0,0,0,0,0,0,0,0,0,0,0,0,0],"id":6,"left_children":[1,3,5,7,-1,9,11,13,15,17,19,21,23,25,27,29,31,33,35,37,39,41,43,45,47,49,51,-1,-1,-1,53,-1,-1,55,57,59,61,63,65,67,69,71,73,75,77,79,81,83,85,-1,-1,-1,-1,-1,-1,-1,-1,-1,-1,-1,-1,-1,-1,-1,-1,-1,-1,-1,-1,-1,-1,-1,-1,-1,-1,-1,-1,-1,-1,-1,-1,-1,-1,-1,-1,-1,-1],"loss_changes":[2.4042356E0,3.0730634E0,2.3267875E0,2.6412294E0,0E0,4.534115E0,4.027889E0,4.0656815E0,2.0915165E0,5.602099E0,5.4857254E0,5.5023055E0,6.007539E0,4.205261E0,3.0517974E0,2.655447E0,1.6924701E0,5.814031E0,7.160812E0,5.6056337E0,8.031219E0,3.3612347E0,9.765369E0,5.9811563E0,8.035992E0,7.2381115E0,4.566849E0,0E0,0E0,0E0,7.671866E-1,0E0,0E0,3.9658952E0,2.2537456E0,4.1586814E0,4.865944E0,5.7601337E0,6.4733496E0,6.813304E0,2.8472095E0,3.552556E0,6.022784E0,5.7403107E0,4.360675E0,2.6928272E0,1.4607725E0,5.2657757E0,4.9688807E0,0E0,0E0,0E0,0E0,0E0,0E0,0E0,0E0,0E0,0E0,0E0,0E0,0E0,0E0,0E0,0E0,0E0,0E0,0E0,0E0,0E0,0E0,0E0,0E0,0E0,0E0,0E0,0E0,0E0,0E0,0E0,0E0,0E0,0E0,0E0,0E0,0E0,0E0],"parents":[2147483647,0,0,1,1,2,2,3,3,5,5,6,6,7,7,8,8,9,9,10,10,11,11,12,12,13,13,14,14,15,15,16,16,17,17,18,18,19,19,20,20,21,21,22,22,23,23,24,24,25,25,26,26,30,30,33,33,34,34,35,35,36,36,37,37,38,38,39,39,40,40,41,41,42,42,43,43,44,44,45,45,46,46,47,47,48,48],"right_children":[2,4,6,8,-1,10,12,14,16,18,20,22,24,26,28,30,32,34,36,38,40,42,44,46,48,50,52,-1,-1,-1,54,-1,-1,56,58,60,62,64,66,68,70,72,74,76,78,80,82,84,86,-1,-1,-1,-1,-1,-1,-1,-1,-1,-1,-1,-1,-1,-1,-1,-1,-1,-1,-1,-1,-1,-1,-1,-1,-1,-1,-1,-1,-1,-1,-1,-1,-1,-1,-1,-1,-1,-1],"split_conditions":[1.801279E6,1.287099E2,1.9597266E0,1.91254E6,-3.275823E-1,2.4733266E-2,2.960937E-2,1.0486226E0,1.8218758E-3,-3.020837E-1,2.8489627E-2,1.1876276E-2,1.3550708E1,1.0910898E-3,3.2037856E3,3.082161E3,3.068293E0,-3.3286005E-1,-6.4093E1,8.814432E6,7.530821E1,2.191931E6,7.183605E1,4.845377E2,4.5006897E-2,3.180163E3,9.8366153E-1,-4.0110168E-1,7.558061E-2,3.8149494E-1,3.2297114E3,-2.5109264E-1,9.275381E-2,2.7398798E7,1.3974668E1,8.6567736E-1,1.9569146E7,-2.700044E0,4.172877E7,1.4766294E-2,1.4928765E0,4.5541363E0,2.4195675E6,3.6949678E3,8.200342E-1,7.271127E1,1.4364245E1,2.2581787E0,2.9918232E6,1.7025621E-1,-3.494671E-1,-2.1687712E-1,2.2380732E-1,-1.2112232E-1,1.1162385E-1,7.977337E-3,-6.521398E-2,4.289357E-1,-2.2527834E-3,4.2344886E-1,-2.7659379E-2,-8.7328516E-2,1.5712278E-2,1.8318614E-1,-3.3949608E-1,3.3958375E-1,-1.9276038E-1,-1.392916E-1,7.251047E-2,3.5414624E-1,-8.7856755E-2,-7.3287934E-2,1.6571255E-1,-1.1756474E-1,2.3829855E-2,1.9935969E-1,-2.2973332E-1,2.3195907E-1,-2.611742E-1,8.952509E-2,-2.655448E-1,2.7940506E-1,-1.159635E-2,3.059398E-1,-1.5380278E-1,-1.6999142E-1,8.097584E-2],"split_indices":[14,10,12,4,0,6,6,15,5,12,6,5,13,6,0,7,12,12,10,4,10,14,11,9,6,9,15,0,0,0,1,0,0,4,13,12,14,12,4,5,15,12,14,2,15,11,10,12,14,0,0,0,0,0,0,0,0,0,0,0,0,0,0,0,0,0,0,0,0,0,0,0,0,0,0,0,0,0,0,0,0,0,0,0,0,0,0],"split_type":[0,0,0,0,0,0,0,0,0,0,0,0,0,0,0,0,0,0,0,0,0,0,0,0,0,0,0,0,0,0,0,0,0,0,0,0,0,0,0,0,0,0,0,0,0,0,0,0,0,0,0,0,0,0,0,0,0,0,0,0,0,0,0,0,0,0,0,0,0,0,0,0,0,0,0,0,0,0,0,0,0,0,0,0,0,0,0],"sum_hessian":[1.4526481E3,4.4348465E1,1.4082996E3,4.1558052E1,2.7904108E0,9.308981E2,4.7740152E2,3.2727077E1,8.830976E0,8.489617E2,8.193637E1,3.60978E2,1.1642354E2,2.7357288E1,5.3697886E0,5.465185E0,3.3657906E0,6.1924347E2,2.297182E2,2.1573223E1,6.036315E1,3.067333E2,5.424468E1,1.8098547E1,9.8325E1,1.4222429E1,1.313486E1,4.158342E0,1.2114468E0,2.3635867E0,3.1015985E0,1.4336791E0,1.9321115E0,6.147985E2,4.4449725E0,6.3688436E0,2.2334935E2,5.7090693E0,1.5864154E1,5.282542E1,7.537729E0,3.0101622E1,2.7663168E2,4.625189E1,7.992791E0,6.0194664E0,1.2079081E1,5.3515755E1,4.4809242E1,1.2240616E1,1.9818133E0,1.1429772E1,1.7050877E0,1.4914428E0,1.6101556E0,5.398066E2,7.499191E1,2.9524252E0,1.4925473E0,3.4136133E0,2.9552302E0,1.692792E2,5.4070145E1,3.2258334E0,2.4832356E0,1.4144408E1,1.7197464E0,2.5438042E1,2.738738E1,6.363248E0,1.1744809E0,6.6213913E0,2.348023E1,2.9442345E1,2.4718935E2,4.407435E1,2.177539E0,1.2073803E0,6.7854114E0,2.8725731E0,3.1468935E0,1.0371111E1,1.7079694E0,1.4350578E0,5.2080696E1,7.757266E0,3.7051975E1],"tree_param":{"num_deleted":"0","num_feature":"16","num_nodes":"87","size_leaf_vector":"1"}},{"base_weights":[2.2703366E-4,4.2690605E-1,-3.528028E-3,1.4450169E-1,3.6409426E-1,-4.3038478E-1,5.672984E-4,3.3994618E-1,-1.4717591E-1,-6.3129425E-1,3.5970488E-1,5.265961E-1,-3.822041E-3,2.4431853E-1,-3.0341592E-1,-3.580572E-1,-3.2710394E-1,2.6275092E-1,-9.1180734E-2,3.0165082E-2,9.708683E-1,-3.743358E-1,9.5930917E-4,-2.6914287E-1,7.998932E-1,-2.9400367E-1,-7.036143E-2,4.3991864E-1,-1.668001E-1,3.54844E-1,6.974764E-2,9.8548347E-1,-7.082371E-1,2.811872E-1,-7.216115E-3,3.5029215E-1,-2.249652E-2,9.683013E-2,-2.0415547E-1,7.37779E-3,2.269106E-1,6.731357E-2,3.7270018E-1,2.0791888E-1,-2.643288E-1,2.4670379E-1,-9.981796E-3,1.0354919E-1,-3.4614357E-3],"categories":[],"categories_nodes":[],"categories_segments":[],"categories_sizes":[],"default_left":[0,0,0,0,0,0,0,0,0,0,0,0,0,0,0,0,0,0,0,0,0,0,0,0,0,0,0,0,0,0,0,0,0,0,0,0,0,0,0,0,0,0,0,0,0,0,0,0,0],"id":7,"left_children":[1,3,5,7,-1,9,11,-1,13,15,17,19,21,23,-1,-1,25,-1,-1,27,29,31,33,-1,35,-1,37,39,-1,-1,-1,41,43,45,47,-1,-1,-1,-1,-1,-1,-1,-1,-1,-1,-1,-1,-1,-1],"loss_changes":[2.319031E0,2.6300719E0,2.5084991E0,3.1735318E0,0E0,2.391688E0,3.285746E0,0E0,3.2706153E0,1.5310364E0,1.431338E0,2.5679646E0,2.5007672E0,5.128739E0,0E0,0E0,1.3840513E0,0E0,0E0,1.8282919E0,6.9254017E-1,8.863682E0,3.196654E0,0E0,1.7629144E0,0E0,1.9704238E0,5.648313E-1,0E0,0E0,0E0,4.9609303E-1,4.249093E0,6.758258E0,2.0689733E0,0E0,0E0,0E0,0E0,0E0,0E0,0E0,0E0,0E0,0E0,0E0,0E0,0E0,0E0],"parents":[2147483647,0,0,1,1,2,2,3,3,5,5,6,6,8,8,9,9,10,10,11,11,12,12,13,13,16,16,19,19,20,20,21,21,22,22,24,24,26,26,27,27,31,31,32,32,33,33,34,34],"right_children":[2,4,6,8,-1,10,12,-1,14,16,18,20,22,24,-1,-1,26,-1,-1,28,30,32,34,-1,36,-1,38,40,-1,-1,-1,42,44,46,48,-1,-1,-1,-1,-1,-1,-1,-1,-1,-1,-1,-1,-1,-1],"split_conditions":[6.075159E0,5.002352E-3,3.4990788E-1,-6.396824E-1,3.6409426E-1,5.9817904E-3,4.0015218E-1,3.3994618E-1,5.313249E6,-1.3416117E0,1.761466E6,-4.881134E-2,4.467376E-1,-4.6497947E-3,-3.0341592E-1,-3.580572E-1,-5.8510998E1,2.6275092E-1,-9.1180734E-2,1.675228E3,5.879039E6,4.359472E1,5.04334E-1,-2.6914287E-1,4.4656126E-3,-2.9400367E-1,2.0951262E7,1.4350685E3,-1.668001E-1,3.54844E-1,6.974764E-2,-6.2429347E0,1.024404E6,-3.1964786E-3,4.0771777E2,3.5029215E-1,-2.249652E-2,9.683013E-2,-2.0415547E-1,7.37779E-3,2.269106E-1,6.731357E-2,3.7270018E-1,2.0791888E-1,-2.643288E-1,2.4670379E-1,-9.981796E-3,1.0354919E-1,-3.4614357E-3],"split_indices":[13,5,15,12,0,5,15,0,4,12,4,12,15,6,0,0,10,0,0,0,4,11,15,0,6,0,14,0,0,0,0,12,4,6,3,0,0,0,0,0,0,0,0,0,0,0,0,0,0],"split_type":[0,0,0,0,0,0,0,0,0,0,0,0,0,0,0,0,0,0,0,0,0,0,0,0,0,0,0,0,0,0,0,0,0,0,0,0,0,0,0,0,0,0,0,0,0,0,0,0,0],"sum_hessian":[1.4454589E3,1.1626952E1,1.4338319E3,9.426823E0,2.200129E0,1.2636487E1,1.4211954E3,1.4903322E0,7.9364905E0,1.0234876E1,2.4016113E0,1.0776219E1,1.4104192E3,5.9557705E0,1.9807199E0,2.5669034E0,7.667972E0,1.1710831E0,1.2305284E0,5.5937E0,5.182519E0,1.6984377E1,1.3934348E3,1.7485232E0,4.2072473E0,1.3691242E0,6.298848E0,3.4391153E0,2.154585E0,3.5590193E0,1.6234996E0,2.9636083E0,1.4020769E1,3.855333E1,1.3548815E3,2.7265458E0,1.4807017E0,4.1171484E0,2.1816995E0,1.9532624E0,1.4858528E0,1.2205182E0,1.74309E0,1.2091602E0,1.2811609E1,1.3575663E1,2.4977667E1,1.5460971E1,1.3394205E3],"tree_param":{"num_deleted":"0","num_feature":"16","num_nodes":"49","size_leaf_vector":"1"}},{"base_weights":[9.676183E-4,3.2407518E-3,-5.045665E-1,6.3469387E-3,-3.5868967E-1,1.3800782E-1,-8.264287E-1,-1.4069102E-3,1.7823048E-1,1.7244339E-1,-5.8035696E-1,-3.1532645E-1,-4.6275858E-2,8.473537E-3,-2.890487E-1,-7.119899E-1,2.8490764E-1,-8.952371E-1,1.652744E-1,-5.9035495E-3,1.9524984E-1,-4.2089525E-1,8.2984215E-1,-1.3686032E0,3.746858E-1,1.1043783E0,1.6731414E-1,4.5674086E-2,-3.6755306E-1,-1.1018755E-1,1.4490339E-1,-4.9872445E-3,5.107755E-2,8.087735E-2,-1.7590645E-1,1.2579112E-1,-1.7644478E-1,-2.0211332E-2,3.3411E-1,-1.2945318E-1,-4.65474E-1,2.6219928E-1,-8.391699E-2,4.231647E-1,-6.68396E-2,-7.4818455E-2,1.3775232E-1],"categories":[],"categories_nodes":[],"categories_segments":[],"categories_sizes":[],"default_left":[0,0,0,0,0,0,0,0,0,0,0,0,0,0,0,0,0,0,0,0,0,0,0,0,0,0,0,0,0,0,0,0,0,0,0,0,0,0,0,0,0,0,0,0,0,0,0],"id":8,"left_children":[1,3,5,7,9,-1,11,13,15,-1,17,-1,-1,19,21,23,25,27,29,31,33,35,37,39,41,43,45,-1,-1,-1,-1,-1,-1,-1,-1,-1,-1,-1,-1,-1,-1,-1,-1,-1,-1,-1,-1],"loss_changes":[1.6613251E0,1.6198194E0,2.3893642E0,1.9028289E0,2.8706346E0,0E0,6.2462926E-1,3.8872824E0,6.055272E0,0E0,2.5910015E0,0E0,0E0,3.5524585E0,7.050124E0,5.422126E0,5.187153E0,2.7688289E0,8.430473E-1,2.3237727E0,5.6521072E0,6.05008E0,1.3802097E0,1.0272598E-1,1.3477887E0,3.084344E0,6.1869087E0,0E0,0E0,0E0,0E0,0E0,0E0,0E0,0E0,0E0,0E0,0E0,0E0,0E0,0E0,0E0,0E0,0E0,0E0,0E0,0E0],"parents":[2147483647,0,0,1,1,2,2,3,3,4,4,6,6,7,7,8,8,10,10,13,13,14,14,15,15,16,16,17,17,18,18,19,19,20,20,21,21,22,22,23,23,24,24,25,25,26,26],"right_children":[2,4,6,8,10,-1,12,14,16,-1,18,-1,-1,20,22,24,26,28,30,32,34,36,38,40,42,44,46,-1,-1,-1,-1,-1,-1,-1,-1,-1,-1,-1,-1,-1,-1,-1,-1,-1,-1,-1,-1],"split_conditions":[4.012001E3,4.9065877E-2,3.5214192E3,2.4914434E-2,5.5328217E2,1.3800782E-1,7.792126E1,1.9970568E-2,4.7548755E2,1.7244339E-1,2.753414E0,-3.1532645E-1,-4.6275858E-2,1.3780174E-2,6.969906E1,5.557083E1,5.685283E2,2.8048685E-2,6.0816534E-2,3.67398E7,7.93948E1,1.2597858E1,2.1788888E-3,4.2160635E2,2.3366497E0,4.0917344E7,9.2076074E2,4.5674086E-2,-3.6755306E-1,-1.1018755E-1,1.4490339E-1,-4.9872445E-3,5.107755E-2,8.087735E-2,-1.7590645E-1,1.2579112E-1,-1.7644478E-1,-2.0211332E-2,3.3411E-1,-1.2945318E-1,-4.65474E-1,2.6219928E-1,-8.391699E-2,4.231647E-1,-6.68396E-2,-7.4818455E-2,1.3775232E-1],"split_indices":[9,5,2,5,9,0,13,5,2,0,15,0,0,5,13,11,0,6,6,4,10,13,6,2,12,4,8,0,0,0,0,0,0,0,0,0,0,0,0,0,0,0,0,0,0,0,0],"split_type":[0,0,0,0,0,0,0,0,0,0,0,0,0,0,0,0,0,0,0,0,0,0,0,0,0,0,0,0,0,0,0,0,0,0,0,0,0,0,0,0,0,0,0,0,0,0,0],"sum_hessian":[1.4432806E3,1.4378091E3,5.4715176E0,1.4265485E3,1.126057E1,1.2615377E0,4.20998E0,1.3659221E3,6.062638E1,1.8551033E0,9.405466E0,2.7328706E0,1.4771096E0,1.3214994E3,4.4422737E1,5.880381E0,5.4746002E1,6.471788E0,2.9336786E0,1.2279467E3,9.355268E1,4.029798E1,4.1247573E0,3.5038018E0,2.376579E0,5.8170915E0,4.892891E1,1.6792164E0,4.7925715E0,1.0379628E0,1.8957157E0,1.1583588E3,6.958797E1,8.602555E1,7.527128E0,6.4399524E0,3.385803E1,1.1746382E0,2.9501193E0,1.1210034E0,2.3827987E0,1.1577033E0,1.2188756E0,4.6756353E0,1.1414561E0,2.0213787E1,2.871512E1],"tree_param":{"num_deleted":"0","num_feature":"16","num_nodes":"47","size_leaf_vector":"1"}},{"base_weights":[6.844536E-4,-2.2985138E-1,5.3725373E-3,1.3965587E-1,-4.7063574E-1,7.7161975E-2,-1.8473359E-2,-5.596371E-1,5.271345E-1,-6.048609E-1,1.8188283E-1,4.908608E-2,6.14921E-1,-4.1476884E-1,-2.6591052E-4,3.7401173E-2,-8.023518E-1,8.3539623E-1,-2.0492522E-1,-7.957894E-1,8.243721E-2,-5.5098027E-1,7.3098466E-2,9.958001E-1,-6.3649243E-1,3.0598006E-1,-4.7551408E-1,8.36625E-1,-5.5957846E-3,-3.1618094E-1,-4.711574E-2,3.4267038E-1,1.7300686E-1,1.07038215E-1,-1.0124048E0,1.5576205E-1,-1.4172788E-1,-9.046259E-1,4.3098593E-1,9.6924E-2,-4.842057E-1,1.1837442E0,-6.022044E-4,-9.724265E-1,5.1798835E-2,2.1995832E-1,-5.3732854E-1,3.4681927E-2,4.220372E-1,1.9766624E-1,-2.3376279E-2,1.5854284E-1,-7.758777E-2,1.411146E-1,-8.64027E-2,-3.5042918E-1,-1.36513915E-2,1.1830426E-1,-3.3332106E-1,2.6511806E-1,-1.3103285E-1,1.6169411E-1,2.0929389E-2,2.0942217E-1,-2.5147927E-1,4.3801805E-1,8.480428E-2,-9.549481E-2,-3.5612252E-1,-3.2666132E-1,-1.12378985E-1,1.970882E-1,-1.6221339E-1,1.8371145E-1,-1.774383E-2,-5.1962227E-2,4.5707496E-3],"categories":[],"categories_nodes":[],"categories_segments":[],"categories_sizes":[],"default_left":[0,0,0,0,0,0,0,0,0,0,0,0,0,0,0,0,0,0,0,0,0,0,0,0,0,0,0,0,0,0,0,0,0,0,0,0,0,0,0,0,0,0,0,0,0,0,0,0,0,0,0,0,0,0,0,0,0,0,0,0,0,0,0,0,0,0,0,0,0,0,0,0,0,0,0,0,0],"id":9,"left_children":[1,3,5,7,9,11,13,15,17,19,-1,21,23,25,27,-1,29,31,-1,33,35,37,39,41,43,-1,45,47,49,-1,-1,-1,51,53,55,-1,-1,57,59,61,63,65,-1,67,-1,-1,69,71,-1,73,75,-1,-1,-1,-1,-1,-1,-1,-1,-1,-1,-1,-1,-1,-1,-1,-1,-1,-1,-1,-1,-1,-1,-1,-1,-1,-1],"loss_changes":[1.5586367E0,2.6230006E0,2.4207737E0,3.576685E0,2.9152985E0,5.2930894E0,7.660524E0,8.978019E-1,3.670083E0,2.1885448E0,0E0,4.884187E0,8.930998E0,4.5492964E0,4.536805E0,0E0,4.3193245E-1,1.2396054E0,0E0,2.6027498E0,1.3172497E0,4.9223766E0,4.350621E0,2.5782719E0,1.4378537E0,0E0,3.787755E0,2.8942761E0,3.6570854E0,0E0,0E0,0E0,6.609764E-1,6.195481E-1,1.5097761E0,0E0,0E0,3.09799E0,2.00981E0,3.7042384E0,6.217496E0,2.4655323E0,0E0,1.06831074E-1,0E0,0E0,3.5224094E0,1.6800052E0,0E0,8.70532E0,5.384218E0,0E0,0E0,0E0,0E0,0E0,0E0,0E0,0E0,0E0,0E0,0E0,0E0,0E0,0E0,0E0,0E0,0E0,0E0,0E0,0E0,0E0,0E0,0E0,0E0,0E0,0E0],"parents":[2147483647,0,0,1,1,2,2,3,3,4,4,5,5,6,6,7,7,8,8,9,9,11,11,12,12,13,13,14,14,16,16,17,17,19,19,20,20,21,21,22,22,23,23,24,24,26,26,27,27,28,28,32,32,33,33,34,34,37,37,38,38,39,39,40,40,41,41,43,43,46,46,47,47,49,49,50,50],"right_children":[2,4,6,8,10,12,14,16,18,20,-1,22,24,26,28,-1,30,32,-1,34,36,38,40,42,44,-1,46,48,50,-1,-1,-1,52,54,56,-1,-1,58,60,62,64,66,-1,68,-1,-1,70,72,-1,74,76,-1,-1,-1,-1,-1,-1,-1,-1,-1,-1,-1,-1,-1,-1,-1,-1,-1,-1,-1,-1,-1,-1,-1,-1,-1,-1],"split_conditions":[-5.5027504E-2,3.2270798E1,-1.2243659E-2,-3.6436832E1,6.1872677E1,-1.3206412E-2,-9.843753E-3,4.1391574E2,9.4458296E7,1.8464817E0,1.8188283E-1,4.1101324E2,1.5049078E7,-8.911945E1,-9.622386E-3,3.7401173E-2,1.5129574E3,-8.69764E0,-2.0492522E-1,4.9855325E2,-3.0487966E-2,-1.7833922E-2,2.10663E0,4.329386E-3,-3.912576E-3,3.0598006E-1,4.3875662E2,9.363938E0,4.5334506E2,-3.1618094E-1,-4.711574E-2,3.4267038E-1,1.5304879E1,5.272616E2,3.1013442E7,1.5576205E-1,-1.4172788E-1,3.958731E1,1.0826044E7,4.8906332E2,7.349313E2,5.409333E1,-6.022044E-4,-5.4561596E0,5.1798835E-2,2.1995832E-1,1.2417496E1,1.8588314E1,4.220372E-1,7.765895E-1,6.548652E2,1.5854284E-1,-7.758777E-2,1.411146E-1,-8.64027E-2,-3.5042918E-1,-1.36513915E-2,1.1830426E-1,-3.3332106E-1,2.6511806E-1,-1.3103285E-1,1.6169411E-1,2.0929389E-2,2.0942217E-1,-2.5147927E-1,4.3801805E-1,8.480428E-2,-9.549481E-2,-3.5612252E-1,-3.2666132E-1,-1.12378985E-1,1.970882E-1,-1.6221339E-1,1.8371145E-1,-1.774383E-2,-5.1962227E-2,4.5707496E-3],"split_indices":[6,11,6,10,10,6,6,3,4,15,0,9,4,10,6,0,0,12,0,8,5,6,15,5,5,0,7,10,9,0,0,0,13,9,14,0,0,11,4,0,0,11,0,10,0,0,13,13,0,15,9,0,0,0,0,0,0,0,0,0,0,0,0,0,0,0,0,0,0,0,0,0,0,0,0,0,0],"split_type":[0,0,0,0,0,0,0,0,0,0,0,0,0,0,0,0,0,0,0,0,0,0,0,0,0,0,0,0,0,0,0,0,0,0,0,0,0,0,0,0,0,0,0,0,0,0,0,0,0,0,0,0,0,0,0,0,0,0,0,0,0,0,0,0,0,0,0,0,0,0,0,0,0,0,0,0,0],"sum_hessian":[1.4400095E3,2.7742594E1,1.4122668E3,1.1111263E1,1.663133E1,3.5157983E2,1.060687E3,3.8032079E0,7.308056E0,1.5177909E1,1.4534216E0,3.351721E2,1.6407743E1,4.5635006E1,1.01505206E3,1.1230994E0,2.6801083E0,6.0713115E0,1.2367442E0,1.17546625E1,3.4232466E0,1.2051866E1,3.231202E2,1.2735759E1,3.6719851E0,1.2122935E0,4.442271E1,5.436585E0,1.0096155E3,1.4726932E0,1.2074152E0,3.654174E0,2.4171376E0,2.3724458E0,9.382216E0,1.9514183E0,1.4718282E0,8.918657E0,3.133208E0,3.1066495E2,1.2455278E1,1.0560306E1,2.1754532E0,2.4521537E0,1.2198316E0,1.6328605E0,4.2789852E1,2.699933E0,2.736652E0,8.03989E1,9.2921655E2,1.2024775E0,1.21466E0,1.1364762E0,1.2359695E0,7.9017706E0,1.4804461E0,1.0982347E0,7.820423E0,2.0468824E0,1.0863255E0,1.6891253E1,2.9377368E2,2.6464758E0,9.808803E0,7.607155E0,2.9531505E0,1.2193438E0,1.2328098E0,8.4521265E0,3.4337723E1,1.2290142E0,1.4709189E0,3.0217928E1,5.0180973E1,1.8968266E2,7.395339E2],"tree_param":{"num_deleted":"0","num_feature":"16","num_nodes":"77","size_leaf_vector":"1"}},{"base_weights":[9.770684E-4,1.08809285E-2,-1.0611219E-1,1.7496875E-1,2.6800233E-4,-2.4881187E-1,8.9935064E-2,3.0375418E-1,-3.4775147E-1,-4.9423885E-1,6.698713E-3,-8.5255045E-1,-1.7009287E-1,2.5009108E-1,-4.7925985E-1,-8.012349E-2,4.846879E-1,2.5120756E-1,-5.67733E-1,1.3520631E-2,-8.590103E-1,3.8135308E-1,1.5670273E-3,-3.9995676E-1,-3.552899E-1,-3.529057E-1,1.4072512E-1,5.0635886E-1,-3.0610335E-1,2.1781322E-1,-7.4430335E-1,1.8819407E-1,-9.26033E-1,1.0630302E-1,6.395934E-1,-8.283916E-1,5.1227087E-1,3.8811794E-1,-6.675402E-1,3.2031383E-2,-1.0924004E0,6.339638E-1,-3.1823087E-1,-4.829519E-1,6.1105303E-3,1.4083862E-1,-2.6833558E-1,-5.4227084E-1,2.971692E-1,-5.883357E-2,4.1100046E-1,-2.9143876E-1,6.064415E-1,3.2928348E-1,-6.1677736E-1,-9.703307E-1,1.585771E-1,2.2435647E-1,-5.465452E-2,-6.649502E-3,-3.5309517E-1,1.2630858E-1,-2.0611866E-1,2.6921497E-3,2.4832185E-1,4.355265E-2,-3.177925E-1,-2.537479E-2,2.658466E-1,5.1137988E-2,-3.262672E-1,-3.8715693E-1,2.447306E-3,3.1068146E-1,6.1860684E-2,2.4467625E-1,-2.9612195E-1,9.869167E-2,-8.091828E-4,5.9464434E-4,-2.2577317E-1,2.853362E-1,-1.3833882E-1,-1.6862565E-1,8.660113E-2,-2.598851E-1,1.5878619E-1,2.3983316E-1,2.5814157E-2,1.1261667E-1,-2.6061738E-1,-1.6038977E-2,-3.4167668E-1],"categories":[],"categories_nodes":[],"categories_segments":[],"categories_sizes":[],"default_left":[0,0,0,0,0,0,0,0,0,0,0,0,0,0,0,0,0,0,0,0,0,0,0,0,0,0,0,0,0,0,0,0,0,0,0,0,0,0,0,0,0,0,0,0,0,0,0,0,0,0,0,0,0,0,0,0,0,0,0,0,0,0,0,0,0,0,0,0,0,0,0,0,0,0,0,0,0,0,0,0,0,0,0,0,0,0,0,0,0,0,0,0,0],"id":10,"left_children":[1,3,5,7,9,11,13,15,17,19,21,23,25,27,29,31,33,-1,35,37,39,41,43,-1,45,47,49,51,53,-1,55,57,59,61,63,65,67,-1,69,-1,71,73,-1,75,77,-1,-1,79,81,83,-1,85,87,-1,89,91,-1,-1,-1,-1,-1,-1,-1,-1,-1,-1,-1,-1,-1,-1,-1,-1,-1,-1,-1,-1,-1,-1,-1,-1,-1,-1,-1,-1,-1,-1,-1,-1,-1,-1,-1,-1,-1],"loss_changes":[1.5253536E0,2.292339E0,3.4284275E0,5.4888773E0,3.9382746E0,3.2163444E0,4.862221E0,4.5321817E0,4.717935E0,2.9562337E0,2.3497908E0,1.416575E0,3.6759121E0,6.0354204E0,4.2992487E0,5.072823E0,2.517521E0,0E0,4.4560857E0,7.5170355E0,2.2055278E0,6.688595E0,2.6600246E0,0E0,2.7546966E0,5.1429014E0,6.053864E0,2.4619064E0,6.6237316E0,0E0,3.4300294E0,3.7048678E0,1.1910868E0,3.788031E0,3.6823778E0,2.8333921E0,8.3421123E-1,0E0,2.17077E0,0E0,1.6573582E0,2.3083525E0,0E0,8.153606E0,3.4041169E0,0E0,0E0,3.6291313E0,5.285978E0,3.9935052E0,0E0,2.2822328E0,2.5178995E0,0E0,3.2771487E0,1.3245535E0,0E0,0E0,0E0,0E0,0E0,0E0,0E0,0E0,0E0,0E0,0E0,0E0,0E0,0E0,0E0,0E0,0E0,0E0,0E0,0E0,0E0,0E0,0E0,0E0,0E0,0E0,0E0,0E0,0E0,0E0,0E0,0E0,0E0,0E0,0E0,0E0,0E0],"parents":[2147483647,0,0,1,1,2,2,3,3,4,4,5,5,6,6,7,7,8,8,9,9,10,10,11,11,12,12,13,13,14,14,15,15,16,16,18,18,19,19,20,20,21,21,22,22,24,24,25,25,26,26,27,27,28,28,30,30,31,31,32,32,33,33,34,34,35,35,36,36,38,38,40,40,41,41,43,43,44,44,47,47,48,48,49,49,51,51,52,52,54,54,55,55],"right_children":[2,4,6,8,10,12,14,16,18,20,22,24,26,28,30,32,34,-1,36,38,40,42,44,-1,46,48,50,52,54,-1,56,58,60,62,64,66,68,-1,70,-1,72,74,-1,76,78,-1,-1,80,82,84,-1,86,88,-1,90,92,-1,-1,-1,-1,-1,-1,-1,-1,-1,-1,-1,-1,-1,-1,-1,-1,-1,-1,-1,-1,-1,-1,-1,-1,-1,-1,-1,-1,-1,-1,-1,-1,-1,-1,-1,-1,-1],"split_conditions":[3.2394517E3,-4.9676598E1,7.517862E1,3.0151367E-2,-4.425004E1,3.1106724E3,3.348123E6,7.150805E-1,-5.1173554E-3,-3.3702626E-4,2.900506E1,-8.255889E-3,1.0089697E0,4.0728518E3,3.2854526E3,6.6380155E-1,2.4350545E6,2.5120756E-1,-5.8510998E1,7.0639217E-1,1.0628398E3,-2.0630993E-3,3.0967983E1,-3.9995676E-1,-2.618722E-3,1.03497645E-2,3.8083794E3,-1.3029269E-2,3.6674294E1,2.1781322E-1,5.0392047E-2,1.761466E6,-9.410278E1,2.3150902E6,3.1888567E1,2.4195675E6,4.1312546E-2,3.8811794E-1,2.3977623E1,3.2031383E-2,5.7740307E1,1.512532E0,-3.1823087E-1,8.614911E-1,-3.4209793E1,1.4083862E-1,-2.6833558E-1,-5.249113E-3,2.0378552E-2,-4.220729E-3,4.1100046E-1,9.940123E-1,1.8960724E1,3.2928348E-1,4.0545063E3,-2.8236876E1,1.585771E-1,2.2435647E-1,-5.465452E-2,-6.649502E-3,-3.5309517E-1,1.2630858E-1,-2.0611866E-1,2.6921497E-3,2.4832185E-1,4.355265E-2,-3.177925E-1,-2.537479E-2,2.658466E-1,5.1137988E-2,-3.262672E-1,-3.8715693E-1,2.447306E-3,3.1068146E-1,6.1860684E-2,2.4467625E-1,-2.9612195E-1,9.869167E-2,-8.091828E-4,5.9464434E-4,-2.2577317E-1,2.853362E-1,-1.3833882E-1,-1.6862565E-1,8.660113E-2,-2.598851E-1,1.5878619E-1,2.3983316E-1,2.5814157E-2,1.1261667E-1,-2.6061738E-1,-1.6038977E-2,-3.4167668E-1],"split_indices":[9,10,13,6,10,8,4,15,5,5,11,5,15,8,1,15,14,0,10,15,0,5,11,0,5,6,1,5,11,0,6,4,10,14,11,14,6,0,13,0,11,15,0,15,10,0,0,5,6,5,0,15,12,0,1,12,0,0,0,0,0,0,0,0,0,0,0,0,0,0,0,0,0,0,0,0,0,0,0,0,0,0,0,0,0,0,0,0,0,0,0,0,0],"split_type":[0,0,0,0,0,0,0,0,0,0,0,0,0,0,0,0,0,0,0,0,0,0,0,0,0,0,0,0,0,0,0,0,0,0,0,0,0,0,0,0,0,0,0,0,0,0,0,0,0,0,0,0,0,0,0,0,0,0,0,0,0,0,0,0,0,0,0,0,0,0,0,0,0,0,0,0,0,0,0,0,0,0,0,0,0,0,0,0,0,0,0,0,0],"sum_hessian":[1.4361141E3,1.3153646E3,1.2074954E2,7.896653E1,1.2363981E3,6.972713E1,5.102241E1,6.3693027E1,1.5273501E1,1.4898285E1,1.2214998E3,6.9088817E0,6.281825E1,4.0256065E1,1.0766342E1,2.0582138E1,4.311089E1,1.9518381E0,1.3321663E1,6.6309624E0,8.267323E0,1.5514345E1,1.2059855E3,2.658337E0,4.2505445E0,3.9468674E1,2.3349573E1,2.761979E1,1.2636277E1,1.6271993E0,9.139143E0,1.6216032E1,4.366106E0,1.3012281E1,3.0098608E1,1.0919273E1,2.40239E0,1.9902561E0,4.6407065E0,1.7146256E0,6.5526967E0,1.3678699E1,1.8356465E0,1.0225668E1,1.1957598E3,1.7313644E0,2.5191803E0,3.0693554E1,8.77512E0,2.0907608E1,2.4419668E0,2.8655314E0,2.475426E1,1.8308711E0,1.0805407E1,7.9628744E0,1.1762686E0,6.051963E0,1.016407E1,1.1852888E0,3.1808171E0,9.652484E0,3.3597977E0,7.1571813E0,2.2941427E1,2.1645648E0,8.754708E0,1.2233146E0,1.1790754E0,1.747777E0,2.8929293E0,5.406763E0,1.1459337E0,6.3218737E0,7.356825E0,2.6868677E0,7.5388002E0,3.0789251E1,1.1649706E3,8.830815E0,2.186274E1,4.575209E0,4.1999106E0,8.2878E0,1.2619807E1,1.6525556E0,1.2129759E0,1.7666084E1,7.088174E0,2.088998E0,8.716409E0,1.4413508E0,6.5215235E0],"tree_param":{"num_deleted":"0","num_feature":"16","num_nodes":"93","size_leaf_vector":"1"}},{"base_weights":[7.6887215E-4,-1.8605962E-1,6.6385157E-3,-1.4365547E-2,-4.687357E-1,1.0022137E-1,-4.2499104E-3,-1.4964864E-1,7.165664E-1,-2.1140411E-2,-8.336651E-1,5.585352E-1,3.4957536E-2,2.1280958E-3,-2.6459575E-1,-4.1650677E-1,3.4925562E-1,-3.231921E-2,3.1192094E-1,7.0167583E-1,-4.6618605E-1,-2.5855553E-1,-1.0738097E0,8.839933E-1,-3.0945823E-1,-6.48896E-1,1.1359629E-1,1.15240335E-1,-9.919779E-3,3.6874706E-1,-4.504256E-1,5.1018184E-1,-6.1316514E-1,5.6195575E-1,-1.15055405E-1,2.7055258E-1,6.926375E-2,-8.3514166E-1,1.58554E-1,1.2189408E-1,-2.0249997E-1,-3.6588126E-1,-5.6278985E-2,-1.3010025E-1,1.0852857E0,-3.1921932E-1,3.3140317E-1,-1.2194499E-1,-1.1179795E0,1.7908585E-1,-4.179898E-1,8.203497E-1,6.5777816E-2,-7.4812E-1,-2.4238627E-3,6.61176E-1,-9.292659E-2,-6.6407514E-1,3.445712E-2,4.5776423E-2,1.8999434E-1,7.2951615E-2,-2.4106343E-1,2.7454174E-1,-9.344715E-2,5.229949E-2,-3.7690985E-1,3.7549093E-1,-5.4984823E-2,1.1268481E-1,-2.1430524E-1,-4.2830646E-1,4.956979E-2,2.8371254E-3,1.3888349E-1,-2.074285E-1,1.9171567E-1,-3.7102867E-2,3.051693E-1,5.4401398E-2,-1.2872666E-1,6.757147E-2,-2.831363E-1,2.379413E-1,-1.8942065E-3,-3.9542217E-2,3.0972406E-1,-1.16472304E-1,-3.2365692E-1,1.967591E-1,-1.7203142E-1],"categories":[],"categories_nodes":[],"categories_segments":[],"categories_sizes":[],"default_left":[0,0,0,0,0,0,0,0,0,0,0,0,0,0,0,0,0,0,0,0,0,0,0,0,0,0,0,0,0,0,0,0,0,0,0,0,0,0,0,0,0,0,0,0,0,0,0,0,0,0,0,0,0,0,0,0,0,0,0,0,0,0,0,0,0,0,0,0,0,0,0,0,0,0,0,0,0,0,0,0,0,0,0,0,0,0,0,0,0,0,0],"id":11,"left_children":[1,3,5,7,9,11,13,15,17,19,21,23,25,27,29,31,33,-1,-1,35,37,39,41,43,45,47,49,51,53,55,57,59,61,63,-1,-1,-1,65,-1,-1,-1,-1,-1,-1,67,-1,-1,69,71,73,75,77,79,81,83,85,-1,87,89,-1,-1,-1,-1,-1,-1,-1,-1,-1,-1,-1,-1,-1,-1,-1,-1,-1,-1,-1,-1,-1,-1,-1,-1,-1,-1,-1,-1,-1,-1,-1,-1],"loss_changes":[1.5702717E0,2.1101646E0,1.4149402E0,2.8924558E0,2.6693377E0,4.3093176E0,2.0669699E0,3.4199812E0,1.3298836E0,3.0338535E0,9.7029305E-1,5.350814E0,6.943757E0,1.6578423E0,3.6693673E0,3.316184E0,1.6361923E0,0E0,0E0,1.315713E-1,2.5731316E0,1.3759089E0,5.5380535E-1,4.0064764E0,7.196072E0,3.1572204E0,4.0931997E0,4.030125E0,6.082757E0,1.6536757E0,2.4536004E0,5.443257E-2,2.4858308E0,2.58947E0,0E0,0E0,0E0,2.185456E0,0E0,0E0,0E0,0E0,0E0,0E0,2.730032E0,0E0,0E0,2.4488006E0,2.9887524E0,4.977538E0,4.1878347E0,1.5362844E0,6.397677E0,2.3171206E0,3.3769841E0,1.7322297E0,0E0,1.4502187E0,3.4461286E0,0E0,0E0,0E0,0E0,0E0,0E0,0E0,0E0,0E0,0E0,0E0,0E0,0E0,0E0,0E0,0E0,0E0,0E0,0E0,0E0,0E0,0E0,0E0,0E0,0E0,0E0,0E0,0E0,0E0,0E0,0E0,0E0],"parents":[2147483647,0,0,1,1,2,2,3,3,4,4,5,5,6,6,7,7,8,8,9,9,10,10,11,11,12,12,13,13,14,14,15,15,16,16,19,19,20,20,21,21,22,22,23,23,24,24,25,25,26,26,27,27,28,28,29,29,30,30,31,31,32,32,33,33,37,37,44,44,47,47,48,48,49,49,50,50,51,51,52,52,53,53,54,54,55,55,57,57,58,58],"right_children":[2,4,6,8,10,12,14,16,18,20,22,24,26,28,30,32,34,-1,-1,36,38,40,42,44,46,48,50,52,54,56,58,60,62,64,-1,-1,-1,66,-1,-1,-1,-1,-1,-1,68,-1,-1,70,72,74,76,78,80,82,84,86,-1,88,90,-1,-1,-1,-1,-1,-1,-1,-1,-1,-1,-1,-1,-1,-1,-1,-1,-1,-1,-1,-1,-1,-1,-1,-1,-1,-1,-1,-1,-1,-1,-1,-1],"split_conditions":[1.801279E6,1.695232E6,2.3425212E6,2.3790529E-2,3.0911743E3,3.036984E1,3.6715298E3,3.187197E3,4.9581596E1,-4.6497947E-3,4.7540135E0,3.184746E0,4.1405186E1,-7.0508165E0,-1.647724E1,7.0383126E-1,3.2596714E3,-3.231921E-2,3.1192094E-1,-1.6851423E-2,3.0112E3,5.338696E1,1.761466E6,1.8588314E1,2.3083351E1,2.5239624E1,1.6544237E1,-7.460528E1,-6.653223E0,5.246693E-3,6.9951555E-3,3.0197817E3,2.9485823E3,1.2140919E0,-1.15055405E-1,2.7055258E-1,6.926375E-2,1.0893682E3,1.58554E-1,1.2189408E-1,-2.0249997E-1,-3.6588126E-1,-5.6278985E-2,-1.3010025E-1,1.7627875E3,-3.1921932E-1,3.3140317E-1,2.7155252E0,2.3010405E6,4.13464E0,8.3839714E1,-3.786309E-2,2.8237407E3,3.7077656E1,2.626401E1,3.2352864E3,-9.292659E-2,-3.6128107E-3,2.464219E-3,4.5776423E-2,1.8999434E-1,7.2951615E-2,-2.4106343E-1,2.7454174E-1,-9.344715E-2,5.229949E-2,-3.7690985E-1,3.7549093E-1,-5.4984823E-2,1.1268481E-1,-2.1430524E-1,-4.2830646E-1,4.956979E-2,2.8371254E-3,1.3888349E-1,-2.074285E-1,1.9171567E-1,-3.7102867E-2,3.051693E-1,5.4401398E-2,-1.2872666E-1,6.757147E-2,-2.831363E-1,2.379413E-1,-1.8942065E-3,-3.9542217E-2,3.0972406E-1,-1.16472304E-1,-3.2365692E-1,1.967591E-1,-1.7203142E-1],"split_indices":[14,14,14,6,0,13,9,1,13,6,10,12,13,12,12,15,7,0,0,6,0,13,4,13,13,10,12,10,12,5,6,9,2,15,0,0,0,7,0,0,0,0,0,0,3,0,0,12,14,12,13,6,3,11,11,3,0,6,5,0,0,0,0,0,0,0,0,0,0,0,0,0,0,0,0,0,0,0,0,0,0,0,0,0,0,0,0,0,0,0,0],"split_type":[0,0,0,0,0,0,0,0,0,0,0,0,0,0,0,0,0,0,0,0,0,0,0,0,0,0,0,0,0,0,0,0,0,0,0,0,0,0,0,0,0,0,0,0,0,0,0,0,0,0,0,0,0,0,0,0,0,0,0,0,0,0,0,0,0,0,0,0,0,0,0,0,0,0,0,0,0,0,0,0,0,0,0,0,0,0,0,0,0,0,0],"sum_hessian":[1.4297976E3,4.2616978E1,1.3871805E3,2.716693E1,1.5450048E1,1.4372256E2,1.243458E3,2.3595135E1,3.5717952E0,7.414232E0,8.035816E0,1.6972868E1,1.26749695E2,1.214692E3,2.8765953E1,1.5480143E1,8.114992E0,1.1937042E0,2.378091E0,2.6056519E0,4.80858E0,2.9787753E0,5.057041E0,1.2330905E1,4.641963E0,1.2324296E1,1.144254E2,1.1610141E2,1.0985907E3,6.30228E0,2.2463673E1,2.4309285E0,1.3049214E1,6.470058E0,1.6449342E0,1.1858884E0,1.4197633E0,3.6245599E0,1.1840199E0,1.1565794E0,1.8221958E0,4.0195694E0,1.0374722E0,1.4811131E0,1.0849792E1,3.1882248E0,1.4537383E0,6.397522E0,5.926774E0,1.0246516E2,1.196024E1,6.588877E0,1.09512535E2,1.0050098E1,1.0885405E3,4.421979E0,1.8803009E0,1.533652E1,7.127152E0,1.196205E0,1.2347233E0,2.3229895E0,1.0726225E1,4.5731454E0,1.8969127E0,1.2397071E0,2.3848526E0,9.603771E0,1.2460203E0,3.6760008E0,2.7215214E0,4.683744E0,1.2430303E0,6.47845E1,3.7680656E1,9.776987E0,2.183254E0,1.2011775E0,5.3876996E0,8.929429E1,2.0218243E1,1.6568571E0,8.393241E0,4.309639E0,1.084231E3,1.6157022E0,2.806277E0,1.0373824E1,4.962696E0,3.4853873E0,3.6417644E0],"tree_param":{"num_deleted":"0","num_feature":"16","num_nodes":"91","size_leaf_vector":"1"}},{"base_weights":[4.4291653E-4,-3.902487E-2,2.4365785E-2,3.462484E-2,-1.1029517E-1,6.574377E-1,1.51457265E-2,-1.2361397E-2,4.984296E-1,-3.792603E-1,-1.2397979E-2,4.293693E-1,2.4761157E-1,-4.3065327E-1,2.7125191E-2,4.8407856E-2,-3.611358E-1,1.2302989E0,1.2807275E-1,5.110566E-1,-4.3771666E-1,-3.7336057E-1,9.407168E-2,-3.436624E-1,6.3405E-1,-7.3457277E-1,2.9242568E-2,7.793021E-1,2.1844853E-2,2.2946006E-1,-5.286601E-2,-8.2201146E-2,-6.999392E-1,1.0029134E-1,4.1464338E-1,-6.28175E-1,2.8520584E-1,8.376963E-1,-8.7359436E-2,5.0827736E-1,-4.7838002E-1,-9.023966E-2,-8.206251E-1,6.5502506E-1,2.6233627E-2,-3.4488037E-1,1.0042449E-1,9.176701E-1,-8.119418E-2,-9.057159E-1,9.639054E-2,-3.7602744E-1,3.4710142E-1,1.0765139E0,-5.7115145E-2,5.1773334E-1,1.5145423E-2,1.00596555E-1,-9.021134E-2,-2.6259828E-1,7.563783E-4,5.840179E-2,-2.3897181E-1,-2.6779068E-1,2.1993744E-1,-3.069194E-1,2.9251741E-2,2.9096773E-1,6.9650216E-3,3.1368202E-1,1.00021265E-1,3.0048287E-1,-7.2658494E-2,-1.5758924E-1,1.1404104E-1,2.1634433E-1,-6.28353E-2,6.394886E-2,-3.0045417E-1,2.899076E-1,-2.0950317E-1,1.3234667E-1,-1.5661994E-2,7.502699E-2,3.388441E-1,2.3064628E-2,-3.4586978E-1,-1.9572136E-1,2.189951E-1,4.838709E-2,4.0620026E-1,3.69208E-1,-7.25288E-2,8.32006E-3,-6.559169E-2],"categories":[],"categories_nodes":[],"categories_segments":[],"categories_sizes":[],"default_left":[0,0,0,0,0,0,0,0,0,0,0,0,0,0,0,0,0,0,0,0,0,0,0,0,0,0,0,0,0,0,0,0,0,0,0,0,0,0,0,0,0,0,0,0,0,0,0,0,0,0,0,0,0,0,0,0,0,0,0,0,0,0,0,0,0,0,0,0,0,0,0,0,0,0,0,0,0,0,0,0,0,0,0,0,0,0,0,0,0,0,0,0,0,0,0],"id":12,"left_children":[1,3,5,7,9,11,13,15,17,19,21,-1,23,25,27,29,31,33,35,37,39,41,43,45,47,49,51,53,55,57,59,61,63,-1,-1,65,67,69,-1,71,73,75,77,79,81,-1,-1,83,-1,85,-1,-1,87,89,-1,91,93,-1,-1,-1,-1,-1,-1,-1,-1,-1,-1,-1,-1,-1,-1,-1,-1,-1,-1,-1,-1,-1,-1,-1,-1,-1,-1,-1,-1,-1,-1,-1,-1,-1,-1,-1,-1,-1,-1],"loss_changes":[1.3466285E0,2.8291078E0,5.173153E0,5.7913322E0,7.204236E0,3.680441E0,4.691278E0,5.1471047E0,6.467981E0,4.0242586E0,7.788967E0,0E0,2.3947551E0,3.2347918E0,3.3759143E0,3.8075223E0,3.3474698E0,6.3957787E-1,2.2404885E0,1.543853E0,2.899869E0,5.7707562E0,5.942092E0,2.7982507E0,1.8169096E0,2.7992954E0,4.5566864E0,1.9129457E0,2.8138158E0,4.278611E0,6.0861444E0,4.287743E0,5.1103406E0,0E0,0E0,1.0444058E0,2.6771894E0,4.8052788E-2,0E0,1.4759083E0,2.8876572E0,2.9936814E0,3.5361567E0,7.775999E0,4.603873E0,0E0,0E0,4.0781164E-1,0E0,3.0533314E0,0E0,0E0,3.876371E0,9.7176695E-1,0E0,6.4117603E0,2.4753067E0,0E0,0E0,0E0,0E0,0E0,0E0,0E0,0E0,0E0,0E0,0E0,0E0,0E0,0E0,0E0,0E0,0E0,0E0,0E0,0E0,0E0,0E0,0E0,0E0,0E0,0E0,0E0,0E0,0E0,0E0,0E0,0E0,0E0,0E0,0E0,0E0,0E0,0E0],"parents":[2147483647,0,0,1,1,2,2,3,3,4,4,5,5,6,6,7,7,8,8,9,9,10,10,12,12,13,13,14,14,15,15,16,16,17,17,18,18,19,19,20,20,21,21,22,22,23,23,24,24,25,25,26,26,27,27,28,28,29,29,30,30,31,31,32,32,35,35,36,36,37,37,39,39,40,40,41,41,42,42,43,43,44,44,47,47,49,49,52,52,53,53,55,55,56,56],"right_children":[2,4,6,8,10,12,14,16,18,20,22,-1,24,26,28,30,32,34,36,38,40,42,44,46,48,50,52,54,56,58,60,62,64,-1,-1,66,68,70,-1,72,74,76,78,80,82,-1,-1,84,-1,86,-1,-1,88,90,-1,92,94,-1,-1,-1,-1,-1,-1,-1,-1,-1,-1,-1,-1,-1,-1,-1,-1,-1,-1,-1,-1,-1,-1,-1,-1,-1,-1,-1,-1,-1,-1,-1,-1,-1,-1,-1,-1,-1,-1],"split_conditions":[4.8910755E1,4.154257E1,-2.5856052E-2,3.1875305E1,-9.407218E-3,5.1522617E1,-1.9218422E-2,1.6007956E0,4.2374092E1,-3.732596E-2,-5.4652677E0,4.293693E-1,1.940366E7,4.1847126E1,4.903103E1,-8.429391E-3,3.349449E1,2.40888E1,1.528452E6,-1.812745E-2,5.3737897E-1,-8.24151E0,-2.2395777E-2,1.2641827E3,5.8303173E1,7.356679E0,2.808599E6,8.711721E-3,-1.4501225E1,9.363938E0,-7.465411E-3,-5.1173554E-3,6.030617E7,1.0029134E-1,4.1464338E-1,-1.882169E-2,2.07222E6,7.8468896E2,-8.7359436E-2,8.278105E2,7.2786415E1,8.489172E0,5.6059366E-1,1.2381271E0,-3.305221E0,-3.4488037E-1,1.0042449E-1,-3.2796E-2,-8.119418E-2,-3.2913804E-2,9.639054E-2,-3.7602744E-1,-3.1323813E-2,6.8682117E2,-5.7115145E-2,5.387943E1,3.478176E3,1.00596555E-1,-9.021134E-2,-2.6259828E-1,7.563783E-4,5.840179E-2,-2.3897181E-1,-2.6779068E-1,2.1993744E-1,-3.069194E-1,2.9251741E-2,2.9096773E-1,6.9650216E-3,3.1368202E-1,1.00021265E-1,3.0048287E-1,-7.2658494E-2,-1.5758924E-1,1.1404104E-1,2.1634433E-1,-6.28353E-2,6.394886E-2,-3.0045417E-1,2.899076E-1,-2.0950317E-1,1.3234667E-1,-1.5661994E-2,7.502699E-2,3.388441E-1,2.3064628E-2,-3.4586978E-1,-1.9572136E-1,2.189951E-1,4.838709E-2,4.0620026E-1,3.69208E-1,-7.25288E-2,8.32006E-3,-6.559169E-2],"split_indices":[11,11,5,10,5,11,5,15,10,5,12,0,4,10,11,5,11,13,4,6,15,12,6,0,11,12,4,6,12,10,5,5,4,0,0,6,4,0,0,0,13,10,15,15,12,0,0,5,0,6,0,0,6,0,0,11,3,0,0,0,0,0,0,0,0,0,0,0,0,0,0,0,0,0,0,0,0,0,0,0,0,0,0,0,0,0,0,0,0,0,0,0,0,0,0],"split_type":[0,0,0,0,0,0,0,0,0,0,0,0,0,0,0,0,0,0,0,0,0,0,0,0,0,0,0,0,0,0,0,0,0,0,0,0,0,0,0,0,0,0,0,0,0,0,0,0,0,0,0,0,0,0,0,0,0,0,0,0,0,0,0,0,0,0,0,0,0,0,0,0,0,0,0,0,0,0,0,0,0,0,0,0,0,0,0,0,0,0,0,0,0,0,0],"sum_hessian":[1.4242302E3,5.37249E2,8.8698114E2,2.644669E2,2.7278214E2,1.1723329E1,8.752578E2,2.4102313E2,2.3443758E1,7.2024956E1,2.0075719E2,3.1962314E0,8.527098E0,2.1989777E1,8.5326807E2,2.0599284E2,3.5030277E1,7.0971045E0,1.6346653E1,3.960604E0,6.806435E1,4.5156612E1,1.5560057E2,3.4140658E0,5.113032E0,1.2880508E1,9.109267E0,4.9263797E0,8.483417E2,7.3438156E1,1.3255469E2,1.9894163E1,1.5136117E1,1.4924175E0,5.604687E0,2.2964768E0,1.4050176E1,2.7832289E0,1.177375E0,2.331217E0,6.573313E1,2.8388374E1,1.6768238E1,1.5853353E1,1.3974722E2,1.2429339E0,2.171132E0,3.881769E0,1.231263E0,1.1206326E1,1.6741828E0,1.2245319E0,7.8847356E0,3.6863382E0,1.2400416E0,1.0291476E1,8.380502E2,6.1521275E1,1.1916884E1,7.429414E0,1.25125275E2,1.4861631E1,5.0325313E0,1.3674495E1,1.4616218E0,1.221811E0,1.0746659E0,3.1405575E0,1.0909618E1,1.2106748E0,1.5725541E0,1.2046722E0,1.126545E0,6.269502E1,3.0381136E0,2.989773E0,2.5398602E1,2.4705436E0,1.4297695E1,1.312093E1,2.7324226E0,2.1483393E1,1.18263824E2,1.4602144E0,2.4215546E0,2.3909273E0,8.815398E0,1.9888791E0,5.895857E0,1.2255179E0,2.4608204E0,4.9883575E0,5.303118E0,7.960674E2,4.1982834E1],"tree_param":{"num_deleted":"0","num_feature":"16","num_nodes":"95","size_leaf_vector":"1"}},{"base_weights":[1.3628221E-3,-3.460833E-1,4.1982103E-3,-5.819801E-1,3.6580524E-1,6.179497E-1,2.2068133E-3,-8.98268E-1,1.9533342E-1,2.618813E-1,-1.0355586E-1,-5.336279E-2,2.9415104E-1,-2.2311492E-2,4.5661002E-2,-1.1795771E0,-1.847352E-1,1.7777894E-1,-4.774195E-2,-2.9735854E-1,7.297821E-2,-1.0060405E-1,-3.9600962E-1,-1.4989232E-1,6.542611E-2,4.7425084E-2,5.658117E-1,-1.5353312E-1,1.7149013E-3,4.3761662E-1,-4.6071154E-1,1.9859122E-1,-2.9718593E-2,7.681466E-2,-9.1016E-2,1.9948676E-1,-2.286451E-1,-2.8298097E-2,-1.4406495E-1,-3.1437814E-2,2.1079468E-2,-1.8849178E-1,2.28138E-1,-3.1106514E-1,-7.078826E-2,2.7783254E-2,1.427771E-1,6.8097934E-2,-2.8509818E-2],"categories":[],"categories_nodes":[],"categories_segments":[],"categories_sizes":[],"default_left":[0,0,0,0,0,0,0,0,0,0,0,0,0,0,0,0,0,0,0,0,0,0,0,0,0,0,0,0,0,0,0,0,0,0,0,0,0,0,0,0,0,0,0,0,0,0,0,0,0],"id":13,"left_children":[1,3,5,7,9,11,13,15,-1,-1,-1,-1,-1,17,19,21,23,25,27,29,31,-1,-1,-1,-1,33,35,37,39,41,43,45,47,-1,-1,-1,-1,-1,-1,-1,-1,-1,-1,-1,-1,-1,-1,-1,-1],"loss_changes":[1.4007263E0,2.1456802E0,1.7218045E0,4.1069555E0,1.555605E0,1.4889808E0,1.4993317E0,1.3090796E0,0E0,0E0,0E0,0E0,0E0,4.5865717E0,4.7780523E0,1.8229961E-1,5.322455E-1,5.115595E0,4.1809473E0,4.7205667E0,6.0812798E0,0E0,0E0,0E0,0E0,5.727222E0,3.860633E0,4.8783216E0,3.9900026E0,3.009595E0,3.806178E0,6.1861963E0,4.3807044E0,0E0,0E0,0E0,0E0,0E0,0E0,0E0,0E0,0E0,0E0,0E0,0E0,0E0,0E0,0E0,0E0],"parents":[2147483647,0,0,1,1,2,2,3,3,4,4,5,5,6,6,7,7,13,13,14,14,15,15,16,16,17,17,18,18,19,19,20,20,25,25,26,26,27,27,28,28,29,29,30,30,31,31,32,32],"right_children":[2,4,6,8,10,12,14,16,-1,-1,-1,-1,-1,18,20,22,24,26,28,30,32,-1,-1,-1,-1,34,36,38,40,42,44,46,48,-1,-1,-1,-1,-1,-1,-1,-1,-1,-1,-1,-1,-1,-1,-1,-1],"split_conditions":[-6.989044E-2,2.4168487E0,3.9726913E2,3.7201096E7,3.027738E7,1.4004468E7,1.0228883E0,4.573489E7,1.9533342E-1,2.618813E-1,-1.0355586E-1,-5.336279E-2,2.9415104E-1,-2.0715727E-2,2.657939E6,-4.175712E-2,-6.7709785E0,2.1556498E7,-1.4009812E0,1.0534637E0,1.5261272E7,-1.0060405E-1,-3.9600962E-1,-1.4989232E-1,6.542611E-2,1.0312545E7,4.573489E7,-2.17118E0,7.4095746E2,-9.506157E0,4.544307E1,1.0040868E7,5.4999414E2,7.681466E-2,-9.1016E-2,1.9948676E-1,-2.286451E-1,-2.8298097E-2,-1.4406495E-1,-3.1437814E-2,2.1079468E-2,-1.8849178E-1,2.28138E-1,-3.1106514E-1,-7.078826E-2,2.7783254E-2,1.427771E-1,6.8097934E-2,-2.8509818E-2],"split_indices":[6,15,0,14,14,4,15,4,0,0,0,0,0,6,4,5,10,14,12,15,4,0,0,0,0,4,4,12,7,12,13,14,8,0,0,0,0,0,0,0,0,0,0,0,0,0,0,0,0],"split_type":[0,0,0,0,0,0,0,0,0,0,0,0,0,0,0,0,0,0,0,0,0,0,0,0,0,0,0,0,0,0,0,0,0,0,0,0,0,0,0,0,0,0,0,0,0,0,0,0,0],"sum_hessian":[1.4193735E3,1.0509338E1,1.4088641E3,8.030707E0,2.4786317E0,3.5561101E0,1.4053081E3,6.607433E0,1.4232742E0,1.3137743E0,1.1648575E0,1.272432E0,2.2836783E0,8.9871155E2,5.0659653E2,4.2706037E0,2.3368292E0,1.0066605E2,7.980455E2,3.663899E1,4.6995752E2,1.0923581E0,3.1782453E0,1.1766405E0,1.1601887E0,7.619252E1,2.4473532E1,2.5356035E2,5.4448517E2,6.35717E0,3.0281818E1,2.1097316E2,2.5898438E2,4.7948322E1,2.82442E1,2.3237883E1,1.2356485E0,2.1574818E2,3.7812164E1,2.1300536E2,3.3147977E2,1.2578847E0,5.099285E0,7.4835253E0,2.2798292E1,1.536073E2,5.7365868E1,5.2025826E1,2.0695854E2],"tree_param":{"num_deleted":"0","num_feature":"16","num_nodes":"49","size_leaf_vector":"1"}},{"base_weights":[7.790703E-4,-1.03718504E-1,1.0431077E-2,-7.169794E-1,-2.413229E-2,5.0950503E-1,1.5409524E-3,-2.7875656E-1,-1.0419878E0,4.005572E-2,-5.536854E-1,-1.505029E-1,6.310012E-1,6.307607E-1,-1.3470453E-3,1.09542064E-1,-3.2197744E-1,5.5213753E-2,-1.3440424E0,6.896261E-1,-2.1598395E-2,7.143544E-1,-1.0421661E0,9.8659015E-1,7.1742475E-2,-3.7947956E-2,3.1151494E-1,-4.2711607E-1,8.217295E-3,1.6506913E-1,-2.5986248E-1,-5.456147E-1,-4.8740846E-1,-8.938794E-2,1.0195203E0,-2.906946E-1,1.7591175E-1,-4.3336038E-2,3.4106827E-1,-4.4067767E-1,-2.9220346E-1,3.4620885E-2,1.103147E0,-4.1266245E-1,3.0481762E-1,-1.8248485E-1,-8.252724E-1,1.6967453E-1,-6.3723624E-3,-2.3421906E-1,1.14654295E-1,-2.0483108E-1,-4.0658306E-2,3.6191502E-1,6.494359E-2,1.9299322E-1,-1.1127916E-1,1.02691986E-1,-1.1787867E-1,1.7799991E-1,-2.4383734E-1,2.5777655E-2,3.665141E-1,1.6571999E-1,-2.1006975E-1,-1.4599353E-1,1.3773547E-1,5.014395E-3,-3.057457E-1,-3.6353447E-2,1.3026965E-1,-4.0404763E-2,3.424323E-3],"categories":[],"categories_nodes":[],"categories_segments":[],"categories_sizes":[],"default_left":[0,0,0,0,0,0,0,0,0,0,0,0,0,0,0,0,0,0,0,0,0,0,0,0,0,0,0,0,0,0,0,0,0,0,0,0,0,0,0,0,0,0,0,0,0,0,0,0,0,0,0,0,0,0,0,0,0,0,0,0,0,0,0,0,0,0,0,0,0,0,0,0,0],"id":14,"left_children":[1,3,5,7,9,11,13,15,17,19,21,-1,23,25,27,29,-1,-1,31,33,35,37,39,41,43,-1,-1,45,47,-1,49,51,-1,-1,53,55,57,-1,-1,-1,59,-1,61,63,-1,65,67,69,71,-1,-1,-1,-1,-1,-1,-1,-1,-1,-1,-1,-1,-1,-1,-1,-1,-1,-1,-1,-1,-1,-1,-1,-1],"loss_changes":[1.4303756E0,5.835382E0,5.7590013E0,1.6664109E0,3.6651607E0,3.1074438E0,2.3204124E0,2.3437238E0,3.0335684E0,3.8804388E0,7.9630613E0,0E0,4.050356E0,1.9321704E0,5.1818213E0,1.0797644E0,0E0,0E0,4.9317455E-1,3.0396783E0,4.787987E0,1.5555903E0,2.3935509E0,1.1511106E0,4.5971174E0,0E0,0E0,2.572421E0,2.9330294E0,0E0,1.5723937E0,8.2217336E-2,0E0,0E0,7.1737194E-1,3.0940325E0,5.0584393E0,0E0,0E0,0E0,2.5322928E0,0E0,1.2202024E0,2.2594771E0,0E0,3.8533874E0,1.7075639E0,7.992539E0,2.6089368E0,0E0,0E0,0E0,0E0,0E0,0E0,0E0,0E0,0E0,0E0,0E0,0E0,0E0,0E0,0E0,0E0,0E0,0E0,0E0,0E0,0E0,0E0,0E0,0E0],"parents":[2147483647,0,0,1,1,2,2,3,3,4,4,5,5,6,6,7,7,8,8,9,9,10,10,12,12,13,13,14,14,15,15,18,18,19,19,20,20,21,21,22,22,23,23,24,24,27,27,28,28,30,30,31,31,34,34,35,35,36,36,40,40,42,42,43,43,45,45,46,46,47,47,48,48],"right_children":[2,4,6,8,10,12,14,16,18,20,22,-1,24,26,28,30,-1,-1,32,34,36,38,40,42,44,-1,-1,46,48,-1,50,52,-1,-1,54,56,58,-1,-1,-1,60,-1,62,64,-1,66,68,70,72,-1,-1,-1,-1,-1,-1,-1,-1,-1,-1,-1,-1,-1,-1,-1,-1,-1,-1,-1,-1,-1,-1,-1,-1],"split_conditions":[-3.1323813E-2,4.8283774E2,-2.8473007E-2,-1.6316323E0,-3.2913804E-2,2.0944385E6,2.626401E1,4.7266986E2,6.968282E-1,5.272616E2,-1.5152724E1,-1.505029E-1,-1.742924E0,2.99106E6,3.1888567E1,1.1322272E0,-3.2197744E-1,5.5213753E-2,4.2546255E2,4.572253E2,2.4714727E1,2.721851E1,-9.966341E-3,-1.56215515E1,-2.909641E-2,-3.7947956E-2,3.1151494E-1,1.1141576E0,3.976536E1,1.6506913E-1,1.4439609E0,3.99104E2,-4.8740846E-1,-8.938794E-2,-8.866752E-3,6.823828E-1,7.0944E1,-4.3336038E-2,3.4106827E-1,-4.4067767E-1,1.249701E7,3.4620885E-2,5.343196E2,3.9444218E1,3.0481762E-1,1.4638792E7,-1.7930405E-2,9.0744084E-1,4.492197E1,-2.3421906E-1,1.14654295E-1,-2.0483108E-1,-4.0658306E-2,3.6191502E-1,6.494359E-2,1.9299322E-1,-1.1127916E-1,1.02691986E-1,-1.1787867E-1,1.7799991E-1,-2.4383734E-1,2.5777655E-2,3.665141E-1,1.6571999E-1,-2.1006975E-1,-1.4599353E-1,1.3773547E-1,5.014395E-3,-3.057457E-1,-3.6353447E-2,1.3026965E-1,-4.0404763E-2,3.424323E-3],"split_indices":[6,3,6,12,6,14,11,1,15,9,10,0,12,4,11,15,0,0,7,9,13,11,5,12,6,0,0,15,11,0,15,2,0,0,5,15,13,0,0,0,14,0,8,11,0,14,5,15,11,0,0,0,0,0,0,0,0,0,0,0,0,0,0,0,0,0,0,0,0,0,0,0,0],"split_type":[0,0,0,0,0,0,0,0,0,0,0,0,0,0,0,0,0,0,0,0,0,0,0,0,0,0,0,0,0,0,0,0,0,0,0,0,0,0,0,0,0,0,0,0,0,0,0,0,0,0,0,0,0,0,0,0,0,0,0,0,0,0,0,0,0,0,0,0,0,0,0,0,0],"sum_hessian":[1.4160907E3,1.1891459E2,1.2971761E3,1.2739562E1,1.06175026E2,2.1716974E1,1.2754591E3,6.2159786E0,6.5235834E0,9.552112E1,1.0653913E1,1.9938141E0,1.972316E1,4.8340654E0,1.2706251E3,4.75445E0,1.4615287E0,1.3667326E0,5.156851E0,7.3975205E0,8.81236E1,2.834215E0,7.8196974E0,1.1589927E1,8.133233E0,1.9329112E0,2.9011543E0,2.6956673E1,1.2436685E3,1.9448258E0,2.8096242E0,2.106933E0,3.0499177E0,1.8765624E0,5.5209584E0,3.7102196E1,5.1021397E1,1.1516432E0,1.6825719E0,4.372756E0,3.4469414E0,1.6024852E0,9.987441E0,5.7477965E0,2.385437E0,1.7600857E1,9.355817E0,1.0218647E2,1.1414819E3,1.4319357E0,1.3776884E0,1.0805862E0,1.0263469E0,4.0713186E0,1.4496396E0,2.3799613E0,3.4722237E1,3.97826E1,1.1238799E1,1.2244225E0,2.222519E0,1.2226479E0,8.764793E0,1.1081176E0,4.639679E0,1.2104214E1,5.496642E0,1.9221296E0,7.433687E0,4.8932453E1,5.3254017E1,1.3817116E2,1.0033108E3],"tree_param":{"num_deleted":"0","num_feature":"16","num_nodes":"73","size_leaf_vector":"1"}},{"base_weights":[5.372331E-4,-3.0036256E-1,3.4192372E-3,4.4946015E-1,-5.432713E-1,4.13065E-1,4.126096E-5,2.8396574E-1,-6.6433266E-2,-1.8983065E-1,-9.3903196E-1,5.717343E-1,-1.6432649E-1,1.0778561E-2,-1.2526155E-1,2.2874054E-1,-2.5279093E-1,-3.2564968E-2,-3.553256E-1,-7.680107E-2,7.2893524E-1,5.8402824E-3,5.5494875E-1,-2.767508E-1,8.795671E-2,6.310282E-1,-1.4449711E-1,2.3681722E-3,8.351206E-1,8.061849E-3,-8.193664E-1,3.337853E-1,2.1288401E-1,3.3874474E-2,-5.1339865E-1,2.6854503E-1,-3.6085004E-1,2.2235447E-1,6.4280465E-2,2.32193E-2,2.8718865E-1,-3.7596773E-3,1.7463703E-2,-6.1911628E-2,-3.0508828E-1,-3.193003E-2,2.664481E-1,3.5812044E-1,-2.4191886E-2,-2.172949E-1,4.393739E-2,-6.1303E-2,2.0180564E-1,-1.5114646E-1,1.8801308E-1],"categories":[],"categories_nodes":[],"categories_segments":[],"categories_sizes":[],"default_left":[0,0,0,0,0,0,0,0,0,0,0,0,0,0,0,0,0,0,0,0,0,0,0,0,0,0,0,0,0,0,0,0,0,0,0,0,0,0,0,0,0,0,0,0,0,0,0,0,0,0,0,0,0,0,0],"id":15,"left_children":[1,3,5,7,9,11,13,-1,-1,15,17,19,-1,21,23,25,-1,-1,-1,-1,27,29,31,33,35,37,-1,-1,39,41,43,-1,45,47,49,51,53,-1,-1,-1,-1,-1,-1,-1,-1,-1,-1,-1,-1,-1,-1,-1,-1,-1,-1],"loss_changes":[1.2262943E0,2.687685E0,1.9379494E0,1.486881E0,1.3024573E0,2.05937E0,1.8715291E0,0E0,0E0,2.0631762E0,8.3749914E-1,1.5294497E0,0E0,3.4398112E0,3.5706394E0,1.7206861E0,0E0,0E0,0E0,0E0,6.773329E-1,2.3361843E0,1.9591517E0,4.753445E0,3.8546038E0,6.361246E-3,0E0,0E0,6.458192E-1,1.3106508E0,2.0456052E-1,0E0,1.8997433E0,3.9211905E0,5.2041664E0,6.565325E0,2.2542377E0,0E0,0E0,0E0,0E0,0E0,0E0,0E0,0E0,0E0,0E0,0E0,0E0,0E0,0E0,0E0,0E0,0E0,0E0],"parents":[2147483647,0,0,1,1,2,2,3,3,4,4,5,5,6,6,9,9,10,10,11,11,13,13,14,14,15,15,20,20,21,21,22,22,23,23,24,24,25,25,28,28,29,29,30,30,32,32,33,33,34,34,35,35,36,36],"right_children":[2,4,6,8,10,12,14,-1,-1,16,18,20,-1,22,24,26,-1,-1,-1,-1,28,30,32,34,36,38,-1,-1,40,42,44,-1,46,48,50,52,54,-1,-1,-1,-1,-1,-1,-1,-1,-1,-1,-1,-1,-1,-1,-1,-1,-1,-1],"split_conditions":[3.4990788E-1,7.76528E2,4.0015218E-1,4.0391466E-1,1.2918229E7,1.4664578E2,6.9739235E1,2.8396574E-1,-6.6433266E-2,4.0014164E1,8.575924E2,-7.313101E0,-1.6432649E-1,6.915755E1,3.1493463E-2,5.805005E-3,-2.5279093E-1,-3.2564968E-2,-3.553256E-1,-7.680107E-2,6.648586E2,2.7890215E1,1.1346909E-2,4.2312574E0,1.2537058E3,1.1239844E3,-1.4449711E-1,2.3681722E-3,-5.9002615E-3,1.9597266E0,4.9830868E1,3.337853E-1,1.5650187E-2,2.020718E6,5.5997265E1,7.3312585E2,8.128897E-2,2.2235447E-1,6.4280465E-2,2.32193E-2,2.8718865E-1,-3.7596773E-3,1.7463703E-2,-6.1911628E-2,-3.0508828E-1,-3.193003E-2,2.664481E-1,3.5812044E-1,-2.4191886E-2,-2.172949E-1,4.393739E-2,-6.1303E-2,2.0180564E-1,-1.5114646E-1,1.8801308E-1],"split_indices":[15,8,15,12,14,10,11,0,0,13,8,12,0,11,6,6,0,0,0,0,0,12,6,12,8,9,0,0,5,12,11,0,5,4,13,8,6,0,0,0,0,0,0,0,0,0,0,0,0,0,0,0,0,0,0],"split_type":[0,0,0,0,0,0,0,0,0,0,0,0,0,0,0,0,0,0,0,0,0,0,0,0,0,0,0,0,0,0,0,0,0,0,0,0,0,0,0,0,0,0,0,0,0,0,0,0,0,0,0,0,0,0,0],"sum_hessian":[1.4119095E3,1.241565E1,1.3994939E3,2.8298876E0,9.585763E0,1.0454049E1,1.3890399E3,1.389504E0,1.4403837E0,5.8452363E0,3.7405262E0,9.319915E0,1.1341342E0,1.2802483E3,1.0879155E2,3.9574018E0,1.8878345E0,1.1821256E0,2.5584006E0,1.3871894E0,7.932725E0,1.2697363E3,1.0511972E1,6.3428394E1,4.5363155E1,2.5979476E0,1.3594543E0,1.1561748E0,6.7765503E0,1.2673148E3,2.421549E0,3.140065E0,7.371907E0,2.779776E1,3.5630634E1,3.26338E1,1.2729357E1,1.4391344E0,1.1588132E0,1.167745E0,5.608805E0,8.9892487E2,3.6838992E2,1.0886548E0,1.3328943E0,5.5770683E0,1.7948389E0,1.6510175E0,2.6146742E1,2.692621E1,8.704426E0,1.5265673E1,1.7368128E1,1.154744E1,1.1819178E0],"tree_param":{"num_deleted":"0","num_feature":"16","num_nodes":"55","size_leaf_vector":"1"}},{"base_weights":[6.4415706E-4,3.0393992E-3,-3.0221888E-1,-2.6409712E-4,5.566983E-1,4.5797348E-1,-5.826414E-1,5.7731215E-3,-1.5108804E-1,7.2522193E-1,-9.9560894E-2,2.3048207E-1,6.086891E-3,-3.355528E-1,4.2268813E-1,9.568103E-3,-4.774045E-1,3.89306E-1,-4.097884E-1,-2.1449056E-2,9.696824E-1,2.7143854E-1,-9.40106E-2,7.253105E-3,5.118434E-1,-7.0789313E-1,1.4094386E-1,3.0858478E-2,8.3095664E-1,-9.4430864E-1,-2.5042075E-1,4.24882E-1,3.4668857E-1,2.8204839E-3,-1.3921443E-1,3.5815704E-1,-9.6431956E-2,6.302328E-2,-2.624181E-1,1.7721727E-1,-3.665183E-1,-5.1850773E-2,3.9473808E-1,-1.3848317E-2,-3.642367E-1,-1.667489E-1,4.6354912E-2,-5.2248683E-2,2.4502392E-1],"categories":[],"categories_nodes":[],"categories_segments":[],"categories_sizes":[],"default_left":[0,0,0,0,0,0,0,0,0,0,0,0,0,0,0,0,0,0,0,0,0,0,0,0,0,0,0,0,0,0,0,0,0,0,0,0,0,0,0,0,0,0,0,0,0,0,0,0,0],"id":16,"left_children":[1,3,5,7,9,11,13,15,17,19,-1,-1,-1,-1,21,23,25,27,29,-1,31,-1,-1,33,35,37,-1,39,41,43,45,-1,47,-1,-1,-1,-1,-1,-1,-1,-1,-1,-1,-1,-1,-1,-1,-1,-1],"loss_changes":[1.0235981E0,2.5601835E0,2.627057E0,1.2687151E0,1.4839168E0,4.6566546E-1,5.0671597E0,2.4612098E0,7.6564984E0,1.4897099E0,0E0,0E0,0E0,0E0,1.5933094E0,1.5431092E0,2.6163146E0,2.8039498E0,2.8942885E0,0E0,1.0807157E0,0E0,0E0,1.3462588E0,3.844111E0,1.5333204E0,0E0,8.369079E0,4.105744E0,1.902039E0,3.7554936E0,0E0,1.04392E0,0E0,0E0,0E0,0E0,0E0,0E0,0E0,0E0,0E0,0E0,0E0,0E0,0E0,0E0,0E0,0E0],"parents":[2147483647,0,0,1,1,2,2,3,3,4,4,5,5,6,6,7,7,8,8,9,9,14,14,15,15,16,16,17,17,18,18,20,20,23,23,24,24,25,25,27,27,28,28,29,29,30,30,32,32],"right_children":[2,4,6,8,10,12,14,16,18,20,-1,-1,-1,-1,22,24,26,28,30,-1,32,-1,-1,34,36,38,-1,40,42,44,46,-1,48,-1,-1,-1,-1,-1,-1,-1,-1,-1,-1,-1,-1,-1,-1,-1,-1],"split_conditions":[4.1769116E3,4.0697349E3,3.8569088E1,1.5073909E1,3.476284E6,3.5835407E1,1.6598705E2,7.745411E1,-2.0630993E-3,7.1206355E-1,-9.9560894E-2,2.3048207E-1,6.086891E-3,-3.355528E-1,6.502228E1,1.4715745E1,4.731331E7,1.1346909E-2,1.6544237E1,-2.1449056E-2,8.330684E-1,2.7143854E-1,-9.40106E-2,9.4458296E7,2.9367988E3,7.583209E0,1.4094386E-1,2.657939E6,2.4350545E6,3.497789E1,9.074132E-3,4.24882E-1,9.4332165E-1,2.8204839E-3,-1.3921443E-1,3.5815704E-1,-9.6431956E-2,6.302328E-2,-2.624181E-1,1.7721727E-1,-3.665183E-1,-5.1850773E-2,3.9473808E-1,-1.3848317E-2,-3.642367E-1,-1.667489E-1,4.6354912E-2,-5.2248683E-2,2.4502392E-1],"split_indices":[7,2,11,12,4,11,10,11,5,15,0,0,0,0,11,12,14,6,12,0,15,0,0,4,0,10,0,4,14,13,5,0,15,0,0,0,0,0,0,0,0,0,0,0,0,0,0,0,0],"split_type":[0,0,0,0,0,0,0,0,0,0,0,0,0,0,0,0,0,0,0,0,0,0,0,0,0,0,0,0,0,0,0,0,0,0,0,0,0,0,0,0,0,0,0,0,0,0,0,0,0],"sum_hessian":[1.4087557E3,1.398684E3,1.0071757E1,1.3913816E3,7.302382E0,2.543493E0,7.5282645E0,1.3387554E3,5.2626312E1,6.292746E0,1.0096359E0,1.0463542E0,1.4971389E0,4.837282E0,2.6909823E0,1.3292949E3,9.46037E0,1.6873901E1,3.575241E1,1.6436086E0,4.6491375E0,1.4874662E0,1.2035161E0,1.324206E3,5.0888534E0,7.8120947E0,1.6482749E0,9.904882E0,6.9690185E0,7.080159E0,2.867225E1,1.9662815E0,2.6828558E0,1.3191725E3,5.033623E0,2.5604775E0,2.528376E0,1.1615716E0,6.650523E0,7.2104425E0,2.69444E0,2.4793534E0,4.489665E0,1.9061404E0,5.174019E0,1.6132372E1,1.2539879E1,1.5712779E0,1.111578E0],"tree_param":{"num_deleted":"0","num_feature":"16","num_nodes":"49","size_leaf_vector":"1"}},{"base_weights":[6.391325E-4,6.0424432E-2,-1.0570439E-2,-8.851176E-3,3.7510726E-1,-3.1165648E-1,1.5009786E-3,2.0012397E-1,-1.1638051E-1,-1.23963624E-1,8.0712235E-1,-8.2789965E-2,-1.0676675E0,1.0206528E-1,-1.4678206E-2,-1.15648106E-1,4.277259E-1,-2.861242E-1,3.0585743E-2,1.9474836E-1,-6.575329E-1,4.56509E-2,9.5678204E-1,-3.5867435E-1,5.1921338E-2,-1.3475037E0,6.577423E-2,1.9658121E-1,-2.4107186E-1,6.694659E-2,-3.7817687E-2,2.4632083E-1,-6.617677E-1,6.11642E-1,-2.9817447E-1,1.3140993E-1,-4.9379626E-1,4.6001872E-1,-1.356985E-1,-6.372148E-1,5.975887E-1,-1.1223108E0,1.09227896E-1,3.101228E-1,-6.046592E-1,1.1545404E0,2.9572776E-2,3.7978107E-1,-3.5377014E-1,-4.4710162E-1,-7.8446336E-2,-3.6242545E-1,2.852849E-1,-3.6655727E-1,5.341699E-1,2.417472E-2,7.311928E-1,-3.7636992E-1,-2.2287458E-2,-2.9738408E-1,1.4326085E-1,1.7776734E-1,-2.641469E-1,2.9800743E-1,6.949415E-2,-2.2139287E-1,3.09874E-1,1.15602285E-1,-1.9452387E-1,-3.3049935E-1,-8.628158E-2,1.7954193E-1,-1.357791E-1,1.4056168E-3,-2.127362E-1,1.0283327E-1,-3.250547E-1,2.5839728E-1,-1.8434049E-1,-3.8753328E-1,-9.071932E-2,-2.183483E-1,-6.0251363E-2,3.808625E-1,-4.99192E-2,1.8737115E-1,-1.2968743E-1,-2.3314103E-2,2.6265848E-1,-2.7299434E-1,4.743868E-2,2.6387376E-1,-1.9444542E-1,-4.869048E-2,1.1974936E-1,-4.610885E-2,-2.4400684E-1,3.1071135E-1,-1.0871226E-1,5.3448338E-2,-3.0872388E-2,3.7418503E-1,-3.838766E-2,-1.5040937E-1,2.9115638E-1,9.612419E-2,-9.964168E-3],"categories":[],"categories_nodes":[],"categories_segments":[],"categories_sizes":[],"default_left":[0,0,0,0,0,0,0,0,0,0,0,0,0,0,0,0,0,0,0,0,0,0,0,0,0,0,0,0,0,0,0,0,0,0,0,0,0,0,0,0,0,0,0,0,0,0,0,0,0,0,0,0,0,0,0,0,0,0,0,0,0,0,0,0,0,0,0,0,0,0,0,0,0,0,0,0,0,0,0,0,0,0,0,0,0,0,0,0,0,0,0,0,0,0,0,0,0,0,0,0,0,0,0,0,0,0,0],"id":17,"left_children":[1,3,5,7,9,11,13,15,17,19,21,23,25,27,29,31,33,35,37,39,41,43,45,-1,47,49,-1,51,53,55,57,59,61,63,65,67,69,71,73,75,77,79,-1,-1,81,83,85,87,89,-1,-1,91,93,95,97,99,101,103,105,-1,-1,-1,-1,-1,-1,-1,-1,-1,-1,-1,-1,-1,-1,-1,-1,-1,-1,-1,-1,-1,-1,-1,-1,-1,-1,-1,-1,-1,-1,-1,-1,-1,-1,-1,-1,-1,-1,-1,-1,-1,-1,-1,-1,-1,-1,-1,-1],"loss_changes":[9.4375056E-1,4.8504667E0,4.3107724E0,4.140142E0,8.754505E0,7.8222265E0,1.8583031E0,4.54932E0,3.0421805E0,3.442676E0,2.4234324E0,5.485528E0,4.091243E0,5.180821E0,1.8609301E0,5.5028515E0,5.0683765E0,4.9659634E0,4.7806644E0,4.7290435E0,3.9780943E0,3.5847466E0,3.2742043E0,0E0,4.554368E0,9.749851E-1,0E0,6.2843375E0,3.5648727E0,6.166924E0,4.025626E0,5.3305497E0,3.5501895E0,4.052863E0,5.486802E0,4.1240735E0,4.440675E0,2.6300957E0,3.899736E0,2.4343138E0,3.488532E0,3.613205E-1,0E0,0E0,2.3370147E-2,2.466278E0,1.4236395E0,4.345648E0,4.5201426E0,0E0,0E0,6.78441E0,5.5767717E0,2.766253E0,2.7277613E0,4.0407057E0,5.983564E0,6.1413937E0,2.7615643E0,0E0,0E0,0E0,0E0,0E0,0E0,0E0,0E0,0E0,0E0,0E0,0E0,0E0,0E0,0E0,0E0,0E0,0E0,0E0,0E0,0E0,0E0,0E0,0E0,0E0,0E0,0E0,0E0,0E0,0E0,0E0,0E0,0E0,0E0,0E0,0E0,0E0,0E0,0E0,0E0,0E0,0E0,0E0,0E0,0E0,0E0,0E0,0E0],"parents":[2147483647,0,0,1,1,2,2,3,3,4,4,5,5,6,6,7,7,8,8,9,9,10,10,11,11,12,12,13,13,14,14,15,15,16,16,17,17,18,18,19,19,20,20,21,21,22,22,24,24,25,25,27,27,28,28,29,29,30,30,31,31,32,32,33,33,34,34,35,35,36,36,37,37,38,38,39,39,40,40,41,41,44,44,45,45,46,46,47,47,48,48,51,51,52,52,53,53,54,54,55,55,56,56,57,57,58,58],"right_children":[2,4,6,8,10,12,14,16,18,20,22,24,26,28,30,32,34,36,38,40,42,44,46,-1,48,50,-1,52,54,56,58,60,62,64,66,68,70,72,74,76,78,80,-1,-1,82,84,86,88,90,-1,-1,92,94,96,98,100,102,104,106,-1,-1,-1,-1,-1,-1,-1,-1,-1,-1,-1,-1,-1,-1,-1,-1,-1,-1,-1,-1,-1,-1,-1,-1,-1,-1,-1,-1,-1,-1,-1,-1,-1,-1,-1,-1,-1,-1,-1,-1,-1,-1,-1,-1,-1,-1,-1,-1],"split_conditions":[1.1302908E1,1.0413399E1,1.2099723E1,7.673906E-1,8.1423426E-1,8.00586E2,1.4157606E1,7.205974E6,1.2099648E7,2.0507816E7,-1.013814E1,1.0819937E7,4.284752E7,6.166586E1,-1.6851423E-2,7.182285E0,6.2325665E1,7.576878E6,8.029648E0,8.814432E6,4.9397524E7,-4.7576437E-3,1.1152626E1,-3.5867435E-1,9.940123E-1,3.3217345E-3,6.577423E-2,6.450606E-1,1.4928765E0,-1.7833922E-2,-1.4346807E-2,-1.3830231E-2,-1.9549383E-2,8.653043E0,2.7155252E0,1.288807E-2,6.8779564E0,1.5741991E7,1.512532E0,1.0779631E1,7.8802234E-1,7.8802234E-1,1.09227896E-1,3.101228E-1,1.0185049E0,7.745411E1,5.702633E2,2.8234941E-3,6.872904E2,-4.4710162E-1,-7.8446336E-2,7.205974E6,4.1242455E1,2.152474E1,1.884403E0,1.142862E3,-4.371355E-1,6.4736916E1,-1.26126185E-2,-2.9738408E-1,1.4326085E-1,1.7776734E-1,-2.641469E-1,2.9800743E-1,6.949415E-2,-2.2139287E-1,3.09874E-1,1.15602285E-1,-1.9452387E-1,-3.3049935E-1,-8.628158E-2,1.7954193E-1,-1.357791E-1,1.4056168E-3,-2.127362E-1,1.0283327E-1,-3.250547E-1,2.5839728E-1,-1.8434049E-1,-3.8753328E-1,-9.071932E-2,-2.183483E-1,-6.0251363E-2,3.808625E-1,-4.99192E-2,1.8737115E-1,-1.2968743E-1,-2.3314103E-2,2.6265848E-1,-2.7299434E-1,4.743868E-2,2.6387376E-1,-1.9444542E-1,-4.869048E-2,1.1974936E-1,-4.610885E-2,-2.4400684E-1,3.1071135E-1,-1.0871226E-1,5.3448338E-2,-3.0872388E-2,3.7418503E-1,-3.838766E-2,-1.5040937E-1,2.9115638E-1,9.612419E-2,-9.964168E-3],"split_indices":[13,13,13,15,15,7,13,4,4,4,10,14,14,11,6,13,11,4,13,4,14,5,13,0,15,5,0,15,15,6,6,6,6,13,12,6,13,14,15,13,15,15,0,0,15,11,0,6,9,0,0,4,11,10,15,9,12,11,6,0,0,0,0,0,0,0,0,0,0,0,0,0,0,0,0,0,0,0,0,0,0,0,0,0,0,0,0,0,0,0,0,0,0,0,0,0,0,0,0,0,0,0,0,0,0,0,0],"split_type":[0,0,0,0,0,0,0,0,0,0,0,0,0,0,0,0,0,0,0,0,0,0,0,0,0,0,0,0,0,0,0,0,0,0,0,0,0,0,0,0,0,0,0,0,0,0,0,0,0,0,0,0,0,0,0,0,0,0,0,0,0,0,0,0,0,0,0,0,0,0,0,0,0,0,0,0,0,0,0,0,0,0,0,0,0,0,0,0,0,0,0,0,0,0,0,0,0,0,0,0,0,0,0,0,0,0,0],"sum_hessian":[1.4062778E3,2.2134776E2,1.18493E3,1.8220766E2,3.9140095E1,4.4719357E1,1.1402107E3,6.1610737E1,1.20596924E2,1.8491486E1,2.064861E1,3.5179123E1,9.540234E0,1.5728323E2,9.829274E2,2.6012796E1,3.5597942E1,5.5522476E1,6.507445E1,1.197411E1,6.5173755E0,3.6060402E0,1.7042568E1,2.9484155E0,3.223071E1,7.7975883E0,1.7426451E0,1.2365108E2,3.3632156E1,2.1668288E2,7.6624457E2,1.5974099E1,1.0038696E1,2.852753E1,7.0704107E0,1.8564642E1,3.6957832E1,1.7671339E1,4.740311E1,3.7166076E0,8.257502E0,4.411745E0,2.1056302E0,1.1972716E0,2.4087687E0,1.3844573E1,3.1979952E0,1.7860558E1,1.437015E1,6.562214E0,1.2353745E0,1.651137E1,1.0713971E2,2.9400396E1,4.2317586E0,2.045481E2,1.2134782E1,3.258878E1,7.3365576E2,1.9971124E0,1.3976987E1,1.2367872E0,8.8019085E0,1.342629E1,1.5101241E1,5.649392E0,1.4210188E0,1.4386029E1,4.178612E0,8.260946E0,2.8696888E1,1.5642426E1,2.0289145E0,3.887713E1,8.525981E0,1.2355442E0,2.4810634E0,7.0194793E0,1.2380222E0,3.179146E0,1.2325993E0,1.2309648E0,1.1778039E0,1.27715845E1,1.0729891E0,1.2436187E0,1.9543766E0,9.727179E0,8.133379E0,6.5142956E0,7.855854E0,2.6993454E0,1.3812024E1,2.1644417E1,8.549529E1,2.0823696E1,8.576701E0,2.6141577E0,1.617601E0,9.230272E1,1.1224537E2,7.298705E0,4.836077E0,3.0395746E1,2.1930332E0,2.1793404E1,7.1186237E2],"tree_param":{"num_deleted":"0","num_feature":"16","num_nodes":"107","size_leaf_vector":"1"}},{"base_weights":[9.368727E-5,-6.1817258E-3,1.2856734E-1,-1.7930696E-3,-3.44807E-1,-6.733323E-1,2.743643E-1,4.2819116E-2,-1.9667523E-2,5.514721E-1,-7.6894283E-1,1.4512023E-1,-8.7727576E-1,4.1411558E-1,-1.5790373E-1,3.940756E-1,1.6279658E-2,2.1317005E-3,-2.762641E-1,1.090009E0,-1.0304405E-1,-7.3635466E-3,-1.3042059E0,-2.9694566E-1,-3.4316355E-1,1.18902825E-1,7.2122777E-1,-7.2984326E-1,1.3790631E-1,-2.828047E-1,7.5196284E-1,-2.258732E-2,3.0851093E-1,-8.90187E-3,3.2420483E-1,2.0390669E-1,-4.97879E-1,8.903839E-2,3.908156E-1,5.297791E-1,-2.042617E-1,-4.2288944E-1,-1.0935951E-1,-1.9463216E-1,7.985899E-2,-2.840368E-1,6.438117E-1,4.615832E-1,1.9362089E-1,-4.373155E-3,-3.3451992E-1,-6.7249215E-1,6.8981165E-1,1.1093398E-1,-1.611865E-1,2.8976938E-1,1.5722832E-4,5.3669873E-4,-2.3411441E-1,1.2768583E-1,-1.2684886E-1,-1.8011518E-3,-2.2379492E-1,-2.1146178E-2,1.972998E-1,1.9385089E-1,-6.788682E-2,-1.6522935E-1,2.119481E-1,-9.4126254E-2,3.128932E-1,5.8256008E-2,-3.7183422E-1,2.5155258E-1,1.6247181E-2,-6.941087E-2,2.2650412E-1,-3.1417263E-1,-3.0293792E-2,3.6136052E-1,1.0547448E-3],"categories":[],"categories_nodes":[],"categories_segments":[],"categories_sizes":[],"default_left":[0,0,0,0,0,0,0,0,0,0,0,0,0,0,0,0,0,0,0,0,0,0,0,0,0,0,0,0,0,0,0,0,0,0,0,0,0,0,0,0,0,0,0,0,0,0,0,0,0,0,0,0,0,0,0,0,0,0,0,0,0,0,0,0,0,0,0,0,0,0,0,0,0,0,0,0,0,0,0,0,0],"id":18,"left_children":[1,3,5,7,9,11,13,15,17,19,21,-1,23,25,27,29,31,33,35,37,-1,39,41,43,-1,45,47,49,51,53,55,57,59,61,63,65,67,-1,-1,69,-1,-1,-1,-1,-1,71,73,-1,75,-1,-1,77,79,-1,-1,-1,-1,-1,-1,-1,-1,-1,-1,-1,-1,-1,-1,-1,-1,-1,-1,-1,-1,-1,-1,-1,-1,-1,-1,-1,-1],"loss_changes":[1.1302545E0,1.9857678E0,7.817902E0,1.0538639E0,6.9230723E0,2.862877E0,3.4456153E0,3.5178995E0,5.2780476E0,3.3017979E0,4.8912354E0,0E0,1.0745497E0,3.77291E0,2.5359683E0,6.635779E0,4.0112057E0,3.0966487E0,7.963845E0,2.9359674E-1,0E0,2.519688E0,1.8500328E-1,1.010385E0,0E0,5.02594E0,8.612874E0,1.3795803E0,5.0834513E0,1.8423207E0,2.8316832E0,5.7664046E0,3.730219E0,1.7956674E0,3.8452325E0,4.720329E0,3.6275368E0,0E0,0E0,2.0079327E0,0E0,0E0,0E0,0E0,0E0,6.476399E0,1.1313405E0,0E0,3.443555E0,0E0,0E0,8.9887905E-1,2.3405836E0,0E0,0E0,0E0,0E0,0E0,0E0,0E0,0E0,0E0,0E0,0E0,0E0,0E0,0E0,0E0,0E0,0E0,0E0,0E0,0E0,0E0,0E0,0E0,0E0,0E0,0E0,0E0,0E0],"parents":[2147483647,0,0,1,1,2,2,3,3,4,4,5,5,6,6,7,7,8,8,9,9,10,10,12,12,13,13,14,14,15,15,16,16,17,17,18,18,19,19,21,21,22,22,23,23,25,25,26,26,27,27,28,28,29,29,30,30,31,31,32,32,33,33,34,34,35,35,36,36,39,39,45,45,46,46,48,48,51,51,52,52],"right_children":[2,4,6,8,10,12,14,16,18,20,22,-1,24,26,28,30,32,34,36,38,-1,40,42,44,-1,46,48,50,52,54,56,58,60,62,64,66,68,-1,-1,70,-1,-1,-1,-1,-1,72,74,-1,76,-1,-1,78,80,-1,-1,-1,-1,-1,-1,-1,-1,-1,-1,-1,-1,-1,-1,-1,-1,-1,-1,-1,-1,-1,-1,-1,-1,-1,-1,-1,-1],"split_conditions":[4.6458434E-2,4.2479325E-2,5.2094696E1,3.595493E6,9.10509E-1,4.5227634E2,7.4136375E1,3.1078062E1,1.4589978E3,1.2718669E-2,3.270306E0,1.4512023E-1,5.68355E-2,9.551046E0,6.548652E2,1.9596498E6,1.3452242E-2,1.4010045E3,5.325097E1,5.1522617E1,-1.0304405E-1,5.9853733E1,2.648561E3,-3.009821E0,-3.4316355E-1,8.984045E2,1.182225E0,7.3651746E-2,4.8515695E6,4.5202984E1,3.184746E0,3.4178033E-2,3.7144539E3,1.4552031E3,2.5498125E1,5.596902E6,3.5804704E-2,8.903839E-2,3.908156E-1,1.0929209E-2,-2.042617E-1,-4.2288944E-1,-1.0935951E-1,-1.9463216E-1,7.985899E-2,6.705554E2,1.8293181E3,4.615832E-1,2.5742909E-2,-4.373155E-3,-3.3451992E-1,7.855091E1,3.074904E1,1.1093398E-1,-1.611865E-1,2.8976938E-1,1.5722832E-4,5.3669873E-4,-2.3411441E-1,1.2768583E-1,-1.2684886E-1,-1.8011518E-3,-2.2379492E-1,-2.1146178E-2,1.972998E-1,1.9385089E-1,-6.788682E-2,-1.6522935E-1,2.119481E-1,-9.4126254E-2,3.128932E-1,5.8256008E-2,-3.7183422E-1,2.5155258E-1,1.6247181E-2,-6.941087E-2,2.2650412E-1,-3.1417263E-1,-3.0293792E-2,3.6136052E-1,1.0547448E-3],"split_indices":[6,6,11,14,15,1,11,13,0,5,12,0,6,10,9,14,5,2,11,11,0,11,0,12,0,9,15,6,14,11,12,6,0,7,13,14,6,0,0,5,0,0,0,0,0,0,7,0,5,0,0,11,10,0,0,0,0,0,0,0,0,0,0,0,0,0,0,0,0,0,0,0,0,0,0,0,0,0,0,0,0],"split_type":[0,0,0,0,0,0,0,0,0,0,0,0,0,0,0,0,0,0,0,0,0,0,0,0,0,0,0,0,0,0,0,0,0,0,0,0,0,0,0,0,0,0,0,0,0,0,0,0,0,0,0,0,0,0,0,0,0,0,0,0,0,0,0,0,0,0,0,0,0,0,0,0,0,0,0,0,0,0,0,0,0],"sum_hessian":[1.3999231E3,1.3356348E3,6.4288414E1,1.3195386E3,1.6096207E1,9.333706E0,5.4954712E1,3.7705798E2,9.424805E2,5.073891E0,1.1022315E1,1.193054E0,8.140652E0,4.156034E1,1.3394371E1,2.5514774E1,3.515432E2,8.695955E2,7.2885E1,3.0316474E0,2.0422435E0,4.9678087E0,6.054507E0,3.227964E0,4.912688E0,2.1897984E1,1.9662357E1,4.0658693E0,9.328502E0,8.8971615E0,1.661761E1,3.1109064E2,4.045258E1,8.417319E2,2.786366E1,2.304138E1,4.9843624E1,1.1475666E0,1.8840809E0,2.882409E0,2.0853999E0,4.994076E0,1.060431E0,1.8931446E0,1.3348192E0,1.2647882E1,9.250102E0,6.9613853E0,1.2700972E1,1.7865393E0,2.27933E0,3.690706E0,5.637796E0,2.3690453E0,6.5281167E0,1.2712856E1,3.904755E0,3.0236203E2,8.728582E0,3.5229378E1,5.223201E0,8.394396E2,2.2923346E0,1.3121443E1,1.4742217E1,1.1113804E1,1.1927577E1,4.826686E1,1.576761E0,1.2373055E0,1.6451035E0,8.959848E0,3.6880333E0,6.6367064E0,2.6133957E0,7.5632443E0,5.1377273E0,1.7263248E0,1.9643811E0,2.790094E0,2.8477018E0],"tree_param":{"num_deleted":"0","num_feature":"16","num_nodes":"81","size_leaf_vector":"1"}},{"base_weights":[1.9074901E-4,-9.338172E-3,8.6081654E-2,-1.3325672E-3,-1.8162741E-1,3.074219E-1,-4.3778174E-4,-4.345895E-3,5.6448144E-1,-4.4626677E-1,1.4449008E-1,4.413995E-1,-4.244938E-1,2.7568898E-1,-1.0435977E-1,-2.0511826E-3,-6.65368E-1,9.013627E-1,-1.1479463E-1,3.0568278E-1,-6.1959815E-1,5.5480593E-1,-7.636157E-2,5.05573E-1,-1.8569693E-1,2.111288E-1,-9.826325E-1,-7.335535E-2,8.4879124E-1,-2.7758634E-1,2.0499466E-1,-1.2794285E-1,6.7205713E-3,-2.9287206E-2,-2.8456303E-1,4.1451458E-2,3.9354593E-1,6.5191853E-1,-1.567209E-1,-7.3467755E-1,3.3143288E-1,-1.4010172E-1,8.963901E-1,1.4551303E-1,-8.572221E-1,8.442252E-1,2.556513E-1,-4.2240396E-2,-4.0457362E-1,-3.3579668E-1,5.938422E-1,-5.0469436E-2,1.0174595E0,-3.4990922E-1,4.748258E-1,5.5175996E-1,-3.4612694E-1,-2.2921091E-1,-2.4181977E-2,-4.4023264E-2,4.848153E-3,-1.7415878E-1,3.508894E-1,-2.5070027E-1,1.784048E-1,2.085648E-1,-5.325934E-2,3.849362E-1,-1.6594063E-1,-5.2103367E-2,2.1898983E-1,-3.968651E-2,-3.3693534E-1,3.5330977E-2,3.083183E-1,-2.902962E-2,2.3189688E-1,-6.0440633E-3,-3.0830276E-1,2.9870552E-1,-1.3111646E-1,-3.163279E-2,3.605806E-1,6.928423E-3,-1.375536E-1,2.2622524E-1,-7.697611E-2,6.433415E-2,3.171339E-1,-1.9467717E-1,1.018096E-1],"categories":[],"categories_nodes":[],"categories_segments":[],"categories_sizes":[],"default_left":[0,0,0,0,0,0,0,0,0,0,0,0,0,0,0,0,0,0,0,0,0,0,0,0,0,0,0,0,0,0,0,0,0,0,0,0,0,0,0,0,0,0,0,0,0,0,0,0,0,0,0,0,0,0,0,0,0,0,0,0,0,0,0,0,0,0,0,0,0,0,0,0,0,0,0,0,0,0,0,0,0,0,0,0,0,0,0,0,0,0,0],"id":19,"left_children":[1,3,5,7,9,11,13,15,17,19,21,23,25,27,29,31,33,35,-1,37,39,41,43,45,-1,-1,47,49,51,53,55,57,59,-1,-1,-1,-1,61,-1,63,65,-1,67,69,71,73,75,-1,-1,77,79,-1,81,83,85,87,89,-1,-1,-1,-1,-1,-1,-1,-1,-1,-1,-1,-1,-1,-1,-1,-1,-1,-1,-1,-1,-1,-1,-1,-1,-1,-1,-1,-1,-1,-1,-1,-1,-1,-1],"loss_changes":[1.1430595E0,1.7337414E0,2.6710267E0,2.0524423E0,4.881458E0,4.0310955E0,2.9348624E0,1.814273E0,2.379625E0,4.2371264E0,2.376564E0,2.6009388E0,4.8317885E0,5.6567397E0,4.0388374E0,1.3192028E0,5.726353E-1,1.3856306E0,0E0,2.2005568E0,3.0418386E0,3.6067345E0,3.1782005E0,2.5140896E0,0E0,0E0,1.293766E0,3.4040275E0,2.0007124E0,2.781296E0,5.398329E0,2.28143E0,1.6205996E0,0E0,0E0,0E0,0E0,3.8816826E0,0E0,3.6008081E0,7.620295E-1,0E0,4.739258E0,2.8466084E0,6.31094E-1,1.6468267E0,3.7198806E0,0E0,0E0,2.9873717E0,2.7251248E0,0E0,2.0511684E0,1.8099842E0,1.1409321E0,2.6899505E0,2.5320196E0,0E0,0E0,0E0,0E0,0E0,0E0,0E0,0E0,0E0,0E0,0E0,0E0,0E0,0E0,0E0,0E0,0E0,0E0,0E0,0E0,0E0,0E0,0E0,0E0,0E0,0E0,0E0,0E0,0E0,0E0,0E0,0E0,0E0,0E0],"parents":[2147483647,0,0,1,1,2,2,3,3,4,4,5,5,6,6,7,7,8,8,9,9,10,10,11,11,12,12,13,13,14,14,15,15,16,16,17,17,19,19,20,20,21,21,22,22,23,23,26,26,27,27,28,28,29,29,30,30,31,31,32,32,37,37,39,39,40,40,42,42,43,43,44,44,45,45,46,46,49,49,50,50,52,52,53,53,54,54,55,55,56,56],"right_children":[2,4,6,8,10,12,14,16,18,20,22,24,26,28,30,32,34,36,-1,38,40,42,44,46,-1,-1,48,50,52,54,56,58,60,-1,-1,-1,-1,62,-1,64,66,-1,68,70,72,74,76,-1,-1,78,80,-1,82,84,86,88,90,-1,-1,-1,-1,-1,-1,-1,-1,-1,-1,-1,-1,-1,-1,-1,-1,-1,-1,-1,-1,-1,-1,-1,-1,-1,-1,-1,-1,-1,-1,-1,-1,-1,-1],"split_conditions":[7.0881485E1,5.6342804E1,8.429067E1,5.5326157E1,9.3247586E-1,4.777562E0,5.409333E1,2.7890215E1,6.836123E1,4.623413E1,2.7915546E1,1.7749174E0,2.0690818E6,-1.4346807E-2,4.3894954E0,-3.575138E-2,-2.2449328E-4,-1.1901004E0,-1.1479463E-1,8.487397E-1,2.4200324E-2,1.0046573E0,1.8072336E7,-2.6892554E-3,-1.8569693E-1,2.111288E-1,2.42064E6,3.569445E6,4.4163612E1,2.904742E-2,4.7305934E-3,2.957749E6,-1.7563673E-2,-2.9287206E-2,-2.8456303E-1,4.1451458E-2,3.9354593E-1,1.502769E6,-1.567209E-1,4.072667E7,3.6762543E-2,-1.4010172E-1,4.411924E7,6.677962E1,1.2106448E3,1.87974E6,1.297424E7,-4.2240396E-2,-4.0457362E-1,5.1749947E1,7.792126E1,-5.0469436E-2,1.1847594E3,5.8312064E-1,7.0944E1,0E0,1.4548663E0,-2.2921091E-1,-2.4181977E-2,-4.4023264E-2,4.848153E-3,-1.7415878E-1,3.508894E-1,-2.5070027E-1,1.784048E-1,2.085648E-1,-5.325934E-2,3.849362E-1,-1.6594063E-1,-5.2103367E-2,2.1898983E-1,-3.968651E-2,-3.3693534E-1,3.5330977E-2,3.083183E-1,-2.902962E-2,2.3189688E-1,-6.0440633E-3,-3.0830276E-1,2.9870552E-1,-1.3111646E-1,-3.163279E-2,3.605806E-1,6.928423E-3,-1.375536E-1,2.2622524E-1,-7.697611E-2,6.433415E-2,3.171339E-1,-1.9467717E-1,1.018096E-1],"split_indices":[10,10,10,10,15,12,11,12,11,11,13,15,14,6,12,6,5,12,0,15,6,15,4,6,0,0,4,4,11,6,5,4,5,0,0,0,0,4,0,14,6,0,4,10,7,4,14,0,0,11,13,0,8,15,13,5,15,0,0,0,0,0,0,0,0,0,0,0,0,0,0,0,0,0,0,0,0,0,0,0,0,0,0,0,0,0,0,0,0,0,0],"split_type":[0,0,0,0,0,0,0,0,0,0,0,0,0,0,0,0,0,0,0,0,0,0,0,0,0,0,0,0,0,0,0,0,0,0,0,0,0,0,0,0,0,0,0,0,0,0,0,0,0,0,0,0,0,0,0,0,0,0,0,0,0,0,0,0,0,0,0,0,0,0,0,0,0,0,0,0,0,0,0,0,0,0,0,0,0,0,0,0,0,0,0],"sum_hessian":[1.3946366E3,1.256166E3,1.3847047E2,1.2013517E3,5.481437E1,3.819755E1,1.0027293E2,1.1959747E3,5.377024E0,3.0055979E1,2.475839E1,3.2622845E1,5.574707E0,2.6967054E1,7.330588E1,1.1928369E3,3.1377835E0,4.0019183E0,1.3751056E0,5.487299E0,2.456868E1,8.134095E0,1.6624294E1,3.1254576E1,1.3682679E0,1.7586838E0,3.816023E0,1.7301617E1,9.665438E0,4.7057934E1,2.624794E1,7.681448E1,1.1160225E3,1.4917306E0,1.6460531E0,1.8670365E0,2.134882E0,4.0194454E0,1.4678534E0,2.2119593E1,2.449086E0,1.9459178E0,6.1881776E0,1.3579461E1,3.0448332E0,1.2261658E1,1.8992918E1,1.5757924E0,2.2402308E0,1.2773774E1,4.5278425E0,1.3753074E0,8.29013E0,4.3419357E1,3.6385782E0,1.6110233E1,1.0137706E1,4.2717037E0,7.254278E1,6.3827976E1,1.0521945E3,1.1530954E0,2.8663502E0,2.0902994E1,1.2165996E0,1.214836E0,1.23425E0,4.9755187E0,1.2126591E0,9.237413E0,4.3420477E0,1.218971E0,1.8258623E0,2.8037744E0,9.457884E0,1.1780717E1,7.212202E0,9.478571E0,3.2952037E0,3.2824886E0,1.2453542E0,1.2302191E0,7.059911E0,9.968651E0,3.3450706E1,2.6107717E0,1.0278066E0,1.0515622E1,5.594612E0,7.068667E0,3.0690386E0],"tree_param":{"num_deleted":"0","num_feature":"16","num_nodes":"91","size_leaf_vector":"1"}},{"base_weights":[3.9760108E-4,3.152248E-2,-2.3646876E-2,5.751485E-1,2.1597855E-2,-3.8530692E-1,-1.3169116E-2,-3.570681E-1,8.532359E-1,-8.367051E-1,3.0574586E-2,-5.236272E-1,5.032019E-1,7.573778E-2,-5.8831833E-2,6.730574E-2,-2.3527776E-1,1.0047274E-1,1.1043786E0,-6.5890364E-2,-3.1156242E-1,1.3305033E-2,3.2479107E-1,1.3827579E-1,-8.2647765E-1,-1.9759737E-2,2.345246E-1,-8.574282E-2,1.7988588E-1,-4.6509588E-1,-2.6222985E-2,-1.0167755E-1,1.6041774E-1,3.9732695E-1,1.633772E-2,2.23016E-1,-1.7717497E-2,-2.6505938E-1,5.360092E-1,7.3156285E-1,-5.3227794E-1,8.412228E-2,-1.0514579E0,-2.2179976E-1,1.9050874E-1,3.0568102E-1,-8.970395E-3,-6.256395E-1,2.381492E-1,-2.2918972E-1,2.2531804E-2,-2.773344E-2,1.3901076E-1,1.0035282E-2,-4.533069E-2,-2.0519564E-1,1.4876555E-1,3.6929537E-2,3.0994403E-1,4.3647714E-2,3.236704E-1,-3.3017552E-1,1.1905558E-1,5.121596E-2,-3.6274886E-1,2.7133344E-2,-1.2166362E-1,1.786754E-1,-6.817576E-2,2.7666207E-2,1.8075195E-1,8.994808E-2,-6.6070996E-2,1.4554696E-1,-2.181743E-1,-2.3298495E-1,1.7761922E-1,9.5703885E-2,-9.523659E-2,3.2742894E-1,4.4701723E-3],"categories":[],"categories_nodes":[],"categories_segments":[],"categories_sizes":[],"default_left":[0,0,0,0,0,0,0,0,0,0,0,0,0,0,0,0,0,0,0,0,0,0,0,0,0,0,0,0,0,0,0,0,0,0,0,0,0,0,0,0,0,0,0,0,0,0,0,0,0,0,0,0,0,0,0,0,0,0,0,0,0,0,0,0,0,0,0,0,0,0,0,0,0,0,0,0,0,0,0,0,0],"id":20,"left_children":[1,3,5,7,9,11,13,15,17,19,21,23,25,27,29,-1,-1,31,33,-1,-1,35,37,39,41,-1,-1,43,45,47,49,-1,-1,-1,-1,51,53,55,57,59,61,-1,63,65,67,69,71,73,75,77,79,-1,-1,-1,-1,-1,-1,-1,-1,-1,-1,-1,-1,-1,-1,-1,-1,-1,-1,-1,-1,-1,-1,-1,-1,-1,-1,-1,-1,-1,-1],"loss_changes":[1.0417842E0,3.2608538E0,